digraph Tree {
node [shape=box] ;
0 [label="std X <= 0.6659\nentropy = 0.9063\nsamples = 14346\nvalue = [4616, 9730]"] ;
1 [label="std mag <= 0.5539\nentropy = 0.2112\nsamples = 9220\nvalue = [308, 8912]"] ;
0 -> 1 [labeldistance=2.5, labelangle=45, headlabel="True"] ;
2 [label="max Z <= 9.6323\nentropy = 0.162\nsamples = 9052\nvalue = [215, 8837]"] ;
1 -> 2 ;
3 [label="var X <= 0.0019\nentropy = 0.4882\nsamples = 1300\nvalue = [138, 1162]"] ;
2 -> 3 ;
4 [label="median mag <= 9.7595\nentropy = 0.6253\nsamples = 64\nvalue = [54, 10]"] ;
3 -> 4 ;
5 [label="min Y <= -0.1207\nentropy = 0.3095\nsamples = 54\nvalue = [51, 3]"] ;
4 -> 5 ;
6 [label="mean Y <= -2.3912\nentropy = 0.9852\nsamples = 7\nvalue = [4, 3]"] ;
5 -> 6 ;
7 [label="entropy = 0.0\nsamples = 3\nvalue = [3, 0]"] ;
6 -> 7 ;
8 [label="std X <= 0.0294\nentropy = 0.8113\nsamples = 4\nvalue = [1, 3]"] ;
6 -> 8 ;
9 [label="entropy = 0.0\nsamples = 1\nvalue = [1, 0]"] ;
8 -> 9 ;
10 [label="entropy = 0.0\nsamples = 3\nvalue = [0, 3]"] ;
8 -> 10 ;
11 [label="entropy = 0.0\nsamples = 47\nvalue = [47, 0]"] ;
5 -> 11 ;
12 [label="median mag <= 10.0217\nentropy = 0.8813\nsamples = 10\nvalue = [3, 7]"] ;
4 -> 12 ;
13 [label="entropy = 0.0\nsamples = 7\nvalue = [0, 7]"] ;
12 -> 13 ;
14 [label="entropy = 0.0\nsamples = 3\nvalue = [3, 0]"] ;
12 -> 14 ;
15 [label="median mag <= 9.5513\nentropy = 0.3583\nsamples = 1236\nvalue = [84, 1152]"] ;
3 -> 15 ;
16 [label="max Z <= 9.5201\nentropy = 0.1274\nsamples = 627\nvalue = [11, 616]"] ;
15 -> 16 ;
17 [label="median X <= 2.837\nentropy = 0.6274\nsamples = 70\nvalue = [11, 59]"] ;
16 -> 17 ;
18 [label="mean mag <= 9.4238\nentropy = 0.386\nsamples = 53\nvalue = [4, 49]"] ;
17 -> 18 ;
19 [label="median X <= -1.4995\nentropy = 0.9457\nsamples = 11\nvalue = [4, 7]"] ;
18 -> 19 ;
20 [label="entropy = 0.0\nsamples = 3\nvalue = [3, 0]"] ;
19 -> 20 ;
21 [label="max Z <= 9.5035\nentropy = 0.5436\nsamples = 8\nvalue = [1, 7]"] ;
19 -> 21 ;
22 [label="entropy = 0.0\nsamples = 7\nvalue = [0, 7]"] ;
21 -> 22 ;
23 [label="entropy = 0.0\nsamples = 1\nvalue = [1, 0]"] ;
21 -> 23 ;
24 [label="entropy = 0.0\nsamples = 42\nvalue = [0, 42]"] ;
18 -> 24 ;
25 [label="var Y <= 0.0492\nentropy = 0.9774\nsamples = 17\nvalue = [7, 10]"] ;
17 -> 25 ;
26 [label="min X <= 5.5184\nentropy = 0.8113\nsamples = 8\nvalue = [6, 2]"] ;
25 -> 26 ;
27 [label="std Y <= 0.1\nentropy = 0.5917\nsamples = 7\nvalue = [6, 1]"] ;
26 -> 27 ;
28 [label="entropy = 0.0\nsamples = 1\nvalue = [0, 1]"] ;
27 -> 28 ;
29 [label="entropy = 0.0\nsamples = 6\nvalue = [6, 0]"] ;
27 -> 29 ;
30 [label="entropy = 0.0\nsamples = 1\nvalue = [0, 1]"] ;
26 -> 30 ;
31 [label="mean Y <= 6.6466\nentropy = 0.5033\nsamples = 9\nvalue = [1, 8]"] ;
25 -> 31 ;
32 [label="entropy = 0.0\nsamples = 8\nvalue = [0, 8]"] ;
31 -> 32 ;
33 [label="entropy = 0.0\nsamples = 1\nvalue = [1, 0]"] ;
31 -> 33 ;
34 [label="entropy = 0.0\nsamples = 557\nvalue = [0, 557]"] ;
16 -> 34 ;
35 [label="var mag <= 0.0014\nentropy = 0.529\nsamples = 609\nvalue = [73, 536]"] ;
15 -> 35 ;
36 [label="std X <= 0.1143\nentropy = 0.9233\nsamples = 65\nvalue = [22, 43]"] ;
35 -> 36 ;
37 [label="median X <= -1.6794\nentropy = 0.9984\nsamples = 42\nvalue = [22, 20]"] ;
36 -> 37 ;
38 [label="var mag <= 0.0014\nentropy = 0.4138\nsamples = 12\nvalue = [1, 11]"] ;
37 -> 38 ;
39 [label="entropy = 0.0\nsamples = 11\nvalue = [0, 11]"] ;
38 -> 39 ;
40 [label="entropy = 0.0\nsamples = 1\nvalue = [1, 0]"] ;
38 -> 40 ;
41 [label="mean mag <= 9.666\nentropy = 0.8813\nsamples = 30\nvalue = [21, 9]"] ;
37 -> 41 ;
42 [label="entropy = 0.0\nsamples = 20\nvalue = [20, 0]"] ;
41 -> 42 ;
43 [label="min Y <= 4.8635\nentropy = 0.469\nsamples = 10\nvalue = [1, 9]"] ;
41 -> 43 ;
44 [label="entropy = 0.0\nsamples = 8\nvalue = [0, 8]"] ;
43 -> 44 ;
45 [label="entropy <= -170.8954\nentropy = 1.0\nsamples = 2\nvalue = [1, 1]"] ;
43 -> 45 ;
46 [label="entropy = 0.0\nsamples = 1\nvalue = [1, 0]"] ;
45 -> 46 ;
47 [label="entropy = 0.0\nsamples = 1\nvalue = [0, 1]"] ;
45 -> 47 ;
48 [label="entropy = 0.0\nsamples = 23\nvalue = [0, 23]"] ;
36 -> 48 ;
49 [label="max Y <= -7.0967\nentropy = 0.4489\nsamples = 544\nvalue = [51, 493]"] ;
35 -> 49 ;
50 [label="std Y <= 0.1691\nentropy = 0.8631\nsamples = 7\nvalue = [5, 2]"] ;
49 -> 50 ;
51 [label="entropy = 0.0\nsamples = 2\nvalue = [0, 2]"] ;
50 -> 51 ;
52 [label="entropy = 0.0\nsamples = 5\nvalue = [5, 0]"] ;
50 -> 52 ;
53 [label="max Y <= -0.4256\nentropy = 0.4218\nsamples = 537\nvalue = [46, 491]"] ;
49 -> 53 ;
54 [label="std mag <= 0.2016\nentropy = 0.2523\nsamples = 237\nvalue = [10, 227]"] ;
53 -> 54 ;
55 [label="max mag <= 10.5832\nentropy = 0.1212\nsamples = 182\nvalue = [3, 179]"] ;
54 -> 55 ;
56 [label="var Y <= 0.0074\nentropy = 0.0528\nsamples = 167\nvalue = [1, 166]"] ;
55 -> 56 ;
57 [label="max mag <= 9.8682\nentropy = 0.2499\nsamples = 24\nvalue = [1, 23]"] ;
56 -> 57 ;
58 [label="max mag <= 9.8601\nentropy = 0.9183\nsamples = 3\nvalue = [1, 2]"] ;
57 -> 58 ;
59 [label="entropy = 0.0\nsamples = 2\nvalue = [0, 2]"] ;
58 -> 59 ;
60 [label="entropy = 0.0\nsamples = 1\nvalue = [1, 0]"] ;
58 -> 60 ;
61 [label="entropy = 0.0\nsamples = 21\nvalue = [0, 21]"] ;
57 -> 61 ;
62 [label="entropy = 0.0\nsamples = 143\nvalue = [0, 143]"] ;
56 -> 62 ;
63 [label="mean mag <= 10.4044\nentropy = 0.5665\nsamples = 15\nvalue = [2, 13]"] ;
55 -> 63 ;
64 [label="entropy = 0.0\nsamples = 7\nvalue = [0, 7]"] ;
63 -> 64 ;
65 [label="entropy <= -187.1052\nentropy = 0.8113\nsamples = 8\nvalue = [2, 6]"] ;
63 -> 65 ;
66 [label="entropy = 0.0\nsamples = 5\nvalue = [0, 5]"] ;
65 -> 66 ;
67 [label="std X <= 0.2225\nentropy = 0.9183\nsamples = 3\nvalue = [2, 1]"] ;
65 -> 67 ;
68 [label="entropy = 0.0\nsamples = 1\nvalue = [0, 1]"] ;
67 -> 68 ;
69 [label="entropy = 0.0\nsamples = 2\nvalue = [2, 0]"] ;
67 -> 69 ;
70 [label="max X <= 4.3602\nentropy = 0.5499\nsamples = 55\nvalue = [7, 48]"] ;
54 -> 70 ;
71 [label="std Z <= 0.2398\nentropy = 0.7579\nsamples = 32\nvalue = [7, 25]"] ;
70 -> 71 ;
72 [label="entropy = 0.0\nsamples = 7\nvalue = [0, 7]"] ;
71 -> 72 ;
73 [label="mean mag <= 10.0957\nentropy = 0.8555\nsamples = 25\nvalue = [7, 18]"] ;
71 -> 73 ;
74 [label="median mag <= 9.8431\nentropy = 0.994\nsamples = 11\nvalue = [6, 5]"] ;
73 -> 74 ;
75 [label="max X <= -0.5266\nentropy = 0.8631\nsamples = 7\nvalue = [2, 5]"] ;
74 -> 75 ;
76 [label="entropy = 0.0\nsamples = 5\nvalue = [0, 5]"] ;
75 -> 76 ;
77 [label="entropy = 0.0\nsamples = 2\nvalue = [2, 0]"] ;
75 -> 77 ;
78 [label="entropy = 0.0\nsamples = 4\nvalue = [4, 0]"] ;
74 -> 78 ;
79 [label="std Y <= 0.2152\nentropy = 0.3712\nsamples = 14\nvalue = [1, 13]"] ;
73 -> 79 ;
80 [label="entropy = 0.0\nsamples = 1\nvalue = [1, 0]"] ;
79 -> 80 ;
81 [label="entropy = 0.0\nsamples = 13\nvalue = [0, 13]"] ;
79 -> 81 ;
82 [label="entropy = 0.0\nsamples = 23\nvalue = [0, 23]"] ;
70 -> 82 ;
83 [label="mean Y <= 1.4712\nentropy = 0.5294\nsamples = 300\nvalue = [36, 264]"] ;
53 -> 83 ;
84 [label="std Z <= 0.4452\nentropy = 0.7579\nsamples = 96\nvalue = [21, 75]"] ;
83 -> 84 ;
85 [label="median X <= 6.882\nentropy = 0.8454\nsamples = 77\nvalue = [21, 56]"] ;
84 -> 85 ;
86 [label="median Z <= 9.4096\nentropy = 0.7098\nsamples = 67\nvalue = [13, 54]"] ;
85 -> 86 ;
87 [label="mean Z <= 9.1676\nentropy = 0.7817\nsamples = 56\nvalue = [13, 43]"] ;
86 -> 87 ;
88 [label="mean Y <= -0.8112\nentropy = 0.5917\nsamples = 42\nvalue = [6, 36]"] ;
87 -> 88 ;
89 [label="mean Z <= 5.431\nentropy = 0.8113\nsamples = 4\nvalue = [3, 1]"] ;
88 -> 89 ;
90 [label="entropy = 0.0\nsamples = 3\nvalue = [3, 0]"] ;
89 -> 90 ;
91 [label="entropy = 0.0\nsamples = 1\nvalue = [0, 1]"] ;
89 -> 91 ;
92 [label="mean mag <= 9.9418\nentropy = 0.3985\nsamples = 38\nvalue = [3, 35]"] ;
88 -> 92 ;
93 [label="entropy = 0.0\nsamples = 28\nvalue = [0, 28]"] ;
92 -> 93 ;
94 [label="std mag <= 0.317\nentropy = 0.8813\nsamples = 10\nvalue = [3, 7]"] ;
92 -> 94 ;
95 [label="min X <= 4.5866\nentropy = 0.7642\nsamples = 9\nvalue = [2, 7]"] ;
94 -> 95 ;
96 [label="var Y <= 0.0696\nentropy = 0.9183\nsamples = 3\nvalue = [2, 1]"] ;
95 -> 96 ;
97 [label="entropy = 0.0\nsamples = 2\nvalue = [2, 0]"] ;
96 -> 97 ;
98 [label="entropy = 0.0\nsamples = 1\nvalue = [0, 1]"] ;
96 -> 98 ;
99 [label="entropy = 0.0\nsamples = 6\nvalue = [0, 6]"] ;
95 -> 99 ;
100 [label="entropy = 0.0\nsamples = 1\nvalue = [1, 0]"] ;
94 -> 100 ;
101 [label="median Y <= 0.7402\nentropy = 1.0\nsamples = 14\nvalue = [7, 7]"] ;
87 -> 101 ;
102 [label="var Y <= 0.0865\nentropy = 0.65\nsamples = 6\nvalue = [1, 5]"] ;
101 -> 102 ;
103 [label="entropy = 0.0\nsamples = 5\nvalue = [0, 5]"] ;
102 -> 103 ;
104 [label="entropy = 0.0\nsamples = 1\nvalue = [1, 0]"] ;
102 -> 104 ;
105 [label="min mag <= 9.8378\nentropy = 0.8113\nsamples = 8\nvalue = [6, 2]"] ;
101 -> 105 ;
106 [label="entropy = 0.0\nsamples = 6\nvalue = [6, 0]"] ;
105 -> 106 ;
107 [label="entropy = 0.0\nsamples = 2\nvalue = [0, 2]"] ;
105 -> 107 ;
108 [label="entropy = 0.0\nsamples = 11\nvalue = [0, 11]"] ;
86 -> 108 ;
109 [label="mean mag <= 9.862\nentropy = 0.7219\nsamples = 10\nvalue = [8, 2]"] ;
85 -> 109 ;
110 [label="entropy = 0.0\nsamples = 8\nvalue = [8, 0]"] ;
109 -> 110 ;
111 [label="entropy = 0.0\nsamples = 2\nvalue = [0, 2]"] ;
109 -> 111 ;
112 [label="entropy = 0.0\nsamples = 19\nvalue = [0, 19]"] ;
84 -> 112 ;
113 [label="mean mag <= 10.0657\nentropy = 0.379\nsamples = 204\nvalue = [15, 189]"] ;
83 -> 113 ;
114 [label="mean Z <= 3.7025\nentropy = 0.1099\nsamples = 137\nvalue = [2, 135]"] ;
113 -> 114 ;
115 [label="var Y <= 0.1371\nentropy = 0.7219\nsamples = 10\nvalue = [2, 8]"] ;
114 -> 115 ;
116 [label="min Z <= 1.1617\nentropy = 1.0\nsamples = 4\nvalue = [2, 2]"] ;
115 -> 116 ;
117 [label="entropy = 0.0\nsamples = 2\nvalue = [0, 2]"] ;
116 -> 117 ;
118 [label="entropy = 0.0\nsamples = 2\nvalue = [2, 0]"] ;
116 -> 118 ;
119 [label="entropy = 0.0\nsamples = 6\nvalue = [0, 6]"] ;
115 -> 119 ;
120 [label="entropy = 0.0\nsamples = 127\nvalue = [0, 127]"] ;
114 -> 120 ;
121 [label="max Z <= 8.7041\nentropy = 0.7098\nsamples = 67\nvalue = [13, 54]"] ;
113 -> 121 ;
122 [label="std mag <= 0.4414\nentropy = 0.2975\nsamples = 38\nvalue = [2, 36]"] ;
121 -> 122 ;
123 [label="var Z <= 0.3367\nentropy = 0.1793\nsamples = 37\nvalue = [1, 36]"] ;
122 -> 123 ;
124 [label="entropy = 0.0\nsamples = 32\nvalue = [0, 32]"] ;
123 -> 124 ;
125 [label="min mag <= 9.8922\nentropy = 0.7219\nsamples = 5\nvalue = [1, 4]"] ;
123 -> 125 ;
126 [label="entropy = 0.0\nsamples = 4\nvalue = [0, 4]"] ;
125 -> 126 ;
127 [label="entropy = 0.0\nsamples = 1\nvalue = [1, 0]"] ;
125 -> 127 ;
128 [label="entropy = 0.0\nsamples = 1\nvalue = [1, 0]"] ;
122 -> 128 ;
129 [label="mean X <= -3.3669\nentropy = 0.9576\nsamples = 29\nvalue = [11, 18]"] ;
121 -> 129 ;
130 [label="entropy = 0.0\nsamples = 6\nvalue = [0, 6]"] ;
129 -> 130 ;
131 [label="min X <= -2.5943\nentropy = 0.9986\nsamples = 23\nvalue = [11, 12]"] ;
129 -> 131 ;
132 [label="min mag <= 9.9327\nentropy = 0.5033\nsamples = 9\nvalue = [8, 1]"] ;
131 -> 132 ;
133 [label="entropy = 0.0\nsamples = 1\nvalue = [0, 1]"] ;
132 -> 133 ;
134 [label="entropy = 0.0\nsamples = 8\nvalue = [8, 0]"] ;
132 -> 134 ;
135 [label="max X <= 3.439\nentropy = 0.7496\nsamples = 14\nvalue = [3, 11]"] ;
131 -> 135 ;
136 [label="entropy = 0.0\nsamples = 9\nvalue = [0, 9]"] ;
135 -> 136 ;
137 [label="max X <= 5.0362\nentropy = 0.971\nsamples = 5\nvalue = [3, 2]"] ;
135 -> 137 ;
138 [label="entropy = 0.0\nsamples = 3\nvalue = [3, 0]"] ;
137 -> 138 ;
139 [label="entropy = 0.0\nsamples = 2\nvalue = [0, 2]"] ;
137 -> 139 ;
140 [label="std X <= 0.2275\nentropy = 0.0803\nsamples = 7752\nvalue = [77, 7675]"] ;
2 -> 140 ;
141 [label="entropy <= -189.7411\nentropy = 0.0477\nsamples = 6033\nvalue = [32, 6001]"] ;
140 -> 141 ;
142 [label="var X <= 0.0011\nentropy = 0.0342\nsamples = 5873\nvalue = [21, 5852]"] ;
141 -> 142 ;
143 [label="mean mag <= 9.6614\nentropy = 0.1948\nsamples = 266\nvalue = [8, 258]"] ;
142 -> 143 ;
144 [label="entropy = 0.0\nsamples = 8\nvalue = [8, 0]"] ;
143 -> 144 ;
145 [label="entropy = 0.0\nsamples = 258\nvalue = [0, 258]"] ;
143 -> 145 ;
146 [label="min X <= -1.0876\nentropy = 0.0236\nsamples = 5607\nvalue = [13, 5594]"] ;
142 -> 146 ;
147 [label="min Y <= 0.1117\nentropy = 0.1261\nsamples = 231\nvalue = [4, 227]"] ;
146 -> 147 ;
148 [label="var Z <= 0.0399\nentropy = 0.0441\nsamples = 207\nvalue = [1, 206]"] ;
147 -> 148 ;
149 [label="entropy = 0.0\nsamples = 184\nvalue = [0, 184]"] ;
148 -> 149 ;
150 [label="std Z <= 0.2\nentropy = 0.258\nsamples = 23\nvalue = [1, 22]"] ;
148 -> 150 ;
151 [label="entropy = 0.0\nsamples = 1\nvalue = [1, 0]"] ;
150 -> 151 ;
152 [label="entropy = 0.0\nsamples = 22\nvalue = [0, 22]"] ;
150 -> 152 ;
153 [label="max Z <= 10.5407\nentropy = 0.5436\nsamples = 24\nvalue = [3, 21]"] ;
147 -> 153 ;
154 [label="max Y <= 0.8531\nentropy = 0.2668\nsamples = 22\nvalue = [1, 21]"] ;
153 -> 154 ;
155 [label="entropy = 0.0\nsamples = 18\nvalue = [0, 18]"] ;
154 -> 155 ;
156 [label="max Y <= 0.9753\nentropy = 0.8113\nsamples = 4\nvalue = [1, 3]"] ;
154 -> 156 ;
157 [label="entropy = 0.0\nsamples = 1\nvalue = [1, 0]"] ;
156 -> 157 ;
158 [label="entropy = 0.0\nsamples = 3\nvalue = [0, 3]"] ;
156 -> 158 ;
159 [label="entropy = 0.0\nsamples = 2\nvalue = [2, 0]"] ;
153 -> 159 ;
160 [label="median mag <= 10.4533\nentropy = 0.0179\nsamples = 5376\nvalue = [9, 5367]"] ;
146 -> 160 ;
161 [label="min X <= 2.3078\nentropy = 0.0126\nsamples = 5372\nvalue = [6, 5366]"] ;
160 -> 161 ;
162 [label="min mag <= 9.5057\nentropy = 0.0107\nsamples = 5370\nvalue = [5, 5365]"] ;
161 -> 162 ;
163 [label="min Z <= 9.4679\nentropy = 0.0254\nsamples = 1981\nvalue = [5, 1976]"] ;
162 -> 163 ;
164 [label="var X <= 0.0046\nentropy = 0.0064\nsamples = 1941\nvalue = [1, 1940]"] ;
163 -> 164 ;
165 [label="min Y <= -0.2436\nentropy = 0.0568\nsamples = 153\nvalue = [1, 152]"] ;
164 -> 165 ;
166 [label="std X <= 0.0674\nentropy = 0.3912\nsamples = 13\nvalue = [1, 12]"] ;
165 -> 166 ;
167 [label="entropy = 0.0\nsamples = 12\nvalue = [0, 12]"] ;
166 -> 167 ;
168 [label="entropy = 0.0\nsamples = 1\nvalue = [1, 0]"] ;
166 -> 168 ;
169 [label="entropy = 0.0\nsamples = 140\nvalue = [0, 140]"] ;
165 -> 169 ;
170 [label="entropy = 0.0\nsamples = 1788\nvalue = [0, 1788]"] ;
164 -> 170 ;
171 [label="var mag <= 0.0031\nentropy = 0.469\nsamples = 40\nvalue = [4, 36]"] ;
163 -> 171 ;
172 [label="entropy = 0.0\nsamples = 3\nvalue = [3, 0]"] ;
171 -> 172 ;
173 [label="var Y <= 0.0748\nentropy = 0.1793\nsamples = 37\nvalue = [1, 36]"] ;
171 -> 173 ;
174 [label="entropy = 0.0\nsamples = 35\nvalue = [0, 35]"] ;
173 -> 174 ;
175 [label="max mag <= 9.9871\nentropy = 1.0\nsamples = 2\nvalue = [1, 1]"] ;
173 -> 175 ;
176 [label="entropy = 0.0\nsamples = 1\nvalue = [0, 1]"] ;
175 -> 176 ;
177 [label="entropy = 0.0\nsamples = 1\nvalue = [1, 0]"] ;
175 -> 177 ;
178 [label="entropy = 0.0\nsamples = 3389\nvalue = [0, 3389]"] ;
162 -> 178 ;
179 [label="max X <= 3.2099\nentropy = 1.0\nsamples = 2\nvalue = [1, 1]"] ;
161 -> 179 ;
180 [label="entropy = 0.0\nsamples = 1\nvalue = [1, 0]"] ;
179 -> 180 ;
181 [label="entropy = 0.0\nsamples = 1\nvalue = [0, 1]"] ;
179 -> 181 ;
182 [label="mean Y <= 0.0329\nentropy = 0.8113\nsamples = 4\nvalue = [3, 1]"] ;
160 -> 182 ;
183 [label="entropy = 0.0\nsamples = 3\nvalue = [3, 0]"] ;
182 -> 183 ;
184 [label="entropy = 0.0\nsamples = 1\nvalue = [0, 1]"] ;
182 -> 184 ;
185 [label="min Y <= 0.9856\nentropy = 0.3612\nsamples = 160\nvalue = [11, 149]"] ;
141 -> 185 ;
186 [label="entropy <= -172.1354\nentropy = 0.1623\nsamples = 126\nvalue = [3, 123]"] ;
185 -> 186 ;
187 [label="mean mag <= 9.8043\nentropy = 0.1184\nsamples = 125\nvalue = [2, 123]"] ;
186 -> 187 ;
188 [label="mean mag <= 9.8034\nentropy = 0.316\nsamples = 35\nvalue = [2, 33]"] ;
187 -> 188 ;
189 [label="var X <= 0.0444\nentropy = 0.1914\nsamples = 34\nvalue = [1, 33]"] ;
188 -> 189 ;
190 [label="entropy = 0.0\nsamples = 29\nvalue = [0, 29]"] ;
189 -> 190 ;
191 [label="var X <= 0.0464\nentropy = 0.7219\nsamples = 5\nvalue = [1, 4]"] ;
189 -> 191 ;
192 [label="entropy = 0.0\nsamples = 1\nvalue = [1, 0]"] ;
191 -> 192 ;
193 [label="entropy = 0.0\nsamples = 4\nvalue = [0, 4]"] ;
191 -> 193 ;
194 [label="entropy = 0.0\nsamples = 1\nvalue = [1, 0]"] ;
188 -> 194 ;
195 [label="entropy = 0.0\nsamples = 90\nvalue = [0, 90]"] ;
187 -> 195 ;
196 [label="entropy = 0.0\nsamples = 1\nvalue = [1, 0]"] ;
186 -> 196 ;
197 [label="var Z <= 0.0065\nentropy = 0.7871\nsamples = 34\nvalue = [8, 26]"] ;
185 -> 197 ;
198 [label="mean mag <= 9.9197\nentropy = 0.3534\nsamples = 15\nvalue = [1, 14]"] ;
197 -> 198 ;
199 [label="entropy = 0.0\nsamples = 1\nvalue = [1, 0]"] ;
198 -> 199 ;
200 [label="entropy = 0.0\nsamples = 14\nvalue = [0, 14]"] ;
198 -> 200 ;
201 [label="max Z <= 9.8569\nentropy = 0.9495\nsamples = 19\nvalue = [7, 12]"] ;
197 -> 201 ;
202 [label="entropy = 0.0\nsamples = 5\nvalue = [0, 5]"] ;
201 -> 202 ;
203 [label="std Y <= 0.1526\nentropy = 1.0\nsamples = 14\nvalue = [7, 7]"] ;
201 -> 203 ;
204 [label="mean mag <= 10.2806\nentropy = 0.65\nsamples = 6\nvalue = [5, 1]"] ;
203 -> 204 ;
205 [label="entropy = 0.0\nsamples = 5\nvalue = [5, 0]"] ;
204 -> 205 ;
206 [label="entropy = 0.0\nsamples = 1\nvalue = [0, 1]"] ;
204 -> 206 ;
207 [label="max Y <= 3.9016\nentropy = 0.8113\nsamples = 8\nvalue = [2, 6]"] ;
203 -> 207 ;
208 [label="entropy = 0.0\nsamples = 6\nvalue = [0, 6]"] ;
207 -> 208 ;
209 [label="entropy = 0.0\nsamples = 2\nvalue = [2, 0]"] ;
207 -> 209 ;
210 [label="min X <= -1.2885\nentropy = 0.1748\nsamples = 1719\nvalue = [45, 1674]"] ;
140 -> 210 ;
211 [label="max Y <= 0.3885\nentropy = 0.3722\nsamples = 279\nvalue = [20, 259]"] ;
210 -> 211 ;
212 [label="mean mag <= 10.4812\nentropy = 0.1882\nsamples = 139\nvalue = [4, 135]"] ;
211 -> 212 ;
213 [label="max X <= -0.9362\nentropy = 0.1511\nsamples = 138\nvalue = [3, 135]"] ;
212 -> 213 ;
214 [label="var Z <= 0.0604\nentropy = 0.3712\nsamples = 42\nvalue = [3, 39]"] ;
213 -> 214 ;
215 [label="median Z <= 9.2721\nentropy = 0.5436\nsamples = 24\nvalue = [3, 21]"] ;
214 -> 215 ;
216 [label="entropy = 0.0\nsamples = 2\nvalue = [2, 0]"] ;
215 -> 216 ;
217 [label="std Y <= 0.3255\nentropy = 0.2668\nsamples = 22\nvalue = [1, 21]"] ;
215 -> 217 ;
218 [label="entropy = 0.0\nsamples = 17\nvalue = [0, 17]"] ;
217 -> 218 ;
219 [label="max X <= -1.1141\nentropy = 0.7219\nsamples = 5\nvalue = [1, 4]"] ;
217 -> 219 ;
220 [label="entropy = 0.0\nsamples = 4\nvalue = [0, 4]"] ;
219 -> 220 ;
221 [label="entropy = 0.0\nsamples = 1\nvalue = [1, 0]"] ;
219 -> 221 ;
222 [label="entropy = 0.0\nsamples = 18\nvalue = [0, 18]"] ;
214 -> 222 ;
223 [label="entropy = 0.0\nsamples = 96\nvalue = [0, 96]"] ;
213 -> 223 ;
224 [label="entropy = 0.0\nsamples = 1\nvalue = [1, 0]"] ;
212 -> 224 ;
225 [label="median mag <= 10.4136\nentropy = 0.5127\nsamples = 140\nvalue = [16, 124]"] ;
211 -> 225 ;
226 [label="mean X <= -0.9618\nentropy = 0.4549\nsamples = 136\nvalue = [13, 123]"] ;
225 -> 226 ;
227 [label="max Y <= 0.423\nentropy = 0.1392\nsamples = 51\nvalue = [1, 50]"] ;
226 -> 227 ;
228 [label="mean X <= -1.4491\nentropy = 1.0\nsamples = 2\nvalue = [1, 1]"] ;
227 -> 228 ;
229 [label="entropy = 0.0\nsamples = 1\nvalue = [1, 0]"] ;
228 -> 229 ;
230 [label="entropy = 0.0\nsamples = 1\nvalue = [0, 1]"] ;
228 -> 230 ;
231 [label="entropy = 0.0\nsamples = 49\nvalue = [0, 49]"] ;
227 -> 231 ;
232 [label="median X <= -0.7425\nentropy = 0.5873\nsamples = 85\nvalue = [12, 73]"] ;
226 -> 232 ;
233 [label="mean Z <= 9.8041\nentropy = 0.9059\nsamples = 28\nvalue = [9, 19]"] ;
232 -> 233 ;
234 [label="std Y <= 0.3328\nentropy = 0.7219\nsamples = 20\nvalue = [4, 16]"] ;
233 -> 234 ;
235 [label="mean X <= -0.8762\nentropy = 1.0\nsamples = 8\nvalue = [4, 4]"] ;
234 -> 235 ;
236 [label="entropy = 0.0\nsamples = 3\nvalue = [0, 3]"] ;
235 -> 236 ;
237 [label="mean Y <= 0.2197\nentropy = 0.7219\nsamples = 5\nvalue = [4, 1]"] ;
235 -> 237 ;
238 [label="max mag <= 9.8074\nentropy = 1.0\nsamples = 2\nvalue = [1, 1]"] ;
237 -> 238 ;
239 [label="entropy = 0.0\nsamples = 1\nvalue = [0, 1]"] ;
238 -> 239 ;
240 [label="entropy = 0.0\nsamples = 1\nvalue = [1, 0]"] ;
238 -> 240 ;
241 [label="entropy = 0.0\nsamples = 3\nvalue = [3, 0]"] ;
237 -> 241 ;
242 [label="entropy = 0.0\nsamples = 12\nvalue = [0, 12]"] ;
234 -> 242 ;
243 [label="var Y <= 0.0679\nentropy = 0.9544\nsamples = 8\nvalue = [5, 3]"] ;
233 -> 243 ;
244 [label="entropy = 0.0\nsamples = 2\nvalue = [2, 0]"] ;
243 -> 244 ;
245 [label="var Y <= 0.2098\nentropy = 1.0\nsamples = 6\nvalue = [3, 3]"] ;
243 -> 245 ;
246 [label="max Z <= 10.7025\nentropy = 0.8113\nsamples = 4\nvalue = [1, 3]"] ;
245 -> 246 ;
247 [label="entropy = 0.0\nsamples = 3\nvalue = [0, 3]"] ;
246 -> 247 ;
248 [label="entropy = 0.0\nsamples = 1\nvalue = [1, 0]"] ;
246 -> 248 ;
249 [label="entropy = 0.0\nsamples = 2\nvalue = [2, 0]"] ;
245 -> 249 ;
250 [label="var Y <= 0.4988\nentropy = 0.2975\nsamples = 57\nvalue = [3, 54]"] ;
232 -> 250 ;
251 [label="min Y <= -0.1785\nentropy = 0.1371\nsamples = 52\nvalue = [1, 51]"] ;
250 -> 251 ;
252 [label="entropy = 0.0\nsamples = 37\nvalue = [0, 37]"] ;
251 -> 252 ;
253 [label="min Y <= -0.1506\nentropy = 0.3534\nsamples = 15\nvalue = [1, 14]"] ;
251 -> 253 ;
254 [label="entropy = 0.0\nsamples = 1\nvalue = [1, 0]"] ;
253 -> 254 ;
255 [label="entropy = 0.0\nsamples = 14\nvalue = [0, 14]"] ;
253 -> 255 ;
256 [label="max Y <= 0.6898\nentropy = 0.971\nsamples = 5\nvalue = [2, 3]"] ;
250 -> 256 ;
257 [label="entropy = 0.0\nsamples = 2\nvalue = [2, 0]"] ;
256 -> 257 ;
258 [label="entropy = 0.0\nsamples = 3\nvalue = [0, 3]"] ;
256 -> 258 ;
259 [label="median Z <= 10.4442\nentropy = 0.8113\nsamples = 4\nvalue = [3, 1]"] ;
225 -> 259 ;
260 [label="entropy = 0.0\nsamples = 3\nvalue = [3, 0]"] ;
259 -> 260 ;
261 [label="entropy = 0.0\nsamples = 1\nvalue = [0, 1]"] ;
259 -> 261 ;
262 [label="median mag <= 10.3902\nentropy = 0.1264\nsamples = 1440\nvalue = [25, 1415]"] ;
210 -> 262 ;
263 [label="min mag <= 9.4756\nentropy = 0.0938\nsamples = 1416\nvalue = [17, 1399]"] ;
262 -> 263 ;
264 [label="std X <= 0.5286\nentropy = 0.0123\nsamples = 920\nvalue = [1, 919]"] ;
263 -> 264 ;
265 [label="entropy = 0.0\nsamples = 854\nvalue = [0, 854]"] ;
264 -> 265 ;
266 [label="median Y <= -1.2508\nentropy = 0.1133\nsamples = 66\nvalue = [1, 65]"] ;
264 -> 266 ;
267 [label="std X <= 0.5311\nentropy = 0.65\nsamples = 6\nvalue = [1, 5]"] ;
266 -> 267 ;
268 [label="entropy = 0.0\nsamples = 1\nvalue = [1, 0]"] ;
267 -> 268 ;
269 [label="entropy = 0.0\nsamples = 5\nvalue = [0, 5]"] ;
267 -> 269 ;
270 [label="entropy = 0.0\nsamples = 60\nvalue = [0, 60]"] ;
266 -> 270 ;
271 [label="max Z <= 9.8478\nentropy = 0.2056\nsamples = 496\nvalue = [16, 480]"] ;
263 -> 271 ;
272 [label="median Z <= 9.7288\nentropy = 0.7383\nsamples = 24\nvalue = [5, 19]"] ;
271 -> 272 ;
273 [label="var X <= 0.0523\nentropy = 0.5746\nsamples = 22\nvalue = [3, 19]"] ;
272 -> 273 ;
274 [label="entropy = 0.0\nsamples = 1\nvalue = [1, 0]"] ;
273 -> 274 ;
275 [label="min Z <= 9.2809\nentropy = 0.4537\nsamples = 21\nvalue = [2, 19]"] ;
273 -> 275 ;
276 [label="min Z <= 9.1576\nentropy = 0.7219\nsamples = 10\nvalue = [2, 8]"] ;
275 -> 276 ;
277 [label="entropy = 0.0\nsamples = 7\nvalue = [0, 7]"] ;
276 -> 277 ;
278 [label="median X <= 1.6455\nentropy = 0.9183\nsamples = 3\nvalue = [2, 1]"] ;
276 -> 278 ;
279 [label="entropy = 0.0\nsamples = 1\nvalue = [0, 1]"] ;
278 -> 279 ;
280 [label="entropy = 0.0\nsamples = 2\nvalue = [2, 0]"] ;
278 -> 280 ;
281 [label="entropy = 0.0\nsamples = 11\nvalue = [0, 11]"] ;
275 -> 281 ;
282 [label="entropy = 0.0\nsamples = 2\nvalue = [2, 0]"] ;
272 -> 282 ;
283 [label="var Y <= 0.082\nentropy = 0.1596\nsamples = 472\nvalue = [11, 461]"] ;
271 -> 283 ;
284 [label="entropy <= -201.1614\nentropy = 0.057\nsamples = 305\nvalue = [2, 303]"] ;
283 -> 284 ;
285 [label="entropy = 0.0\nsamples = 260\nvalue = [0, 260]"] ;
284 -> 285 ;
286 [label="max Y <= -0.7525\nentropy = 0.2623\nsamples = 45\nvalue = [2, 43]"] ;
284 -> 286 ;
287 [label="mean Y <= -1.533\nentropy = 0.684\nsamples = 11\nvalue = [2, 9]"] ;
286 -> 287 ;
288 [label="entropy = 0.0\nsamples = 7\nvalue = [0, 7]"] ;
287 -> 288 ;
289 [label="var X <= 0.1074\nentropy = 1.0\nsamples = 4\nvalue = [2, 2]"] ;
287 -> 289 ;
290 [label="entropy = 0.0\nsamples = 1\nvalue = [1, 0]"] ;
289 -> 290 ;
291 [label="var mag <= 0.0285\nentropy = 0.9183\nsamples = 3\nvalue = [1, 2]"] ;
289 -> 291 ;
292 [label="entropy = 0.0\nsamples = 1\nvalue = [1, 0]"] ;
291 -> 292 ;
293 [label="entropy = 0.0\nsamples = 2\nvalue = [0, 2]"] ;
291 -> 293 ;
294 [label="entropy = 0.0\nsamples = 34\nvalue = [0, 34]"] ;
286 -> 294 ;
295 [label="median Y <= 3.4445\nentropy = 0.3027\nsamples = 167\nvalue = [9, 158]"] ;
283 -> 295 ;
296 [label="var mag <= 0.0608\nentropy = 0.2787\nsamples = 166\nvalue = [8, 158]"] ;
295 -> 296 ;
297 [label="max Z <= 9.9709\nentropy = 0.1654\nsamples = 123\nvalue = [3, 120]"] ;
296 -> 297 ;
298 [label="std mag <= 0.1274\nentropy = 0.5436\nsamples = 16\nvalue = [2, 14]"] ;
297 -> 298 ;
299 [label="entropy = 0.0\nsamples = 10\nvalue = [0, 10]"] ;
298 -> 299 ;
300 [label="max Z <= 9.924\nentropy = 0.9183\nsamples = 6\nvalue = [2, 4]"] ;
298 -> 300 ;
301 [label="entropy = 0.0\nsamples = 4\nvalue = [0, 4]"] ;
300 -> 301 ;
302 [label="entropy = 0.0\nsamples = 2\nvalue = [2, 0]"] ;
300 -> 302 ;
303 [label="min mag <= 9.4769\nentropy = 0.0764\nsamples = 107\nvalue = [1, 106]"] ;
297 -> 303 ;
304 [label="entropy = 0.0\nsamples = 1\nvalue = [1, 0]"] ;
303 -> 304 ;
305 [label="entropy = 0.0\nsamples = 106\nvalue = [0, 106]"] ;
303 -> 305 ;
306 [label="max Z <= 10.6353\nentropy = 0.5186\nsamples = 43\nvalue = [5, 38]"] ;
296 -> 306 ;
307 [label="entropy = 0.0\nsamples = 15\nvalue = [0, 15]"] ;
306 -> 307 ;
308 [label="mean Y <= -0.2299\nentropy = 0.6769\nsamples = 28\nvalue = [5, 23]"] ;
306 -> 308 ;
309 [label="mean Y <= -0.6978\nentropy = 1.0\nsamples = 6\nvalue = [3, 3]"] ;
308 -> 309 ;
310 [label="var X <= 0.2592\nentropy = 0.8113\nsamples = 4\nvalue = [1, 3]"] ;
309 -> 310 ;
311 [label="entropy = 0.0\nsamples = 3\nvalue = [0, 3]"] ;
310 -> 311 ;
312 [label="entropy = 0.0\nsamples = 1\nvalue = [1, 0]"] ;
310 -> 312 ;
313 [label="entropy = 0.0\nsamples = 2\nvalue = [2, 0]"] ;
309 -> 313 ;
314 [label="max Y <= 1.5597\nentropy = 0.4395\nsamples = 22\nvalue = [2, 20]"] ;
308 -> 314 ;
315 [label="entropy = 0.0\nsamples = 18\nvalue = [0, 18]"] ;
314 -> 315 ;
316 [label="max mag <= 10.923\nentropy = 1.0\nsamples = 4\nvalue = [2, 2]"] ;
314 -> 316 ;
317 [label="entropy = 0.0\nsamples = 2\nvalue = [2, 0]"] ;
316 -> 317 ;
318 [label="entropy = 0.0\nsamples = 2\nvalue = [0, 2]"] ;
316 -> 318 ;
319 [label="entropy = 0.0\nsamples = 1\nvalue = [1, 0]"] ;
295 -> 319 ;
320 [label="mean Z <= 10.305\nentropy = 0.9183\nsamples = 24\nvalue = [8, 16]"] ;
262 -> 320 ;
321 [label="max Y <= -1.1093\nentropy = 0.65\nsamples = 6\nvalue = [5, 1]"] ;
320 -> 321 ;
322 [label="entropy = 0.0\nsamples = 1\nvalue = [0, 1]"] ;
321 -> 322 ;
323 [label="entropy = 0.0\nsamples = 5\nvalue = [5, 0]"] ;
321 -> 323 ;
324 [label="min X <= -0.6078\nentropy = 0.65\nsamples = 18\nvalue = [3, 15]"] ;
320 -> 324 ;
325 [label="max mag <= 11.2992\nentropy = 0.8454\nsamples = 11\nvalue = [3, 8]"] ;
324 -> 325 ;
326 [label="min X <= -0.7484\nentropy = 0.5033\nsamples = 9\nvalue = [1, 8]"] ;
325 -> 326 ;
327 [label="entropy = 0.0\nsamples = 8\nvalue = [0, 8]"] ;
326 -> 327 ;
328 [label="entropy = 0.0\nsamples = 1\nvalue = [1, 0]"] ;
326 -> 328 ;
329 [label="entropy = 0.0\nsamples = 2\nvalue = [2, 0]"] ;
325 -> 329 ;
330 [label="entropy = 0.0\nsamples = 7\nvalue = [0, 7]"] ;
324 -> 330 ;
331 [label="median mag <= 10.4418\nentropy = 0.9917\nsamples = 168\nvalue = [93, 75]"] ;
1 -> 331 ;
332 [label="std mag <= 1.0498\nentropy = 1.0\nsamples = 150\nvalue = [75, 75]"] ;
331 -> 332 ;
333 [label="mean mag <= 10.3346\nentropy = 0.9784\nsamples = 116\nvalue = [48, 68]"] ;
332 -> 333 ;
334 [label="mean Z <= 9.0413\nentropy = 0.8498\nsamples = 87\nvalue = [24, 63]"] ;
333 -> 334 ;
335 [label="median mag <= 10.0469\nentropy = 0.9852\nsamples = 21\nvalue = [12, 9]"] ;
334 -> 335 ;
336 [label="max X <= 5.8025\nentropy = 0.8366\nsamples = 15\nvalue = [11, 4]"] ;
335 -> 336 ;
337 [label="entropy = 0.0\nsamples = 10\nvalue = [10, 0]"] ;
336 -> 337 ;
338 [label="median mag <= 9.9918\nentropy = 0.7219\nsamples = 5\nvalue = [1, 4]"] ;
336 -> 338 ;
339 [label="entropy = 0.0\nsamples = 4\nvalue = [0, 4]"] ;
338 -> 339 ;
340 [label="entropy = 0.0\nsamples = 1\nvalue = [1, 0]"] ;
338 -> 340 ;
341 [label="mean Y <= -6.6368\nentropy = 0.65\nsamples = 6\nvalue = [1, 5]"] ;
335 -> 341 ;
342 [label="entropy = 0.0\nsamples = 1\nvalue = [1, 0]"] ;
341 -> 342 ;
343 [label="entropy = 0.0\nsamples = 5\nvalue = [0, 5]"] ;
341 -> 343 ;
344 [label="mean Z <= 9.4848\nentropy = 0.684\nsamples = 66\nvalue = [12, 54]"] ;
334 -> 344 ;
345 [label="mean mag <= 9.4077\nentropy = 0.2164\nsamples = 29\nvalue = [1, 28]"] ;
344 -> 345 ;
346 [label="min Y <= -2.041\nentropy = 0.9183\nsamples = 3\nvalue = [1, 2]"] ;
345 -> 346 ;
347 [label="entropy = 0.0\nsamples = 2\nvalue = [0, 2]"] ;
346 -> 347 ;
348 [label="entropy = 0.0\nsamples = 1\nvalue = [1, 0]"] ;
346 -> 348 ;
349 [label="entropy = 0.0\nsamples = 26\nvalue = [0, 26]"] ;
345 -> 349 ;
350 [label="var Y <= 0.2385\nentropy = 0.878\nsamples = 37\nvalue = [11, 26]"] ;
344 -> 350 ;
351 [label="entropy = 0.0\nsamples = 9\nvalue = [0, 9]"] ;
350 -> 351 ;
352 [label="var X <= 0.3599\nentropy = 0.9666\nsamples = 28\nvalue = [11, 17]"] ;
350 -> 352 ;
353 [label="median X <= -0.8578\nentropy = 0.9986\nsamples = 23\nvalue = [11, 12]"] ;
352 -> 353 ;
354 [label="entropy = 0.0\nsamples = 4\nvalue = [4, 0]"] ;
353 -> 354 ;
355 [label="median Y <= -0.2952\nentropy = 0.9495\nsamples = 19\nvalue = [7, 12]"] ;
353 -> 355 ;
356 [label="var Z <= 0.3851\nentropy = 0.9183\nsamples = 6\nvalue = [4, 2]"] ;
355 -> 356 ;
357 [label="entropy = 0.0\nsamples = 1\nvalue = [0, 1]"] ;
356 -> 357 ;
358 [label="median X <= 0.0664\nentropy = 0.7219\nsamples = 5\nvalue = [4, 1]"] ;
356 -> 358 ;
359 [label="entropy = 0.0\nsamples = 1\nvalue = [0, 1]"] ;
358 -> 359 ;
360 [label="entropy = 0.0\nsamples = 4\nvalue = [4, 0]"] ;
358 -> 360 ;
361 [label="var Y <= 0.2653\nentropy = 0.7793\nsamples = 13\nvalue = [3, 10]"] ;
355 -> 361 ;
362 [label="entropy = 0.0\nsamples = 1\nvalue = [1, 0]"] ;
361 -> 362 ;
363 [label="max Z <= 11.4855\nentropy = 0.65\nsamples = 12\nvalue = [2, 10]"] ;
361 -> 363 ;
364 [label="entropy = 0.0\nsamples = 8\nvalue = [0, 8]"] ;
363 -> 364 ;
365 [label="min Y <= -1.0726\nentropy = 1.0\nsamples = 4\nvalue = [2, 2]"] ;
363 -> 365 ;
366 [label="entropy = 0.0\nsamples = 2\nvalue = [2, 0]"] ;
365 -> 366 ;
367 [label="entropy = 0.0\nsamples = 2\nvalue = [0, 2]"] ;
365 -> 367 ;
368 [label="entropy = 0.0\nsamples = 5\nvalue = [0, 5]"] ;
352 -> 368 ;
369 [label="median X <= -0.384\nentropy = 0.6632\nsamples = 29\nvalue = [24, 5]"] ;
333 -> 369 ;
370 [label="max mag <= 12.8149\nentropy = 0.994\nsamples = 11\nvalue = [6, 5]"] ;
369 -> 370 ;
371 [label="min Y <= -1.1466\nentropy = 0.8113\nsamples = 8\nvalue = [6, 2]"] ;
370 -> 371 ;
372 [label="entropy = 0.0\nsamples = 5\nvalue = [5, 0]"] ;
371 -> 372 ;
373 [label="max mag <= 12.7208\nentropy = 0.9183\nsamples = 3\nvalue = [1, 2]"] ;
371 -> 373 ;
374 [label="entropy = 0.0\nsamples = 2\nvalue = [0, 2]"] ;
373 -> 374 ;
375 [label="entropy = 0.0\nsamples = 1\nvalue = [1, 0]"] ;
373 -> 375 ;
376 [label="entropy = 0.0\nsamples = 3\nvalue = [0, 3]"] ;
370 -> 376 ;
377 [label="entropy = 0.0\nsamples = 18\nvalue = [18, 0]"] ;
369 -> 377 ;
378 [label="mean Z <= 8.8713\nentropy = 0.7335\nsamples = 34\nvalue = [27, 7]"] ;
332 -> 378 ;
379 [label="entropy = 0.0\nsamples = 10\nvalue = [10, 0]"] ;
378 -> 379 ;
380 [label="var Y <= 1.6707\nentropy = 0.8709\nsamples = 24\nvalue = [17, 7]"] ;
378 -> 380 ;
381 [label="max Z <= 11.4523\nentropy = 0.4855\nsamples = 19\nvalue = [17, 2]"] ;
380 -> 381 ;
382 [label="entropy = 0.0\nsamples = 1\nvalue = [0, 1]"] ;
381 -> 382 ;
383 [label="std mag <= 1.0915\nentropy = 0.3095\nsamples = 18\nvalue = [17, 1]"] ;
381 -> 383 ;
384 [label="max Z <= 12.5714\nentropy = 0.9183\nsamples = 3\nvalue = [2, 1]"] ;
383 -> 384 ;
385 [label="entropy = 0.0\nsamples = 1\nvalue = [0, 1]"] ;
384 -> 385 ;
386 [label="entropy = 0.0\nsamples = 2\nvalue = [2, 0]"] ;
384 -> 386 ;
387 [label="entropy = 0.0\nsamples = 15\nvalue = [15, 0]"] ;
383 -> 387 ;
388 [label="entropy = 0.0\nsamples = 5\nvalue = [0, 5]"] ;
380 -> 388 ;
389 [label="entropy = 0.0\nsamples = 18\nvalue = [18, 0]"] ;
331 -> 389 ;
390 [label="max Z <= 12.1818\nentropy = 0.6333\nsamples = 5126\nvalue = [4308, 818]"] ;
0 -> 390 [labeldistance=2.5, labelangle=-45, headlabel="False"] ;
391 [label="var mag <= 0.4727\nentropy = 0.9935\nsamples = 1666\nvalue = [912, 754]"] ;
390 -> 391 ;
392 [label="std mag <= 0.5494\nentropy = 0.5832\nsamples = 394\nvalue = [55, 339]"] ;
391 -> 392 ;
393 [label="median Y <= 8.119\nentropy = 0.4445\nsamples = 303\nvalue = [28, 275]"] ;
392 -> 393 ;
394 [label="mean X <= -0.563\nentropy = 0.4069\nsamples = 295\nvalue = [24, 271]"] ;
393 -> 394 ;
395 [label="max Z <= 11.1925\nentropy = 0.2006\nsamples = 96\nvalue = [3, 93]"] ;
394 -> 395 ;
396 [label="mean Y <= -1.8217\nentropy = 0.0857\nsamples = 93\nvalue = [1, 92]"] ;
395 -> 396 ;
397 [label="mean Y <= -1.866\nentropy = 0.2223\nsamples = 28\nvalue = [1, 27]"] ;
396 -> 397 ;
398 [label="entropy = 0.0\nsamples = 27\nvalue = [0, 27]"] ;
397 -> 398 ;
399 [label="entropy = 0.0\nsamples = 1\nvalue = [1, 0]"] ;
397 -> 399 ;
400 [label="entropy = 0.0\nsamples = 65\nvalue = [0, 65]"] ;
396 -> 400 ;
401 [label="min Z <= 9.1172\nentropy = 0.9183\nsamples = 3\nvalue = [2, 1]"] ;
395 -> 401 ;
402 [label="entropy = 0.0\nsamples = 2\nvalue = [2, 0]"] ;
401 -> 402 ;
403 [label="entropy = 0.0\nsamples = 1\nvalue = [0, 1]"] ;
401 -> 403 ;
404 [label="max mag <= 10.141\nentropy = 0.4863\nsamples = 199\nvalue = [21, 178]"] ;
394 -> 404 ;
405 [label="min X <= 1.3876\nentropy = 0.9321\nsamples = 23\nvalue = [8, 15]"] ;
404 -> 405 ;
406 [label="min X <= -1.9013\nentropy = 0.7642\nsamples = 18\nvalue = [4, 14]"] ;
405 -> 406 ;
407 [label="max Y <= 0.888\nentropy = 0.8113\nsamples = 4\nvalue = [3, 1]"] ;
406 -> 407 ;
408 [label="entropy = 0.0\nsamples = 3\nvalue = [3, 0]"] ;
407 -> 408 ;
409 [label="entropy = 0.0\nsamples = 1\nvalue = [0, 1]"] ;
407 -> 409 ;
410 [label="median mag <= 9.7792\nentropy = 0.3712\nsamples = 14\nvalue = [1, 13]"] ;
406 -> 410 ;
411 [label="entropy = 0.0\nsamples = 12\nvalue = [0, 12]"] ;
410 -> 411 ;
412 [label="min mag <= 9.4335\nentropy = 1.0\nsamples = 2\nvalue = [1, 1]"] ;
410 -> 412 ;
413 [label="entropy = 0.0\nsamples = 1\nvalue = [1, 0]"] ;
412 -> 413 ;
414 [label="entropy = 0.0\nsamples = 1\nvalue = [0, 1]"] ;
412 -> 414 ;
415 [label="median X <= 5.0195\nentropy = 0.7219\nsamples = 5\nvalue = [4, 1]"] ;
405 -> 415 ;
416 [label="entropy = 0.0\nsamples = 4\nvalue = [4, 0]"] ;
415 -> 416 ;
417 [label="entropy = 0.0\nsamples = 1\nvalue = [0, 1]"] ;
415 -> 417 ;
418 [label="max mag <= 11.2393\nentropy = 0.3802\nsamples = 176\nvalue = [13, 163]"] ;
404 -> 418 ;
419 [label="var Y <= 0.2329\nentropy = 0.3081\nsamples = 163\nvalue = [9, 154]"] ;
418 -> 419 ;
420 [label="entropy = 0.0\nsamples = 58\nvalue = [0, 58]"] ;
419 -> 420 ;
421 [label="var mag <= 0.2889\nentropy = 0.422\nsamples = 105\nvalue = [9, 96]"] ;
419 -> 421 ;
422 [label="max Y <= 1.8733\nentropy = 0.3912\nsamples = 104\nvalue = [8, 96]"] ;
421 -> 422 ;
423 [label="min mag <= 9.3221\nentropy = 0.5917\nsamples = 49\nvalue = [7, 42]"] ;
422 -> 423 ;
424 [label="std Z <= 0.4099\nentropy = 0.7335\nsamples = 34\nvalue = [7, 27]"] ;
423 -> 424 ;
425 [label="min Z <= 8.8879\nentropy = 0.9799\nsamples = 12\nvalue = [5, 7]"] ;
424 -> 425 ;
426 [label="std Z <= 0.3725\nentropy = 0.9544\nsamples = 8\nvalue = [5, 3]"] ;
425 -> 426 ;
427 [label="max Y <= -3.9465\nentropy = 0.8113\nsamples = 4\nvalue = [1, 3]"] ;
426 -> 427 ;
428 [label="entropy = 0.0\nsamples = 1\nvalue = [1, 0]"] ;
427 -> 428 ;
429 [label="entropy = 0.0\nsamples = 3\nvalue = [0, 3]"] ;
427 -> 429 ;
430 [label="entropy = 0.0\nsamples = 4\nvalue = [4, 0]"] ;
426 -> 430 ;
431 [label="entropy = 0.0\nsamples = 4\nvalue = [0, 4]"] ;
425 -> 431 ;
432 [label="min mag <= 9.3063\nentropy = 0.4395\nsamples = 22\nvalue = [2, 20]"] ;
424 -> 432 ;
433 [label="median mag <= 9.5649\nentropy = 0.2762\nsamples = 21\nvalue = [1, 20]"] ;
432 -> 433 ;
434 [label="entropy = 0.0\nsamples = 1\nvalue = [1, 0]"] ;
433 -> 434 ;
435 [label="entropy = 0.0\nsamples = 20\nvalue = [0, 20]"] ;
433 -> 435 ;
436 [label="entropy = 0.0\nsamples = 1\nvalue = [1, 0]"] ;
432 -> 436 ;
437 [label="entropy = 0.0\nsamples = 15\nvalue = [0, 15]"] ;
423 -> 437 ;
438 [label="std mag <= 0.5052\nentropy = 0.1311\nsamples = 55\nvalue = [1, 54]"] ;
422 -> 438 ;
439 [label="entropy = 0.0\nsamples = 49\nvalue = [0, 49]"] ;
438 -> 439 ;
440 [label="mean Y <= -0.4416\nentropy = 0.65\nsamples = 6\nvalue = [1, 5]"] ;
438 -> 440 ;
441 [label="entropy = 0.0\nsamples = 1\nvalue = [1, 0]"] ;
440 -> 441 ;
442 [label="entropy = 0.0\nsamples = 5\nvalue = [0, 5]"] ;
440 -> 442 ;
443 [label="entropy = 0.0\nsamples = 1\nvalue = [1, 0]"] ;
421 -> 443 ;
444 [label="median mag <= 10.1801\nentropy = 0.8905\nsamples = 13\nvalue = [4, 9]"] ;
418 -> 444 ;
445 [label="median Z <= 9.6985\nentropy = 0.971\nsamples = 5\nvalue = [3, 2]"] ;
444 -> 445 ;
446 [label="entropy <= -162.0941\nentropy = 0.9183\nsamples = 3\nvalue = [1, 2]"] ;
445 -> 446 ;
447 [label="entropy = 0.0\nsamples = 2\nvalue = [0, 2]"] ;
446 -> 447 ;
448 [label="entropy = 0.0\nsamples = 1\nvalue = [1, 0]"] ;
446 -> 448 ;
449 [label="entropy = 0.0\nsamples = 2\nvalue = [2, 0]"] ;
445 -> 449 ;
450 [label="min X <= -1.093\nentropy = 0.5436\nsamples = 8\nvalue = [1, 7]"] ;
444 -> 450 ;
451 [label="mean Z <= 10.2839\nentropy = 1.0\nsamples = 2\nvalue = [1, 1]"] ;
450 -> 451 ;
452 [label="entropy = 0.0\nsamples = 1\nvalue = [0, 1]"] ;
451 -> 452 ;
453 [label="entropy = 0.0\nsamples = 1\nvalue = [1, 0]"] ;
451 -> 453 ;
454 [label="entropy = 0.0\nsamples = 6\nvalue = [0, 6]"] ;
450 -> 454 ;
455 [label="var Z <= 0.4803\nentropy = 1.0\nsamples = 8\nvalue = [4, 4]"] ;
393 -> 455 ;
456 [label="entropy = 0.0\nsamples = 4\nvalue = [4, 0]"] ;
455 -> 456 ;
457 [label="entropy = 0.0\nsamples = 4\nvalue = [0, 4]"] ;
455 -> 457 ;
458 [label="mean Z <= 10.2005\nentropy = 0.8772\nsamples = 91\nvalue = [27, 64]"] ;
392 -> 458 ;
459 [label="median X <= 7.1166\nentropy = 0.727\nsamples = 79\nvalue = [16, 63]"] ;
458 -> 459 ;
460 [label="max X <= 8.7518\nentropy = 0.6343\nsamples = 75\nvalue = [12, 63]"] ;
459 -> 460 ;
461 [label="median mag <= 9.9431\nentropy = 0.5485\nsamples = 71\nvalue = [9, 62]"] ;
460 -> 461 ;
462 [label="min Y <= -1.0547\nentropy = 0.7579\nsamples = 32\nvalue = [7, 25]"] ;
461 -> 462 ;
463 [label="min X <= -1.4851\nentropy = 0.9024\nsamples = 22\nvalue = [7, 15]"] ;
462 -> 463 ;
464 [label="max Y <= -1.9392\nentropy = 0.9968\nsamples = 15\nvalue = [7, 8]"] ;
463 -> 464 ;
465 [label="entropy = 0.0\nsamples = 2\nvalue = [2, 0]"] ;
464 -> 465 ;
466 [label="median mag <= 9.7047\nentropy = 0.9612\nsamples = 13\nvalue = [5, 8]"] ;
464 -> 466 ;
467 [label="std X <= 1.3576\nentropy = 0.5436\nsamples = 8\nvalue = [1, 7]"] ;
466 -> 467 ;
468 [label="entropy = 0.0\nsamples = 7\nvalue = [0, 7]"] ;
467 -> 468 ;
469 [label="entropy = 0.0\nsamples = 1\nvalue = [1, 0]"] ;
467 -> 469 ;
470 [label="max Y <= -0.5865\nentropy = 0.7219\nsamples = 5\nvalue = [4, 1]"] ;
466 -> 470 ;
471 [label="entropy = 0.0\nsamples = 1\nvalue = [0, 1]"] ;
470 -> 471 ;
472 [label="entropy = 0.0\nsamples = 4\nvalue = [4, 0]"] ;
470 -> 472 ;
473 [label="entropy = 0.0\nsamples = 7\nvalue = [0, 7]"] ;
463 -> 473 ;
474 [label="entropy = 0.0\nsamples = 10\nvalue = [0, 10]"] ;
462 -> 474 ;
475 [label="min mag <= 9.2653\nentropy = 0.2918\nsamples = 39\nvalue = [2, 37]"] ;
461 -> 475 ;
476 [label="entropy = 0.0\nsamples = 32\nvalue = [0, 32]"] ;
475 -> 476 ;
477 [label="min Y <= 0.9308\nentropy = 0.8631\nsamples = 7\nvalue = [2, 5]"] ;
475 -> 477 ;
478 [label="entropy = 0.0\nsamples = 4\nvalue = [0, 4]"] ;
477 -> 478 ;
479 [label="min X <= -6.1241\nentropy = 0.9183\nsamples = 3\nvalue = [2, 1]"] ;
477 -> 479 ;
480 [label="entropy = 0.0\nsamples = 1\nvalue = [1, 0]"] ;
479 -> 480 ;
481 [label="std mag <= 0.6571\nentropy = 1.0\nsamples = 2\nvalue = [1, 1]"] ;
479 -> 481 ;
482 [label="entropy = 0.0\nsamples = 1\nvalue = [0, 1]"] ;
481 -> 482 ;
483 [label="entropy = 0.0\nsamples = 1\nvalue = [1, 0]"] ;
481 -> 483 ;
484 [label="median Z <= 3.0321\nentropy = 0.8113\nsamples = 4\nvalue = [3, 1]"] ;
460 -> 484 ;
485 [label="entropy = 0.0\nsamples = 1\nvalue = [0, 1]"] ;
484 -> 485 ;
486 [label="entropy = 0.0\nsamples = 3\nvalue = [3, 0]"] ;
484 -> 486 ;
487 [label="entropy = 0.0\nsamples = 4\nvalue = [4, 0]"] ;
459 -> 487 ;
488 [label="max Z <= 11.3743\nentropy = 0.4138\nsamples = 12\nvalue = [11, 1]"] ;
458 -> 488 ;
489 [label="max X <= 2.1967\nentropy = 1.0\nsamples = 2\nvalue = [1, 1]"] ;
488 -> 489 ;
490 [label="entropy = 0.0\nsamples = 1\nvalue = [1, 0]"] ;
489 -> 490 ;
491 [label="entropy = 0.0\nsamples = 1\nvalue = [0, 1]"] ;
489 -> 491 ;
492 [label="entropy = 0.0\nsamples = 10\nvalue = [10, 0]"] ;
488 -> 492 ;
493 [label="max X <= 7.8389\nentropy = 0.9111\nsamples = 1272\nvalue = [857, 415]"] ;
391 -> 493 ;
494 [label="median Z <= 7.747\nentropy = 0.7439\nsamples = 587\nvalue = [463, 124]"] ;
493 -> 494 ;
495 [label="min Z <= 5.9567\nentropy = 0.4573\nsamples = 301\nvalue = [272, 29]"] ;
494 -> 495 ;
496 [label="min mag <= 7.0469\nentropy = 0.4099\nsamples = 292\nvalue = [268, 24]"] ;
495 -> 496 ;
497 [label="var mag <= 1.9579\nentropy = 0.0715\nsamples = 116\nvalue = [115, 1]"] ;
496 -> 497 ;
498 [label="std mag <= 1.365\nentropy = 0.5917\nsamples = 7\nvalue = [6, 1]"] ;
497 -> 498 ;
499 [label="entropy = 0.0\nsamples = 6\nvalue = [6, 0]"] ;
498 -> 499 ;
500 [label="entropy = 0.0\nsamples = 1\nvalue = [0, 1]"] ;
498 -> 500 ;
501 [label="entropy = 0.0\nsamples = 109\nvalue = [109, 0]"] ;
497 -> 501 ;
502 [label="var mag <= 3.5558\nentropy = 0.5593\nsamples = 176\nvalue = [153, 23]"] ;
496 -> 502 ;
503 [label="var mag <= 0.5342\nentropy = 0.6644\nsamples = 133\nvalue = [110, 23]"] ;
502 -> 503 ;
504 [label="entropy = 0.0\nsamples = 3\nvalue = [0, 3]"] ;
503 -> 504 ;
505 [label="std Z <= 1.9207\nentropy = 0.6194\nsamples = 130\nvalue = [110, 20]"] ;
503 -> 505 ;
506 [label="var mag <= 1.3253\nentropy = 0.469\nsamples = 110\nvalue = [99, 11]"] ;
505 -> 506 ;
507 [label="median Y <= 4.875\nentropy = 0.7401\nsamples = 43\nvalue = [34, 9]"] ;
506 -> 507 ;
508 [label="mean Y <= 1.5803\nentropy = 0.8691\nsamples = 31\nvalue = [22, 9]"] ;
507 -> 508 ;
509 [label="mean Y <= -7.1879\nentropy = 0.7496\nsamples = 28\nvalue = [22, 6]"] ;
508 -> 509 ;
510 [label="entropy = 0.0\nsamples = 6\nvalue = [6, 0]"] ;
509 -> 510 ;
511 [label="median Y <= -6.8962\nentropy = 0.8454\nsamples = 22\nvalue = [16, 6]"] ;
509 -> 511 ;
512 [label="entropy = 0.0\nsamples = 3\nvalue = [0, 3]"] ;
511 -> 512 ;
513 [label="min X <= -7.2846\nentropy = 0.6292\nsamples = 19\nvalue = [16, 3]"] ;
511 -> 513 ;
514 [label="median Y <= -1.4915\nentropy = 0.8813\nsamples = 10\nvalue = [7, 3]"] ;
513 -> 514 ;
515 [label="std X <= 1.1112\nentropy = 1.0\nsamples = 6\nvalue = [3, 3]"] ;
514 -> 515 ;
516 [label="mean mag <= 9.7123\nentropy = 0.8113\nsamples = 4\nvalue = [1, 3]"] ;
515 -> 516 ;
517 [label="entropy = 0.0\nsamples = 2\nvalue = [0, 2]"] ;
516 -> 517 ;
518 [label="entropy <= -179.7552\nentropy = 1.0\nsamples = 2\nvalue = [1, 1]"] ;
516 -> 518 ;
519 [label="entropy = 0.0\nsamples = 1\nvalue = [1, 0]"] ;
518 -> 519 ;
520 [label="entropy = 0.0\nsamples = 1\nvalue = [0, 1]"] ;
518 -> 520 ;
521 [label="entropy = 0.0\nsamples = 2\nvalue = [2, 0]"] ;
515 -> 521 ;
522 [label="entropy = 0.0\nsamples = 4\nvalue = [4, 0]"] ;
514 -> 522 ;
523 [label="entropy = 0.0\nsamples = 9\nvalue = [9, 0]"] ;
513 -> 523 ;
524 [label="entropy = 0.0\nsamples = 3\nvalue = [0, 3]"] ;
508 -> 524 ;
525 [label="entropy = 0.0\nsamples = 12\nvalue = [12, 0]"] ;
507 -> 525 ;
526 [label="min mag <= 9.2781\nentropy = 0.1936\nsamples = 67\nvalue = [65, 2]"] ;
506 -> 526 ;
527 [label="median Z <= 7.4205\nentropy = 0.1133\nsamples = 66\nvalue = [65, 1]"] ;
526 -> 527 ;
528 [label="entropy = 0.0\nsamples = 57\nvalue = [57, 0]"] ;
527 -> 528 ;
529 [label="min Y <= -0.1835\nentropy = 0.5033\nsamples = 9\nvalue = [8, 1]"] ;
527 -> 529 ;
530 [label="entropy = 0.0\nsamples = 8\nvalue = [8, 0]"] ;
529 -> 530 ;
531 [label="entropy = 0.0\nsamples = 1\nvalue = [0, 1]"] ;
529 -> 531 ;
532 [label="entropy = 0.0\nsamples = 1\nvalue = [0, 1]"] ;
526 -> 532 ;
533 [label="std X <= 1.1582\nentropy = 0.9928\nsamples = 20\nvalue = [11, 9]"] ;
505 -> 533 ;
534 [label="entropy = 0.0\nsamples = 4\nvalue = [4, 0]"] ;
533 -> 534 ;
535 [label="max X <= 2.8475\nentropy = 0.9887\nsamples = 16\nvalue = [7, 9]"] ;
533 -> 535 ;
536 [label="std Z <= 2.3211\nentropy = 0.7642\nsamples = 9\nvalue = [2, 7]"] ;
535 -> 536 ;
537 [label="entropy = 0.0\nsamples = 7\nvalue = [0, 7]"] ;
536 -> 537 ;
538 [label="entropy = 0.0\nsamples = 2\nvalue = [2, 0]"] ;
536 -> 538 ;
539 [label="median mag <= 10.6181\nentropy = 0.8631\nsamples = 7\nvalue = [5, 2]"] ;
535 -> 539 ;
540 [label="mean Z <= 6.2485\nentropy = 0.65\nsamples = 6\nvalue = [5, 1]"] ;
539 -> 540 ;
541 [label="entropy = 0.0\nsamples = 4\nvalue = [4, 0]"] ;
540 -> 541 ;
542 [label="min X <= -5.312\nentropy = 1.0\nsamples = 2\nvalue = [1, 1]"] ;
540 -> 542 ;
543 [label="entropy = 0.0\nsamples = 1\nvalue = [1, 0]"] ;
542 -> 543 ;
544 [label="entropy = 0.0\nsamples = 1\nvalue = [0, 1]"] ;
542 -> 544 ;
545 [label="entropy = 0.0\nsamples = 1\nvalue = [0, 1]"] ;
539 -> 545 ;
546 [label="entropy = 0.0\nsamples = 43\nvalue = [43, 0]"] ;
502 -> 546 ;
547 [label="std Z <= 1.0084\nentropy = 0.9911\nsamples = 9\nvalue = [4, 5]"] ;
495 -> 547 ;
548 [label="entropy = 0.0\nsamples = 4\nvalue = [0, 4]"] ;
547 -> 548 ;
549 [label="median mag <= 9.5951\nentropy = 0.7219\nsamples = 5\nvalue = [4, 1]"] ;
547 -> 549 ;
550 [label="entropy = 0.0\nsamples = 1\nvalue = [0, 1]"] ;
549 -> 550 ;
551 [label="entropy = 0.0\nsamples = 4\nvalue = [4, 0]"] ;
549 -> 551 ;
552 [label="std mag <= 1.3015\nentropy = 0.9171\nsamples = 286\nvalue = [191, 95]"] ;
494 -> 552 ;
553 [label="max Z <= 11.3505\nentropy = 0.984\nsamples = 202\nvalue = [116, 86]"] ;
552 -> 553 ;
554 [label="var X <= 11.3148\nentropy = 0.9864\nsamples = 102\nvalue = [44, 58]"] ;
553 -> 554 ;
555 [label="max X <= 4.8444\nentropy = 0.9721\nsamples = 97\nvalue = [39, 58]"] ;
554 -> 555 ;
556 [label="max mag <= 13.3142\nentropy = 0.8631\nsamples = 70\nvalue = [20, 50]"] ;
555 -> 556 ;
557 [label="min Z <= 6.5004\nentropy = 0.8171\nsamples = 67\nvalue = [17, 50]"] ;
556 -> 557 ;
558 [label="entropy = 0.0\nsamples = 14\nvalue = [0, 14]"] ;
557 -> 558 ;
559 [label="max mag <= 10.7623\nentropy = 0.9052\nsamples = 53\nvalue = [17, 36]"] ;
557 -> 559 ;
560 [label="entropy = 0.0\nsamples = 2\nvalue = [2, 0]"] ;
559 -> 560 ;
561 [label="std mag <= 0.9838\nentropy = 0.874\nsamples = 51\nvalue = [15, 36]"] ;
559 -> 561 ;
562 [label="median Y <= 3.2322\nentropy = 0.7824\nsamples = 43\nvalue = [10, 33]"] ;
561 -> 562 ;
563 [label="median Y <= 0.6193\nentropy = 0.679\nsamples = 39\nvalue = [7, 32]"] ;
562 -> 563 ;
564 [label="mean Y <= 0.5538\nentropy = 0.8404\nsamples = 26\nvalue = [7, 19]"] ;
563 -> 564 ;
565 [label="entropy <= -173.0403\nentropy = 0.7383\nsamples = 24\nvalue = [5, 19]"] ;
564 -> 565 ;
566 [label="min Z <= 7.3804\nentropy = 0.896\nsamples = 16\nvalue = [5, 11]"] ;
565 -> 566 ;
567 [label="entropy = 0.0\nsamples = 2\nvalue = [2, 0]"] ;
566 -> 567 ;
568 [label="mean X <= -0.2814\nentropy = 0.7496\nsamples = 14\nvalue = [3, 11]"] ;
566 -> 568 ;
569 [label="entropy = 0.0\nsamples = 7\nvalue = [0, 7]"] ;
568 -> 569 ;
570 [label="std Y <= 1.0296\nentropy = 0.9852\nsamples = 7\nvalue = [3, 4]"] ;
568 -> 570 ;
571 [label="var Y <= 0.3636\nentropy = 0.7219\nsamples = 5\nvalue = [1, 4]"] ;
570 -> 571 ;
572 [label="mean mag <= 9.7749\nentropy = 1.0\nsamples = 2\nvalue = [1, 1]"] ;
571 -> 572 ;
573 [label="entropy = 0.0\nsamples = 1\nvalue = [1, 0]"] ;
572 -> 573 ;
574 [label="entropy = 0.0\nsamples = 1\nvalue = [0, 1]"] ;
572 -> 574 ;
575 [label="entropy = 0.0\nsamples = 3\nvalue = [0, 3]"] ;
571 -> 575 ;
576 [label="entropy = 0.0\nsamples = 2\nvalue = [2, 0]"] ;
570 -> 576 ;
577 [label="entropy = 0.0\nsamples = 8\nvalue = [0, 8]"] ;
565 -> 577 ;
578 [label="entropy = 0.0\nsamples = 2\nvalue = [2, 0]"] ;
564 -> 578 ;
579 [label="entropy = 0.0\nsamples = 13\nvalue = [0, 13]"] ;
563 -> 579 ;
580 [label="std Y <= 0.931\nentropy = 0.8113\nsamples = 4\nvalue = [3, 1]"] ;
562 -> 580 ;
581 [label="entropy = 0.0\nsamples = 1\nvalue = [0, 1]"] ;
580 -> 581 ;
582 [label="entropy = 0.0\nsamples = 3\nvalue = [3, 0]"] ;
580 -> 582 ;
583 [label="var mag <= 1.3832\nentropy = 0.9544\nsamples = 8\nvalue = [5, 3]"] ;
561 -> 583 ;
584 [label="var mag <= 1.0196\nentropy = 0.65\nsamples = 6\nvalue = [5, 1]"] ;
583 -> 584 ;
585 [label="median X <= -1.7087\nentropy = 1.0\nsamples = 2\nvalue = [1, 1]"] ;
584 -> 585 ;
586 [label="entropy = 0.0\nsamples = 1\nvalue = [0, 1]"] ;
585 -> 586 ;
587 [label="entropy = 0.0\nsamples = 1\nvalue = [1, 0]"] ;
585 -> 587 ;
588 [label="entropy = 0.0\nsamples = 4\nvalue = [4, 0]"] ;
584 -> 588 ;
589 [label="entropy = 0.0\nsamples = 2\nvalue = [0, 2]"] ;
583 -> 589 ;
590 [label="entropy = 0.0\nsamples = 3\nvalue = [3, 0]"] ;
556 -> 590 ;
591 [label="median Z <= 7.8178\nentropy = 0.8767\nsamples = 27\nvalue = [19, 8]"] ;
555 -> 591 ;
592 [label="entropy = 0.0\nsamples = 2\nvalue = [0, 2]"] ;
591 -> 592 ;
593 [label="median Y <= 2.1324\nentropy = 0.795\nsamples = 25\nvalue = [19, 6]"] ;
591 -> 593 ;
594 [label="std Y <= 1.0203\nentropy = 0.9544\nsamples = 16\nvalue = [10, 6]"] ;
593 -> 594 ;
595 [label="mean mag <= 10.4272\nentropy = 0.7219\nsamples = 5\nvalue = [1, 4]"] ;
594 -> 595 ;
596 [label="entropy = 0.0\nsamples = 4\nvalue = [0, 4]"] ;
595 -> 596 ;
597 [label="entropy = 0.0\nsamples = 1\nvalue = [1, 0]"] ;
595 -> 597 ;
598 [label="entropy <= -153.1223\nentropy = 0.684\nsamples = 11\nvalue = [9, 2]"] ;
594 -> 598 ;
599 [label="entropy = 0.0\nsamples = 7\nvalue = [7, 0]"] ;
598 -> 599 ;
600 [label="std mag <= 0.9299\nentropy = 1.0\nsamples = 4\nvalue = [2, 2]"] ;
598 -> 600 ;
601 [label="entropy = 0.0\nsamples = 2\nvalue = [0, 2]"] ;
600 -> 601 ;
602 [label="entropy = 0.0\nsamples = 2\nvalue = [2, 0]"] ;
600 -> 602 ;
603 [label="entropy = 0.0\nsamples = 9\nvalue = [9, 0]"] ;
593 -> 603 ;
604 [label="entropy = 0.0\nsamples = 5\nvalue = [5, 0]"] ;
554 -> 604 ;
605 [label="min mag <= 7.848\nentropy = 0.8555\nsamples = 100\nvalue = [72, 28]"] ;
553 -> 605 ;
606 [label="std Y <= 0.8702\nentropy = 0.9852\nsamples = 21\nvalue = [9, 12]"] ;
605 -> 606 ;
607 [label="entropy = 0.0\nsamples = 9\nvalue = [0, 9]"] ;
606 -> 607 ;
608 [label="var X <= 0.7771\nentropy = 0.8113\nsamples = 12\nvalue = [9, 3]"] ;
606 -> 608 ;
609 [label="median Z <= 9.2712\nentropy = 0.9183\nsamples = 3\nvalue = [1, 2]"] ;
608 -> 609 ;
610 [label="entropy = 0.0\nsamples = 1\nvalue = [1, 0]"] ;
609 -> 610 ;
611 [label="entropy = 0.0\nsamples = 2\nvalue = [0, 2]"] ;
609 -> 611 ;
612 [label="max Y <= 5.1702\nentropy = 0.5033\nsamples = 9\nvalue = [8, 1]"] ;
608 -> 612 ;
613 [label="entropy = 0.0\nsamples = 8\nvalue = [8, 0]"] ;
612 -> 613 ;
614 [label="entropy = 0.0\nsamples = 1\nvalue = [0, 1]"] ;
612 -> 614 ;
615 [label="min Y <= -1.8955\nentropy = 0.727\nsamples = 79\nvalue = [63, 16]"] ;
605 -> 615 ;
616 [label="min X <= -2.4693\nentropy = 0.9183\nsamples = 39\nvalue = [26, 13]"] ;
615 -> 616 ;
617 [label="std X <= 1.7888\nentropy = 0.5665\nsamples = 15\nvalue = [13, 2]"] ;
616 -> 617 ;
618 [label="entropy = 0.0\nsamples = 11\nvalue = [11, 0]"] ;
617 -> 618 ;
619 [label="std Y <= 1.5863\nentropy = 1.0\nsamples = 4\nvalue = [2, 2]"] ;
617 -> 619 ;
620 [label="entropy = 0.0\nsamples = 2\nvalue = [0, 2]"] ;
619 -> 620 ;
621 [label="entropy = 0.0\nsamples = 2\nvalue = [2, 0]"] ;
619 -> 621 ;
622 [label="mean Z <= 10.1331\nentropy = 0.995\nsamples = 24\nvalue = [13, 11]"] ;
616 -> 622 ;
623 [label="std Y <= 0.7425\nentropy = 0.9641\nsamples = 18\nvalue = [7, 11]"] ;
622 -> 623 ;
624 [label="entropy = 0.0\nsamples = 3\nvalue = [3, 0]"] ;
623 -> 624 ;
625 [label="mean Y <= -0.1523\nentropy = 0.8366\nsamples = 15\nvalue = [4, 11]"] ;
623 -> 625 ;
626 [label="mean mag <= 9.763\nentropy = 0.9457\nsamples = 11\nvalue = [4, 7]"] ;
625 -> 626 ;
627 [label="entropy = 0.0\nsamples = 2\nvalue = [2, 0]"] ;
626 -> 627 ;
628 [label="std mag <= 0.7173\nentropy = 0.7642\nsamples = 9\nvalue = [2, 7]"] ;
626 -> 628 ;
629 [label="entropy = 0.0\nsamples = 1\nvalue = [1, 0]"] ;
628 -> 629 ;
630 [label="mean X <= 0.1464\nentropy = 0.5436\nsamples = 8\nvalue = [1, 7]"] ;
628 -> 630 ;
631 [label="median Z <= 9.9207\nentropy = 0.9183\nsamples = 3\nvalue = [1, 2]"] ;
630 -> 631 ;
632 [label="entropy = 0.0\nsamples = 2\nvalue = [0, 2]"] ;
631 -> 632 ;
633 [label="entropy = 0.0\nsamples = 1\nvalue = [1, 0]"] ;
631 -> 633 ;
634 [label="entropy = 0.0\nsamples = 5\nvalue = [0, 5]"] ;
630 -> 634 ;
635 [label="entropy = 0.0\nsamples = 4\nvalue = [0, 4]"] ;
625 -> 635 ;
636 [label="entropy = 0.0\nsamples = 6\nvalue = [6, 0]"] ;
622 -> 636 ;
637 [label="var Y <= 4.0823\nentropy = 0.3843\nsamples = 40\nvalue = [37, 3]"] ;
615 -> 637 ;
638 [label="max Y <= 2.2963\nentropy = 0.2918\nsamples = 39\nvalue = [37, 2]"] ;
637 -> 638 ;
639 [label="entropy = 0.0\nsamples = 22\nvalue = [22, 0]"] ;
638 -> 639 ;
640 [label="std Y <= 0.8347\nentropy = 0.5226\nsamples = 17\nvalue = [15, 2]"] ;
638 -> 640 ;
641 [label="var X <= 0.6763\nentropy = 0.9183\nsamples = 6\nvalue = [4, 2]"] ;
640 -> 641 ;
642 [label="entropy = 0.0\nsamples = 4\nvalue = [4, 0]"] ;
641 -> 642 ;
643 [label="entropy = 0.0\nsamples = 2\nvalue = [0, 2]"] ;
641 -> 643 ;
644 [label="entropy = 0.0\nsamples = 11\nvalue = [11, 0]"] ;
640 -> 644 ;
645 [label="entropy = 0.0\nsamples = 1\nvalue = [0, 1]"] ;
637 -> 645 ;
646 [label="std mag <= 1.6057\nentropy = 0.4912\nsamples = 84\nvalue = [75, 9]"] ;
552 -> 646 ;
647 [label="mean Z <= 10.0714\nentropy = 0.1756\nsamples = 38\nvalue = [37, 1]"] ;
646 -> 647 ;
648 [label="entropy = 0.0\nsamples = 36\nvalue = [36, 0]"] ;
647 -> 648 ;
649 [label="mean mag <= 11.9297\nentropy = 1.0\nsamples = 2\nvalue = [1, 1]"] ;
647 -> 649 ;
650 [label="entropy = 0.0\nsamples = 1\nvalue = [0, 1]"] ;
649 -> 650 ;
651 [label="entropy = 0.0\nsamples = 1\nvalue = [1, 0]"] ;
649 -> 651 ;
652 [label="max mag <= 15.2454\nentropy = 0.6666\nsamples = 46\nvalue = [38, 8]"] ;
646 -> 652 ;
653 [label="min Z <= 4.3101\nentropy = 0.8498\nsamples = 29\nvalue = [21, 8]"] ;
652 -> 653 ;
654 [label="std X <= 1.3186\nentropy = 0.8113\nsamples = 8\nvalue = [2, 6]"] ;
653 -> 654 ;
655 [label="entropy = 0.0\nsamples = 1\nvalue = [1, 0]"] ;
654 -> 655 ;
656 [label="std mag <= 2.3564\nentropy = 0.5917\nsamples = 7\nvalue = [1, 6]"] ;
654 -> 656 ;
657 [label="entropy = 0.0\nsamples = 6\nvalue = [0, 6]"] ;
656 -> 657 ;
658 [label="entropy = 0.0\nsamples = 1\nvalue = [1, 0]"] ;
656 -> 658 ;
659 [label="var Z <= 2.2227\nentropy = 0.4537\nsamples = 21\nvalue = [19, 2]"] ;
653 -> 659 ;
660 [label="var Y <= 2.0249\nentropy = 0.971\nsamples = 5\nvalue = [3, 2]"] ;
659 -> 660 ;
661 [label="entropy = 0.0\nsamples = 2\nvalue = [2, 0]"] ;
660 -> 661 ;
662 [label="mean Z <= 8.2792\nentropy = 0.9183\nsamples = 3\nvalue = [1, 2]"] ;
660 -> 662 ;
663 [label="entropy = 0.0\nsamples = 1\nvalue = [1, 0]"] ;
662 -> 663 ;
664 [label="entropy = 0.0\nsamples = 2\nvalue = [0, 2]"] ;
662 -> 664 ;
665 [label="entropy = 0.0\nsamples = 16\nvalue = [16, 0]"] ;
659 -> 665 ;
666 [label="entropy = 0.0\nsamples = 17\nvalue = [17, 0]"] ;
652 -> 666 ;
667 [label="std mag <= 3.2153\nentropy = 0.9836\nsamples = 685\nvalue = [394, 291]"] ;
493 -> 667 ;
668 [label="max Y <= -1.8726\nentropy = 0.9909\nsamples = 633\nvalue = [352, 281]"] ;
667 -> 668 ;
669 [label="entropy = 0.0\nsamples = 8\nvalue = [8, 0]"] ;
668 -> 669 ;
670 [label="max Z <= 5.7345\nentropy = 0.9927\nsamples = 625\nvalue = [344, 281]"] ;
668 -> 670 ;
671 [label="median Z <= 3.715\nentropy = 0.994\nsamples = 165\nvalue = [75, 90]"] ;
670 -> 671 ;
672 [label="var Y <= 11.1891\nentropy = 0.9887\nsamples = 160\nvalue = [70, 90]"] ;
671 -> 672 ;
673 [label="max Z <= 5.5592\nentropy = 0.996\nsamples = 147\nvalue = [68, 79]"] ;
672 -> 673 ;
674 [label="max Y <= 6.0534\nentropy = 1.0\nsamples = 135\nvalue = [67, 68]"] ;
673 -> 674 ;
675 [label="std Z <= 0.8493\nentropy = 0.9951\nsamples = 122\nvalue = [56, 66]"] ;
674 -> 675 ;
676 [label="var X <= 94.987\nentropy = 0.9341\nsamples = 40\nvalue = [26, 14]"] ;
675 -> 676 ;
677 [label="median Z <= 2.1667\nentropy = 0.995\nsamples = 24\nvalue = [11, 13]"] ;
676 -> 677 ;
678 [label="min Z <= 0.0383\nentropy = 0.9587\nsamples = 21\nvalue = [8, 13]"] ;
677 -> 678 ;
679 [label="entropy = 0.0\nsamples = 4\nvalue = [0, 4]"] ;
678 -> 679 ;
680 [label="min X <= -12.9536\nentropy = 0.9975\nsamples = 17\nvalue = [8, 9]"] ;
678 -> 680 ;
681 [label="var X <= 92.9571\nentropy = 0.9852\nsamples = 14\nvalue = [8, 6]"] ;
680 -> 681 ;
682 [label="var Y <= 4.5441\nentropy = 0.8454\nsamples = 11\nvalue = [8, 3]"] ;
681 -> 682 ;
683 [label="entropy = 0.0\nsamples = 6\nvalue = [6, 0]"] ;
682 -> 683 ;
684 [label="min Z <= 0.0985\nentropy = 0.971\nsamples = 5\nvalue = [2, 3]"] ;
682 -> 684 ;
685 [label="entropy = 0.0\nsamples = 2\nvalue = [0, 2]"] ;
684 -> 685 ;
686 [label="mean X <= 0.4244\nentropy = 0.9183\nsamples = 3\nvalue = [2, 1]"] ;
684 -> 686 ;
687 [label="entropy = 0.0\nsamples = 1\nvalue = [0, 1]"] ;
686 -> 687 ;
688 [label="entropy = 0.0\nsamples = 2\nvalue = [2, 0]"] ;
686 -> 688 ;
689 [label="entropy = 0.0\nsamples = 3\nvalue = [0, 3]"] ;
681 -> 689 ;
690 [label="entropy = 0.0\nsamples = 3\nvalue = [0, 3]"] ;
680 -> 690 ;
691 [label="entropy = 0.0\nsamples = 3\nvalue = [3, 0]"] ;
677 -> 691 ;
692 [label="min Y <= -0.8479\nentropy = 0.3373\nsamples = 16\nvalue = [15, 1]"] ;
676 -> 692 ;
693 [label="entropy = 0.0\nsamples = 14\nvalue = [14, 0]"] ;
692 -> 693 ;
694 [label="max mag <= 14.641\nentropy = 1.0\nsamples = 2\nvalue = [1, 1]"] ;
692 -> 694 ;
695 [label="entropy = 0.0\nsamples = 1\nvalue = [0, 1]"] ;
694 -> 695 ;
696 [label="entropy = 0.0\nsamples = 1\nvalue = [1, 0]"] ;
694 -> 696 ;
697 [label="min Z <= 0.5543\nentropy = 0.9474\nsamples = 82\nvalue = [30, 52]"] ;
675 -> 697 ;
698 [label="entropy <= -176.7245\nentropy = 0.9787\nsamples = 70\nvalue = [29, 41]"] ;
697 -> 698 ;
699 [label="mean mag <= 9.3967\nentropy = 0.5033\nsamples = 9\nvalue = [1, 8]"] ;
698 -> 699 ;
700 [label="entropy = 0.0\nsamples = 1\nvalue = [1, 0]"] ;
699 -> 700 ;
701 [label="entropy = 0.0\nsamples = 8\nvalue = [0, 8]"] ;
699 -> 701 ;
702 [label="median X <= 1.859\nentropy = 0.9951\nsamples = 61\nvalue = [28, 33]"] ;
698 -> 702 ;
703 [label="min Y <= -6.33\nentropy = 0.9685\nsamples = 48\nvalue = [19, 29]"] ;
702 -> 703 ;
704 [label="entropy = 0.0\nsamples = 5\nvalue = [0, 5]"] ;
703 -> 704 ;
705 [label="median mag <= 9.7644\nentropy = 0.9902\nsamples = 43\nvalue = [19, 24]"] ;
703 -> 705 ;
706 [label="std Y <= 1.9462\nentropy = 0.3912\nsamples = 13\nvalue = [12, 1]"] ;
705 -> 706 ;
707 [label="entropy = 0.0\nsamples = 10\nvalue = [10, 0]"] ;
706 -> 707 ;
708 [label="min Z <= 0.2348\nentropy = 0.9183\nsamples = 3\nvalue = [2, 1]"] ;
706 -> 708 ;
709 [label="entropy = 0.0\nsamples = 2\nvalue = [2, 0]"] ;
708 -> 709 ;
710 [label="entropy = 0.0\nsamples = 1\nvalue = [0, 1]"] ;
708 -> 710 ;
711 [label="var Z <= 1.2413\nentropy = 0.7838\nsamples = 30\nvalue = [7, 23]"] ;
705 -> 711 ;
712 [label="entropy <= -174.4433\nentropy = 0.3534\nsamples = 15\nvalue = [1, 14]"] ;
711 -> 712 ;
713 [label="entropy = 0.0\nsamples = 1\nvalue = [1, 0]"] ;
712 -> 713 ;
714 [label="entropy = 0.0\nsamples = 14\nvalue = [0, 14]"] ;
712 -> 714 ;
715 [label="mean Y <= -0.599\nentropy = 0.971\nsamples = 15\nvalue = [6, 9]"] ;
711 -> 715 ;
716 [label="entropy = 0.0\nsamples = 4\nvalue = [0, 4]"] ;
715 -> 716 ;
717 [label="median mag <= 9.8153\nentropy = 0.994\nsamples = 11\nvalue = [6, 5]"] ;
715 -> 717 ;
718 [label="entropy = 0.0\nsamples = 3\nvalue = [0, 3]"] ;
717 -> 718 ;
719 [label="median X <= 1.4867\nentropy = 0.8113\nsamples = 8\nvalue = [6, 2]"] ;
717 -> 719 ;
720 [label="var X <= 106.7162\nentropy = 0.5917\nsamples = 7\nvalue = [6, 1]"] ;
719 -> 720 ;
721 [label="entropy = 0.0\nsamples = 6\nvalue = [6, 0]"] ;
720 -> 721 ;
722 [label="entropy = 0.0\nsamples = 1\nvalue = [0, 1]"] ;
720 -> 722 ;
723 [label="entropy = 0.0\nsamples = 1\nvalue = [0, 1]"] ;
719 -> 723 ;
724 [label="mean Y <= 0.6039\nentropy = 0.8905\nsamples = 13\nvalue = [9, 4]"] ;
702 -> 724 ;
725 [label="std Z <= 0.876\nentropy = 0.684\nsamples = 11\nvalue = [9, 2]"] ;
724 -> 725 ;
726 [label="entropy = 0.0\nsamples = 1\nvalue = [0, 1]"] ;
725 -> 726 ;
727 [label="min Z <= 0.108\nentropy = 0.469\nsamples = 10\nvalue = [9, 1]"] ;
725 -> 727 ;
728 [label="std Z <= 1.0676\nentropy = 0.8113\nsamples = 4\nvalue = [3, 1]"] ;
727 -> 728 ;
729 [label="entropy = 0.0\nsamples = 1\nvalue = [0, 1]"] ;
728 -> 729 ;
730 [label="entropy = 0.0\nsamples = 3\nvalue = [3, 0]"] ;
728 -> 730 ;
731 [label="entropy = 0.0\nsamples = 6\nvalue = [6, 0]"] ;
727 -> 731 ;
732 [label="entropy = 0.0\nsamples = 2\nvalue = [0, 2]"] ;
724 -> 732 ;
733 [label="max X <= 9.15\nentropy = 0.4138\nsamples = 12\nvalue = [1, 11]"] ;
697 -> 733 ;
734 [label="entropy = 0.0\nsamples = 1\nvalue = [1, 0]"] ;
733 -> 734 ;
735 [label="entropy = 0.0\nsamples = 11\nvalue = [0, 11]"] ;
733 -> 735 ;
736 [label="max X <= 9.4055\nentropy = 0.6194\nsamples = 13\nvalue = [11, 2]"] ;
674 -> 736 ;
737 [label="mean X <= -0.3981\nentropy = 0.971\nsamples = 5\nvalue = [3, 2]"] ;
736 -> 737 ;
738 [label="entropy = 0.0\nsamples = 2\nvalue = [2, 0]"] ;
737 -> 738 ;
739 [label="min Z <= 0.6571\nentropy = 0.9183\nsamples = 3\nvalue = [1, 2]"] ;
737 -> 739 ;
740 [label="entropy = 0.0\nsamples = 1\nvalue = [0, 1]"] ;
739 -> 740 ;
741 [label="max mag <= 11.8555\nentropy = 1.0\nsamples = 2\nvalue = [1, 1]"] ;
739 -> 741 ;
742 [label="entropy = 0.0\nsamples = 1\nvalue = [0, 1]"] ;
741 -> 742 ;
743 [label="entropy = 0.0\nsamples = 1\nvalue = [1, 0]"] ;
741 -> 743 ;
744 [label="entropy = 0.0\nsamples = 8\nvalue = [8, 0]"] ;
736 -> 744 ;
745 [label="min Z <= 0.1354\nentropy = 0.4138\nsamples = 12\nvalue = [1, 11]"] ;
673 -> 745 ;
746 [label="entropy = 0.0\nsamples = 1\nvalue = [1, 0]"] ;
745 -> 746 ;
747 [label="entropy = 0.0\nsamples = 11\nvalue = [0, 11]"] ;
745 -> 747 ;
748 [label="max Z <= 4.8841\nentropy = 0.6194\nsamples = 13\nvalue = [2, 11]"] ;
672 -> 748 ;
749 [label="std mag <= 2.2188\nentropy = 0.9183\nsamples = 3\nvalue = [2, 1]"] ;
748 -> 749 ;
750 [label="entropy = 0.0\nsamples = 1\nvalue = [0, 1]"] ;
749 -> 750 ;
751 [label="entropy = 0.0\nsamples = 2\nvalue = [2, 0]"] ;
749 -> 751 ;
752 [label="entropy = 0.0\nsamples = 10\nvalue = [0, 10]"] ;
748 -> 752 ;
753 [label="entropy = 0.0\nsamples = 5\nvalue = [5, 0]"] ;
671 -> 753 ;
754 [label="min Z <= 4.7037\nentropy = 0.9792\nsamples = 460\nvalue = [269, 191]"] ;
670 -> 754 ;
755 [label="max Z <= 5.8473\nentropy = 0.9733\nsamples = 448\nvalue = [267, 181]"] ;
754 -> 755 ;
756 [label="entropy = 0.0\nsamples = 12\nvalue = [12, 0]"] ;
755 -> 756 ;
757 [label="mean X <= 8.741\nentropy = 0.9791\nsamples = 436\nvalue = [255, 181]"] ;
755 -> 757 ;
758 [label="mean X <= 7.8189\nentropy = 0.9764\nsamples = 432\nvalue = [255, 177]"] ;
757 -> 758 ;
759 [label="mean Y <= 6.2412\nentropy = 0.9802\nsamples = 424\nvalue = [247, 177]"] ;
758 -> 759 ;
760 [label="std mag <= 0.9594\nentropy = 0.9835\nsamples = 417\nvalue = [240, 177]"] ;
759 -> 760 ;
761 [label="median Y <= -0.8177\nentropy = 0.9495\nsamples = 38\nvalue = [14, 24]"] ;
760 -> 761 ;
762 [label="entropy = 0.0\nsamples = 10\nvalue = [0, 10]"] ;
761 -> 762 ;
763 [label="min Y <= -3.5845\nentropy = 1.0\nsamples = 28\nvalue = [14, 14]"] ;
761 -> 763 ;
764 [label="entropy = 0.0\nsamples = 4\nvalue = [4, 0]"] ;
763 -> 764 ;
765 [label="mean mag <= 9.5022\nentropy = 0.9799\nsamples = 24\nvalue = [10, 14]"] ;
763 -> 765 ;
766 [label="var mag <= 0.7058\nentropy = 0.65\nsamples = 6\nvalue = [5, 1]"] ;
765 -> 766 ;
767 [label="entropy = 0.0\nsamples = 1\nvalue = [0, 1]"] ;
766 -> 767 ;
768 [label="entropy = 0.0\nsamples = 5\nvalue = [5, 0]"] ;
766 -> 768 ;
769 [label="var Y <= 0.7342\nentropy = 0.8524\nsamples = 18\nvalue = [5, 13]"] ;
765 -> 769 ;
770 [label="entropy = 0.0\nsamples = 2\nvalue = [2, 0]"] ;
769 -> 770 ;
771 [label="median X <= 1.5025\nentropy = 0.6962\nsamples = 16\nvalue = [3, 13]"] ;
769 -> 771 ;
772 [label="min Y <= -2.9281\nentropy = 0.9852\nsamples = 7\nvalue = [3, 4]"] ;
771 -> 772 ;
773 [label="entropy = 0.0\nsamples = 3\nvalue = [0, 3]"] ;
772 -> 773 ;
774 [label="std mag <= 0.876\nentropy = 0.8113\nsamples = 4\nvalue = [3, 1]"] ;
772 -> 774 ;
775 [label="entropy = 0.0\nsamples = 3\nvalue = [3, 0]"] ;
774 -> 775 ;
776 [label="entropy = 0.0\nsamples = 1\nvalue = [0, 1]"] ;
774 -> 776 ;
777 [label="entropy = 0.0\nsamples = 9\nvalue = [0, 9]"] ;
771 -> 777 ;
778 [label="mean Y <= -0.1503\nentropy = 0.9731\nsamples = 379\nvalue = [226, 153]"] ;
760 -> 778 ;
779 [label="min mag <= 6.5245\nentropy = 0.9162\nsamples = 160\nvalue = [107, 53]"] ;
778 -> 779 ;
780 [label="var X <= 97.168\nentropy = 0.5328\nsamples = 33\nvalue = [29, 4]"] ;
779 -> 780 ;
781 [label="var Z <= 4.1293\nentropy = 0.3534\nsamples = 30\nvalue = [28, 2]"] ;
780 -> 781 ;
782 [label="entropy = 0.0\nsamples = 20\nvalue = [20, 0]"] ;
781 -> 782 ;
783 [label="mean Z <= 3.6323\nentropy = 0.7219\nsamples = 10\nvalue = [8, 2]"] ;
781 -> 783 ;
784 [label="mean X <= -0.9233\nentropy = 1.0\nsamples = 4\nvalue = [2, 2]"] ;
783 -> 784 ;
785 [label="entropy = 0.0\nsamples = 2\nvalue = [2, 0]"] ;
784 -> 785 ;
786 [label="entropy = 0.0\nsamples = 2\nvalue = [0, 2]"] ;
784 -> 786 ;
787 [label="entropy = 0.0\nsamples = 6\nvalue = [6, 0]"] ;
783 -> 787 ;
788 [label="max X <= 9.5386\nentropy = 0.9183\nsamples = 3\nvalue = [1, 2]"] ;
780 -> 788 ;
789 [label="entropy = 0.0\nsamples = 2\nvalue = [0, 2]"] ;
788 -> 789 ;
790 [label="entropy = 0.0\nsamples = 1\nvalue = [1, 0]"] ;
788 -> 790 ;
791 [label="median Z <= 2.1474\nentropy = 0.9621\nsamples = 127\nvalue = [78, 49]"] ;
779 -> 791 ;
792 [label="mean Y <= -0.5737\nentropy = 0.8997\nsamples = 19\nvalue = [6, 13]"] ;
791 -> 792 ;
793 [label="entropy = 0.0\nsamples = 7\nvalue = [0, 7]"] ;
792 -> 793 ;
794 [label="median mag <= 9.7482\nentropy = 1.0\nsamples = 12\nvalue = [6, 6]"] ;
792 -> 794 ;
795 [label="entropy = 0.0\nsamples = 3\nvalue = [0, 3]"] ;
794 -> 795 ;
796 [label="var mag <= 5.936\nentropy = 0.9183\nsamples = 9\nvalue = [6, 3]"] ;
794 -> 796 ;
797 [label="max X <= 9.5326\nentropy = 0.971\nsamples = 5\nvalue = [2, 3]"] ;
796 -> 797 ;
798 [label="entropy = 0.0\nsamples = 2\nvalue = [2, 0]"] ;
797 -> 798 ;
799 [label="entropy = 0.0\nsamples = 3\nvalue = [0, 3]"] ;
797 -> 799 ;
800 [label="entropy = 0.0\nsamples = 4\nvalue = [4, 0]"] ;
796 -> 800 ;
801 [label="mean Z <= 3.0827\nentropy = 0.9183\nsamples = 108\nvalue = [72, 36]"] ;
791 -> 801 ;
802 [label="entropy = 0.0\nsamples = 5\nvalue = [5, 0]"] ;
801 -> 802 ;
803 [label="max Y <= 3.9873\nentropy = 0.9336\nsamples = 103\nvalue = [67, 36]"] ;
801 -> 803 ;
804 [label="var Z <= 1.2344\nentropy = 0.9932\nsamples = 62\nvalue = [34, 28]"] ;
803 -> 804 ;
805 [label="entropy = 0.0\nsamples = 6\nvalue = [6, 0]"] ;
804 -> 805 ;
806 [label="mean Z <= 5.3149\nentropy = 1.0\nsamples = 56\nvalue = [28, 28]"] ;
804 -> 806 ;
807 [label="max Y <= 3.5754\nentropy = 0.9957\nsamples = 52\nvalue = [24, 28]"] ;
806 -> 807 ;
808 [label="min Y <= -3.0271\nentropy = 0.9666\nsamples = 28\nvalue = [17, 11]"] ;
807 -> 808 ;
809 [label="var Z <= 3.9804\nentropy = 0.9183\nsamples = 12\nvalue = [4, 8]"] ;
808 -> 809 ;
810 [label="mean Z <= 4.3454\nentropy = 0.5033\nsamples = 9\nvalue = [1, 8]"] ;
809 -> 810 ;
811 [label="entropy = 0.0\nsamples = 8\nvalue = [0, 8]"] ;
810 -> 811 ;
812 [label="entropy = 0.0\nsamples = 1\nvalue = [1, 0]"] ;
810 -> 812 ;
813 [label="entropy = 0.0\nsamples = 3\nvalue = [3, 0]"] ;
809 -> 813 ;
814 [label="min X <= -18.811\nentropy = 0.6962\nsamples = 16\nvalue = [13, 3]"] ;
808 -> 814 ;
815 [label="entropy = 0.0\nsamples = 1\nvalue = [0, 1]"] ;
814 -> 815 ;
816 [label="median Z <= 2.5111\nentropy = 0.5665\nsamples = 15\nvalue = [13, 2]"] ;
814 -> 816 ;
817 [label="mean Y <= -0.4097\nentropy = 0.9183\nsamples = 3\nvalue = [1, 2]"] ;
816 -> 817 ;
818 [label="entropy = 0.0\nsamples = 2\nvalue = [0, 2]"] ;
817 -> 818 ;
819 [label="entropy = 0.0\nsamples = 1\nvalue = [1, 0]"] ;
817 -> 819 ;
820 [label="entropy = 0.0\nsamples = 12\nvalue = [12, 0]"] ;
816 -> 820 ;
821 [label="min Z <= 1.1105\nentropy = 0.8709\nsamples = 24\nvalue = [7, 17]"] ;
807 -> 821 ;
822 [label="entropy = 0.0\nsamples = 5\nvalue = [0, 5]"] ;
821 -> 822 ;
823 [label="var Y <= 7.238\nentropy = 0.9495\nsamples = 19\nvalue = [7, 12]"] ;
821 -> 823 ;
824 [label="mean Z <= 3.3246\nentropy = 1.0\nsamples = 14\nvalue = [7, 7]"] ;
823 -> 824 ;
825 [label="entropy = 0.0\nsamples = 2\nvalue = [0, 2]"] ;
824 -> 825 ;
826 [label="entropy <= -157.743\nentropy = 0.9799\nsamples = 12\nvalue = [7, 5]"] ;
824 -> 826 ;
827 [label="var mag <= 4.624\nentropy = 0.8813\nsamples = 10\nvalue = [7, 3]"] ;
826 -> 827 ;
828 [label="entropy = 0.0\nsamples = 4\nvalue = [4, 0]"] ;
827 -> 828 ;
829 [label="median Z <= 3.5143\nentropy = 1.0\nsamples = 6\nvalue = [3, 3]"] ;
827 -> 829 ;
830 [label="var X <= 97.9496\nentropy = 0.8113\nsamples = 4\nvalue = [1, 3]"] ;
829 -> 830 ;
831 [label="entropy = 0.0\nsamples = 3\nvalue = [0, 3]"] ;
830 -> 831 ;
832 [label="entropy = 0.0\nsamples = 1\nvalue = [1, 0]"] ;
830 -> 832 ;
833 [label="entropy = 0.0\nsamples = 2\nvalue = [2, 0]"] ;
829 -> 833 ;
834 [label="entropy = 0.0\nsamples = 2\nvalue = [0, 2]"] ;
826 -> 834 ;
835 [label="entropy = 0.0\nsamples = 5\nvalue = [0, 5]"] ;
823 -> 835 ;
836 [label="entropy = 0.0\nsamples = 4\nvalue = [4, 0]"] ;
806 -> 836 ;
837 [label="min Y <= -4.989\nentropy = 0.7121\nsamples = 41\nvalue = [33, 8]"] ;
803 -> 837 ;
838 [label="entropy = 0.0\nsamples = 2\nvalue = [0, 2]"] ;
837 -> 838 ;
839 [label="std Z <= 1.8411\nentropy = 0.6194\nsamples = 39\nvalue = [33, 6]"] ;
837 -> 839 ;
840 [label="std Z <= 1.2528\nentropy = 0.3809\nsamples = 27\nvalue = [25, 2]"] ;
839 -> 840 ;
841 [label="median mag <= 9.8647\nentropy = 1.0\nsamples = 4\nvalue = [2, 2]"] ;
840 -> 841 ;
842 [label="entropy = 0.0\nsamples = 2\nvalue = [0, 2]"] ;
841 -> 842 ;
843 [label="entropy = 0.0\nsamples = 2\nvalue = [2, 0]"] ;
841 -> 843 ;
844 [label="entropy = 0.0\nsamples = 23\nvalue = [23, 0]"] ;
840 -> 844 ;
845 [label="std Z <= 1.8743\nentropy = 0.9183\nsamples = 12\nvalue = [8, 4]"] ;
839 -> 845 ;
846 [label="entropy = 0.0\nsamples = 2\nvalue = [0, 2]"] ;
845 -> 846 ;
847 [label="median mag <= 9.7495\nentropy = 0.7219\nsamples = 10\nvalue = [8, 2]"] ;
845 -> 847 ;
848 [label="entropy = 0.0\nsamples = 1\nvalue = [0, 1]"] ;
847 -> 848 ;
849 [label="entropy <= -159.1955\nentropy = 0.5033\nsamples = 9\nvalue = [8, 1]"] ;
847 -> 849 ;
850 [label="entropy = 0.0\nsamples = 8\nvalue = [8, 0]"] ;
849 -> 850 ;
851 [label="entropy = 0.0\nsamples = 1\nvalue = [0, 1]"] ;
849 -> 851 ;
852 [label="mean mag <= 10.8293\nentropy = 0.9946\nsamples = 219\nvalue = [119, 100]"] ;
778 -> 852 ;
853 [label="min X <= -16.4961\nentropy = 0.9889\nsamples = 210\nvalue = [118, 92]"] ;
852 -> 853 ;
854 [label="entropy <= -164.8111\nentropy = 0.9503\nsamples = 46\nvalue = [17, 29]"] ;
853 -> 854 ;
855 [label="mean Z <= 3.5033\nentropy = 0.9957\nsamples = 26\nvalue = [14, 12]"] ;
854 -> 855 ;
856 [label="min X <= -18.3463\nentropy = 0.896\nsamples = 16\nvalue = [5, 11]"] ;
855 -> 856 ;
857 [label="var Z <= 4.6026\nentropy = 0.469\nsamples = 10\nvalue = [1, 9]"] ;
856 -> 857 ;
858 [label="entropy = 0.0\nsamples = 9\nvalue = [0, 9]"] ;
857 -> 858 ;
859 [label="entropy = 0.0\nsamples = 1\nvalue = [1, 0]"] ;
857 -> 859 ;
860 [label="mean X <= -0.642\nentropy = 0.9183\nsamples = 6\nvalue = [4, 2]"] ;
856 -> 860 ;
861 [label="entropy = 0.0\nsamples = 3\nvalue = [3, 0]"] ;
860 -> 861 ;
862 [label="min mag <= 6.6497\nentropy = 0.9183\nsamples = 3\nvalue = [1, 2]"] ;
860 -> 862 ;
863 [label="entropy = 0.0\nsamples = 2\nvalue = [0, 2]"] ;
862 -> 863 ;
864 [label="entropy = 0.0\nsamples = 1\nvalue = [1, 0]"] ;
862 -> 864 ;
865 [label="median mag <= 10.0018\nentropy = 0.469\nsamples = 10\nvalue = [9, 1]"] ;
855 -> 865 ;
866 [label="entropy = 0.0\nsamples = 8\nvalue = [8, 0]"] ;
865 -> 866 ;
867 [label="min Z <= 1.4285\nentropy = 1.0\nsamples = 2\nvalue = [1, 1]"] ;
865 -> 867 ;
868 [label="entropy = 0.0\nsamples = 1\nvalue = [0, 1]"] ;
867 -> 868 ;
869 [label="entropy = 0.0\nsamples = 1\nvalue = [1, 0]"] ;
867 -> 869 ;
870 [label="max mag <= 19.8208\nentropy = 0.6098\nsamples = 20\nvalue = [3, 17]"] ;
854 -> 870 ;
871 [label="var X <= 94.0057\nentropy = 0.4855\nsamples = 19\nvalue = [2, 17]"] ;
870 -> 871 ;
872 [label="entropy = 0.0\nsamples = 14\nvalue = [0, 14]"] ;
871 -> 872 ;
873 [label="min X <= -17.3652\nentropy = 0.971\nsamples = 5\nvalue = [2, 3]"] ;
871 -> 873 ;
874 [label="entropy = 0.0\nsamples = 2\nvalue = [2, 0]"] ;
873 -> 874 ;
875 [label="entropy = 0.0\nsamples = 3\nvalue = [0, 3]"] ;
873 -> 875 ;
876 [label="entropy = 0.0\nsamples = 1\nvalue = [1, 0]"] ;
870 -> 876 ;
877 [label="var X <= 94.1711\nentropy = 0.9609\nsamples = 164\nvalue = [101, 63]"] ;
853 -> 877 ;
878 [label="min Z <= 0.0792\nentropy = 0.9848\nsamples = 138\nvalue = [79, 59]"] ;
877 -> 878 ;
879 [label="entropy = 0.0\nsamples = 4\nvalue = [0, 4]"] ;
878 -> 879 ;
880 [label="max X <= 9.959\nentropy = 0.9767\nsamples = 134\nvalue = [79, 55]"] ;
878 -> 880 ;
881 [label="mean mag <= 9.8353\nentropy = 0.9857\nsamples = 128\nvalue = [73, 55]"] ;
880 -> 881 ;
882 [label="std X <= 8.6822\nentropy = 0.8582\nsamples = 39\nvalue = [28, 11]"] ;
881 -> 882 ;
883 [label="mean X <= 0.6777\nentropy = 0.9383\nsamples = 31\nvalue = [20, 11]"] ;
882 -> 883 ;
884 [label="std Z <= 1.7033\nentropy = 0.7732\nsamples = 22\nvalue = [17, 5]"] ;
883 -> 884 ;
885 [label="max Z <= 6.3247\nentropy = 0.6098\nsamples = 20\nvalue = [17, 3]"] ;
884 -> 885 ;
886 [label="std X <= 8.4312\nentropy = 0.971\nsamples = 5\nvalue = [2, 3]"] ;
885 -> 886 ;
887 [label="entropy = 0.0\nsamples = 3\nvalue = [0, 3]"] ;
886 -> 887 ;
888 [label="entropy = 0.0\nsamples = 2\nvalue = [2, 0]"] ;
886 -> 888 ;
889 [label="entropy = 0.0\nsamples = 15\nvalue = [15, 0]"] ;
885 -> 889 ;
890 [label="entropy = 0.0\nsamples = 2\nvalue = [0, 2]"] ;
884 -> 890 ;
891 [label="max X <= 9.4971\nentropy = 0.9183\nsamples = 9\nvalue = [3, 6]"] ;
883 -> 891 ;
892 [label="mean X <= 0.7819\nentropy = 0.971\nsamples = 5\nvalue = [3, 2]"] ;
891 -> 892 ;
893 [label="entropy = 0.0\nsamples = 2\nvalue = [0, 2]"] ;
892 -> 893 ;
894 [label="entropy = 0.0\nsamples = 3\nvalue = [3, 0]"] ;
892 -> 894 ;
895 [label="entropy = 0.0\nsamples = 4\nvalue = [0, 4]"] ;
891 -> 895 ;
896 [label="entropy = 0.0\nsamples = 8\nvalue = [8, 0]"] ;
882 -> 896 ;
897 [label="max Y <= 5.0561\nentropy = 0.9999\nsamples = 89\nvalue = [45, 44]"] ;
881 -> 897 ;
898 [label="mean Z <= 4.0686\nentropy = 0.896\nsamples = 32\nvalue = [10, 22]"] ;
897 -> 898 ;
899 [label="median X <= -6.6627\nentropy = 0.5033\nsamples = 18\nvalue = [2, 16]"] ;
898 -> 899 ;
900 [label="entropy = 0.0\nsamples = 1\nvalue = [1, 0]"] ;
899 -> 900 ;
901 [label="min mag <= 8.4771\nentropy = 0.3228\nsamples = 17\nvalue = [1, 16]"] ;
899 -> 901 ;
902 [label="entropy = 0.0\nsamples = 13\nvalue = [0, 13]"] ;
901 -> 902 ;
903 [label="max Z <= 6.6694\nentropy = 0.8113\nsamples = 4\nvalue = [1, 3]"] ;
901 -> 903 ;
904 [label="entropy = 0.0\nsamples = 1\nvalue = [1, 0]"] ;
903 -> 904 ;
905 [label="entropy = 0.0\nsamples = 3\nvalue = [0, 3]"] ;
903 -> 905 ;
906 [label="mean mag <= 9.9173\nentropy = 0.9852\nsamples = 14\nvalue = [8, 6]"] ;
898 -> 906 ;
907 [label="entropy = 0.0\nsamples = 4\nvalue = [4, 0]"] ;
906 -> 907 ;
908 [label="var mag <= 3.2488\nentropy = 0.971\nsamples = 10\nvalue = [4, 6]"] ;
906 -> 908 ;
909 [label="entropy = 0.0\nsamples = 4\nvalue = [0, 4]"] ;
908 -> 909 ;
910 [label="max Z <= 9.3711\nentropy = 0.9183\nsamples = 6\nvalue = [4, 2]"] ;
908 -> 910 ;
911 [label="min Z <= 2.1622\nentropy = 0.9183\nsamples = 3\nvalue = [1, 2]"] ;
910 -> 911 ;
912 [label="entropy = 0.0\nsamples = 1\nvalue = [1, 0]"] ;
911 -> 912 ;
913 [label="entropy = 0.0\nsamples = 2\nvalue = [0, 2]"] ;
911 -> 913 ;
914 [label="entropy = 0.0\nsamples = 3\nvalue = [3, 0]"] ;
910 -> 914 ;
915 [label="max Y <= 8.09\nentropy = 0.9621\nsamples = 57\nvalue = [35, 22]"] ;
897 -> 915 ;
916 [label="min mag <= 6.9862\nentropy = 0.9113\nsamples = 49\nvalue = [33, 16]"] ;
915 -> 916 ;
917 [label="std X <= 8.8431\nentropy = 0.3373\nsamples = 16\nvalue = [15, 1]"] ;
916 -> 917 ;
918 [label="var Y <= 7.9832\nentropy = 1.0\nsamples = 2\nvalue = [1, 1]"] ;
917 -> 918 ;
919 [label="entropy = 0.0\nsamples = 1\nvalue = [1, 0]"] ;
918 -> 919 ;
920 [label="entropy = 0.0\nsamples = 1\nvalue = [0, 1]"] ;
918 -> 920 ;
921 [label="entropy = 0.0\nsamples = 14\nvalue = [14, 0]"] ;
917 -> 921 ;
922 [label="entropy <= -158.8806\nentropy = 0.994\nsamples = 33\nvalue = [18, 15]"] ;
916 -> 922 ;
923 [label="std mag <= 2.1763\nentropy = 0.9457\nsamples = 22\nvalue = [8, 14]"] ;
922 -> 923 ;
924 [label="max Z <= 7.1082\nentropy = 0.9968\nsamples = 15\nvalue = [7, 8]"] ;
923 -> 924 ;
925 [label="min X <= -13.7418\nentropy = 0.5917\nsamples = 7\nvalue = [1, 6]"] ;
924 -> 925 ;
926 [label="entropy = 0.0\nsamples = 6\nvalue = [0, 6]"] ;
925 -> 926 ;
927 [label="entropy = 0.0\nsamples = 1\nvalue = [1, 0]"] ;
925 -> 927 ;
928 [label="std Y <= 2.5208\nentropy = 0.8113\nsamples = 8\nvalue = [6, 2]"] ;
924 -> 928 ;
929 [label="var X <= 76.7169\nentropy = 0.9183\nsamples = 3\nvalue = [1, 2]"] ;
928 -> 929 ;
930 [label="entropy = 0.0\nsamples = 1\nvalue = [1, 0]"] ;
929 -> 930 ;
931 [label="entropy = 0.0\nsamples = 2\nvalue = [0, 2]"] ;
929 -> 931 ;
932 [label="entropy = 0.0\nsamples = 5\nvalue = [5, 0]"] ;
928 -> 932 ;
933 [label="median mag <= 9.76\nentropy = 0.5917\nsamples = 7\nvalue = [1, 6]"] ;
923 -> 933 ;
934 [label="entropy = 0.0\nsamples = 1\nvalue = [1, 0]"] ;
933 -> 934 ;
935 [label="entropy = 0.0\nsamples = 6\nvalue = [0, 6]"] ;
933 -> 935 ;
936 [label="std Y <= 3.5043\nentropy = 0.4395\nsamples = 11\nvalue = [10, 1]"] ;
922 -> 936 ;
937 [label="entropy = 0.0\nsamples = 8\nvalue = [8, 0]"] ;
936 -> 937 ;
938 [label="std X <= 7.7862\nentropy = 0.9183\nsamples = 3\nvalue = [2, 1]"] ;
936 -> 938 ;
939 [label="entropy = 0.0\nsamples = 1\nvalue = [1, 0]"] ;
938 -> 939 ;
940 [label="var X <= 86.9062\nentropy = 1.0\nsamples = 2\nvalue = [1, 1]"] ;
938 -> 940 ;
941 [label="entropy = 0.0\nsamples = 1\nvalue = [0, 1]"] ;
940 -> 941 ;
942 [label="entropy = 0.0\nsamples = 1\nvalue = [1, 0]"] ;
940 -> 942 ;
943 [label="median X <= -5.062\nentropy = 0.8113\nsamples = 8\nvalue = [2, 6]"] ;
915 -> 943 ;
944 [label="var X <= 90.8426\nentropy = 0.9183\nsamples = 3\nvalue = [2, 1]"] ;
943 -> 944 ;
945 [label="entropy = 0.0\nsamples = 2\nvalue = [2, 0]"] ;
944 -> 945 ;
946 [label="entropy = 0.0\nsamples = 1\nvalue = [0, 1]"] ;
944 -> 946 ;
947 [label="entropy = 0.0\nsamples = 5\nvalue = [0, 5]"] ;
943 -> 947 ;
948 [label="entropy = 0.0\nsamples = 6\nvalue = [6, 0]"] ;
880 -> 948 ;
949 [label="max Y <= 5.6482\nentropy = 0.6194\nsamples = 26\nvalue = [22, 4]"] ;
877 -> 949 ;
950 [label="entropy = 0.0\nsamples = 11\nvalue = [11, 0]"] ;
949 -> 950 ;
951 [label="var Z <= 2.6532\nentropy = 0.8366\nsamples = 15\nvalue = [11, 4]"] ;
949 -> 951 ;
952 [label="median Z <= 2.41\nentropy = 0.9852\nsamples = 7\nvalue = [3, 4]"] ;
951 -> 952 ;
953 [label="entropy = 0.0\nsamples = 3\nvalue = [0, 3]"] ;
952 -> 953 ;
954 [label="std mag <= 2.3431\nentropy = 0.8113\nsamples = 4\nvalue = [3, 1]"] ;
952 -> 954 ;
955 [label="entropy = 0.0\nsamples = 3\nvalue = [3, 0]"] ;
954 -> 955 ;
956 [label="entropy = 0.0\nsamples = 1\nvalue = [0, 1]"] ;
954 -> 956 ;
957 [label="entropy = 0.0\nsamples = 8\nvalue = [8, 0]"] ;
951 -> 957 ;
958 [label="var X <= 95.1764\nentropy = 0.5033\nsamples = 9\nvalue = [1, 8]"] ;
852 -> 958 ;
959 [label="var Z <= 3.637\nentropy = 1.0\nsamples = 2\nvalue = [1, 1]"] ;
958 -> 959 ;
960 [label="entropy = 0.0\nsamples = 1\nvalue = [0, 1]"] ;
959 -> 960 ;
961 [label="entropy = 0.0\nsamples = 1\nvalue = [1, 0]"] ;
959 -> 961 ;
962 [label="entropy = 0.0\nsamples = 7\nvalue = [0, 7]"] ;
958 -> 962 ;
963 [label="entropy = 0.0\nsamples = 7\nvalue = [7, 0]"] ;
759 -> 963 ;
964 [label="entropy = 0.0\nsamples = 8\nvalue = [8, 0]"] ;
758 -> 964 ;
965 [label="entropy = 0.0\nsamples = 4\nvalue = [0, 4]"] ;
757 -> 965 ;
966 [label="var Y <= 2.6881\nentropy = 0.65\nsamples = 12\nvalue = [2, 10]"] ;
754 -> 966 ;
967 [label="entropy = 0.0\nsamples = 10\nvalue = [0, 10]"] ;
966 -> 967 ;
968 [label="entropy = 0.0\nsamples = 2\nvalue = [2, 0]"] ;
966 -> 968 ;
969 [label="entropy <= -163.8852\nentropy = 0.7063\nsamples = 52\nvalue = [42, 10]"] ;
667 -> 969 ;
970 [label="mean X <= -0.573\nentropy = 0.8524\nsamples = 36\nvalue = [26, 10]"] ;
969 -> 970 ;
971 [label="min Z <= 0.1731\nentropy = 0.9612\nsamples = 13\nvalue = [5, 8]"] ;
970 -> 971 ;
972 [label="entropy = 0.0\nsamples = 2\nvalue = [2, 0]"] ;
971 -> 972 ;
973 [label="var X <= 103.3475\nentropy = 0.8454\nsamples = 11\nvalue = [3, 8]"] ;
971 -> 973 ;
974 [label="std X <= 10.1014\nentropy = 1.0\nsamples = 6\nvalue = [3, 3]"] ;
973 -> 974 ;
975 [label="entropy = 0.0\nsamples = 3\nvalue = [0, 3]"] ;
974 -> 975 ;
976 [label="entropy = 0.0\nsamples = 3\nvalue = [3, 0]"] ;
974 -> 976 ;
977 [label="entropy = 0.0\nsamples = 5\nvalue = [0, 5]"] ;
973 -> 977 ;
978 [label="max Y <= 0.5813\nentropy = 0.4262\nsamples = 23\nvalue = [21, 2]"] ;
970 -> 978 ;
979 [label="entropy = 0.0\nsamples = 1\nvalue = [0, 1]"] ;
978 -> 979 ;
980 [label="std Z <= 0.6663\nentropy = 0.2668\nsamples = 22\nvalue = [21, 1]"] ;
978 -> 980 ;
981 [label="entropy = 0.0\nsamples = 1\nvalue = [0, 1]"] ;
980 -> 981 ;
982 [label="entropy = 0.0\nsamples = 21\nvalue = [21, 0]"] ;
980 -> 982 ;
983 [label="entropy = 0.0\nsamples = 16\nvalue = [16, 0]"] ;
969 -> 983 ;
984 [label="max mag <= 14.7638\nentropy = 0.1329\nsamples = 3460\nvalue = [3396, 64]"] ;
390 -> 984 ;
985 [label="median Y <= 1.7759\nentropy = 0.2483\nsamples = 1089\nvalue = [1044, 45]"] ;
984 -> 985 ;
986 [label="median Y <= -1.4142\nentropy = 0.2113\nsamples = 1047\nvalue = [1012, 35]"] ;
985 -> 986 ;
987 [label="mean mag <= 10.2644\nentropy = 0.6901\nsamples = 65\nvalue = [53, 12]"] ;
986 -> 987 ;
988 [label="min Z <= 7.6203\nentropy = 0.9183\nsamples = 36\nvalue = [24, 12]"] ;
987 -> 988 ;
989 [label="max X <= 4.8351\nentropy = 0.8113\nsamples = 32\nvalue = [24, 8]"] ;
988 -> 989 ;
990 [label="mean Y <= -1.4688\nentropy = 0.7219\nsamples = 30\nvalue = [24, 6]"] ;
989 -> 990 ;
991 [label="max Z <= 12.7547\nentropy = 0.5294\nsamples = 25\nvalue = [22, 3]"] ;
990 -> 991 ;
992 [label="entropy = 0.0\nsamples = 9\nvalue = [9, 0]"] ;
991 -> 992 ;
993 [label="std X <= 0.8172\nentropy = 0.6962\nsamples = 16\nvalue = [13, 3]"] ;
991 -> 993 ;
994 [label="entropy = 0.0\nsamples = 1\nvalue = [0, 1]"] ;
993 -> 994 ;
995 [label="max mag <= 12.9561\nentropy = 0.5665\nsamples = 15\nvalue = [13, 2]"] ;
993 -> 995 ;
996 [label="entropy = 0.0\nsamples = 1\nvalue = [0, 1]"] ;
995 -> 996 ;
997 [label="median Y <= -2.3657\nentropy = 0.3712\nsamples = 14\nvalue = [13, 1]"] ;
995 -> 997 ;
998 [label="var mag <= 5.5428\nentropy = 0.9183\nsamples = 3\nvalue = [2, 1]"] ;
997 -> 998 ;
999 [label="entropy = 0.0\nsamples = 1\nvalue = [0, 1]"] ;
998 -> 999 ;
1000 [label="entropy = 0.0\nsamples = 2\nvalue = [2, 0]"] ;
998 -> 1000 ;
1001 [label="entropy = 0.0\nsamples = 11\nvalue = [11, 0]"] ;
997 -> 1001 ;
1002 [label="min X <= -2.1879\nentropy = 0.971\nsamples = 5\nvalue = [2, 3]"] ;
990 -> 1002 ;
1003 [label="entropy = 0.0\nsamples = 3\nvalue = [0, 3]"] ;
1002 -> 1003 ;
1004 [label="entropy = 0.0\nsamples = 2\nvalue = [2, 0]"] ;
1002 -> 1004 ;
1005 [label="entropy = 0.0\nsamples = 2\nvalue = [0, 2]"] ;
989 -> 1005 ;
1006 [label="entropy = 0.0\nsamples = 4\nvalue = [0, 4]"] ;
988 -> 1006 ;
1007 [label="entropy = 0.0\nsamples = 29\nvalue = [29, 0]"] ;
987 -> 1007 ;
1008 [label="std mag <= 1.5318\nentropy = 0.1602\nsamples = 982\nvalue = [959, 23]"] ;
986 -> 1008 ;
1009 [label="std Y <= 1.9331\nentropy = 0.2778\nsamples = 375\nvalue = [357, 18]"] ;
1008 -> 1009 ;
1010 [label="max X <= 3.9192\nentropy = 0.2237\nsamples = 361\nvalue = [348, 13]"] ;
1009 -> 1010 ;
1011 [label="mean Y <= 0.1885\nentropy = 0.1549\nsamples = 312\nvalue = [305, 7]"] ;
1010 -> 1011 ;
1012 [label="mean X <= -1.8743\nentropy = 0.0436\nsamples = 210\nvalue = [209, 1]"] ;
1011 -> 1012 ;
1013 [label="entropy = 0.0\nsamples = 1\nvalue = [0, 1]"] ;
1012 -> 1013 ;
1014 [label="entropy = 0.0\nsamples = 209\nvalue = [209, 0]"] ;
1012 -> 1014 ;
1015 [label="min Z <= 8.0891\nentropy = 0.3228\nsamples = 102\nvalue = [96, 6]"] ;
1011 -> 1015 ;
1016 [label="var mag <= 1.1404\nentropy = 0.583\nsamples = 43\nvalue = [37, 6]"] ;
1015 -> 1016 ;
1017 [label="var X <= 0.6399\nentropy = 0.9183\nsamples = 3\nvalue = [1, 2]"] ;
1016 -> 1017 ;
1018 [label="entropy = 0.0\nsamples = 1\nvalue = [1, 0]"] ;
1017 -> 1018 ;
1019 [label="entropy = 0.0\nsamples = 2\nvalue = [0, 2]"] ;
1017 -> 1019 ;
1020 [label="min Y <= -0.8748\nentropy = 0.469\nsamples = 40\nvalue = [36, 4]"] ;
1016 -> 1020 ;
1021 [label="entropy = 0.0\nsamples = 30\nvalue = [30, 0]"] ;
1020 -> 1021 ;
1022 [label="std mag <= 1.5066\nentropy = 0.971\nsamples = 10\nvalue = [6, 4]"] ;
1020 -> 1022 ;
1023 [label="var Z <= 1.8192\nentropy = 0.8113\nsamples = 8\nvalue = [6, 2]"] ;
1022 -> 1023 ;
1024 [label="entropy <= -170.2148\nentropy = 0.9183\nsamples = 3\nvalue = [1, 2]"] ;
1023 -> 1024 ;
1025 [label="entropy = 0.0\nsamples = 1\nvalue = [1, 0]"] ;
1024 -> 1025 ;
1026 [label="entropy = 0.0\nsamples = 2\nvalue = [0, 2]"] ;
1024 -> 1026 ;
1027 [label="entropy = 0.0\nsamples = 5\nvalue = [5, 0]"] ;
1023 -> 1027 ;
1028 [label="entropy = 0.0\nsamples = 2\nvalue = [0, 2]"] ;
1022 -> 1028 ;
1029 [label="entropy = 0.0\nsamples = 59\nvalue = [59, 0]"] ;
1015 -> 1029 ;
1030 [label="std mag <= 1.3443\nentropy = 0.5364\nsamples = 49\nvalue = [43, 6]"] ;
1010 -> 1030 ;
1031 [label="std Z <= 1.3647\nentropy = 0.8813\nsamples = 20\nvalue = [14, 6]"] ;
1030 -> 1031 ;
1032 [label="var X <= 2.0393\nentropy = 0.7642\nsamples = 18\nvalue = [14, 4]"] ;
1031 -> 1032 ;
1033 [label="max Y <= 0.5483\nentropy = 0.7219\nsamples = 5\nvalue = [1, 4]"] ;
1032 -> 1033 ;
1034 [label="entropy = 0.0\nsamples = 1\nvalue = [1, 0]"] ;
1033 -> 1034 ;
1035 [label="entropy = 0.0\nsamples = 4\nvalue = [0, 4]"] ;
1033 -> 1035 ;
1036 [label="entropy = 0.0\nsamples = 13\nvalue = [13, 0]"] ;
1032 -> 1036 ;
1037 [label="entropy = 0.0\nsamples = 2\nvalue = [0, 2]"] ;
1031 -> 1037 ;
1038 [label="entropy = 0.0\nsamples = 29\nvalue = [29, 0]"] ;
1030 -> 1038 ;
1039 [label="var Y <= 4.0899\nentropy = 0.9403\nsamples = 14\nvalue = [9, 5]"] ;
1009 -> 1039 ;
1040 [label="entropy = 0.0\nsamples = 4\nvalue = [0, 4]"] ;
1039 -> 1040 ;
1041 [label="median X <= 1.1071\nentropy = 0.469\nsamples = 10\nvalue = [9, 1]"] ;
1039 -> 1041 ;
1042 [label="entropy = 0.0\nsamples = 8\nvalue = [8, 0]"] ;
1041 -> 1042 ;
1043 [label="mean Y <= 0.2224\nentropy = 1.0\nsamples = 2\nvalue = [1, 1]"] ;
1041 -> 1043 ;
1044 [label="entropy = 0.0\nsamples = 1\nvalue = [1, 0]"] ;
1043 -> 1044 ;
1045 [label="entropy = 0.0\nsamples = 1\nvalue = [0, 1]"] ;
1043 -> 1045 ;
1046 [label="max Y <= 5.05\nentropy = 0.0689\nsamples = 607\nvalue = [602, 5]"] ;
1008 -> 1046 ;
1047 [label="max X <= 4.2409\nentropy = 0.0345\nsamples = 553\nvalue = [551, 2]"] ;
1046 -> 1047 ;
1048 [label="entropy = 0.0\nsamples = 470\nvalue = [470, 0]"] ;
1047 -> 1048 ;
1049 [label="max mag <= 13.6819\nentropy = 0.1639\nsamples = 83\nvalue = [81, 2]"] ;
1047 -> 1049 ;
1050 [label="median Z <= 9.4052\nentropy = 0.8631\nsamples = 7\nvalue = [5, 2]"] ;
1049 -> 1050 ;
1051 [label="var mag <= 4.2097\nentropy = 0.9183\nsamples = 3\nvalue = [1, 2]"] ;
1050 -> 1051 ;
1052 [label="entropy = 0.0\nsamples = 2\nvalue = [0, 2]"] ;
1051 -> 1052 ;
1053 [label="entropy = 0.0\nsamples = 1\nvalue = [1, 0]"] ;
1051 -> 1053 ;
1054 [label="entropy = 0.0\nsamples = 4\nvalue = [4, 0]"] ;
1050 -> 1054 ;
1055 [label="entropy = 0.0\nsamples = 76\nvalue = [76, 0]"] ;
1049 -> 1055 ;
1056 [label="max Y <= 5.0573\nentropy = 0.3095\nsamples = 54\nvalue = [51, 3]"] ;
1046 -> 1056 ;
1057 [label="entropy = 0.0\nsamples = 1\nvalue = [0, 1]"] ;
1056 -> 1057 ;
1058 [label="mean X <= 1.9005\nentropy = 0.2318\nsamples = 53\nvalue = [51, 2]"] ;
1056 -> 1058 ;
1059 [label="mean Y <= -0.5258\nentropy = 0.1371\nsamples = 52\nvalue = [51, 1]"] ;
1058 -> 1059 ;
1060 [label="max X <= 3.6484\nentropy = 0.9183\nsamples = 3\nvalue = [2, 1]"] ;
1059 -> 1060 ;
1061 [label="entropy = 0.0\nsamples = 1\nvalue = [0, 1]"] ;
1060 -> 1061 ;
1062 [label="entropy = 0.0\nsamples = 2\nvalue = [2, 0]"] ;
1060 -> 1062 ;
1063 [label="entropy = 0.0\nsamples = 49\nvalue = [49, 0]"] ;
1059 -> 1063 ;
1064 [label="entropy = 0.0\nsamples = 1\nvalue = [0, 1]"] ;
1058 -> 1064 ;
1065 [label="var Y <= 1.9673\nentropy = 0.7919\nsamples = 42\nvalue = [32, 10]"] ;
985 -> 1065 ;
1066 [label="std Z <= 1.2354\nentropy = 0.5033\nsamples = 27\nvalue = [24, 3]"] ;
1065 -> 1066 ;
1067 [label="median Y <= 2.129\nentropy = 0.9852\nsamples = 7\nvalue = [4, 3]"] ;
1066 -> 1067 ;
1068 [label="var Y <= 0.2522\nentropy = 0.8113\nsamples = 4\nvalue = [1, 3]"] ;
1067 -> 1068 ;
1069 [label="entropy = 0.0\nsamples = 1\nvalue = [1, 0]"] ;
1068 -> 1069 ;
1070 [label="entropy = 0.0\nsamples = 3\nvalue = [0, 3]"] ;
1068 -> 1070 ;
1071 [label="entropy = 0.0\nsamples = 3\nvalue = [3, 0]"] ;
1067 -> 1071 ;
1072 [label="entropy = 0.0\nsamples = 20\nvalue = [20, 0]"] ;
1066 -> 1072 ;
1073 [label="mean Y <= 3.2268\nentropy = 0.9968\nsamples = 15\nvalue = [8, 7]"] ;
1065 -> 1073 ;
1074 [label="var mag <= 2.1916\nentropy = 0.8454\nsamples = 11\nvalue = [8, 3]"] ;
1073 -> 1074 ;
1075 [label="entropy = 0.0\nsamples = 2\nvalue = [0, 2]"] ;
1074 -> 1075 ;
1076 [label="min mag <= 4.8546\nentropy = 0.5033\nsamples = 9\nvalue = [8, 1]"] ;
1074 -> 1076 ;
1077 [label="entropy = 0.0\nsamples = 1\nvalue = [0, 1]"] ;
1076 -> 1077 ;
1078 [label="entropy = 0.0\nsamples = 8\nvalue = [8, 0]"] ;
1076 -> 1078 ;
1079 [label="entropy = 0.0\nsamples = 4\nvalue = [0, 4]"] ;
1073 -> 1079 ;
1080 [label="std X <= 5.7186\nentropy = 0.0673\nsamples = 2371\nvalue = [2352, 19]"] ;
984 -> 1080 ;
1081 [label="std mag <= 2.2168\nentropy = 0.0433\nsamples = 2326\nvalue = [2315, 11]"] ;
1080 -> 1081 ;
1082 [label="mean Z <= 9.1664\nentropy = 0.1703\nsamples = 316\nvalue = [308, 8]"] ;
1081 -> 1082 ;
1083 [label="var X <= 13.3078\nentropy = 0.7793\nsamples = 26\nvalue = [20, 6]"] ;
1082 -> 1083 ;
1084 [label="mean X <= 2.189\nentropy = 0.5586\nsamples = 23\nvalue = [20, 3]"] ;
1083 -> 1084 ;
1085 [label="std X <= 1.0121\nentropy = 0.2864\nsamples = 20\nvalue = [19, 1]"] ;
1084 -> 1085 ;
1086 [label="entropy = 0.0\nsamples = 1\nvalue = [0, 1]"] ;
1085 -> 1086 ;
1087 [label="entropy = 0.0\nsamples = 19\nvalue = [19, 0]"] ;
1085 -> 1087 ;
1088 [label="entropy <= -163.8453\nentropy = 0.9183\nsamples = 3\nvalue = [1, 2]"] ;
1084 -> 1088 ;
1089 [label="entropy = 0.0\nsamples = 1\nvalue = [1, 0]"] ;
1088 -> 1089 ;
1090 [label="entropy = 0.0\nsamples = 2\nvalue = [0, 2]"] ;
1088 -> 1090 ;
1091 [label="entropy = 0.0\nsamples = 3\nvalue = [0, 3]"] ;
1083 -> 1091 ;
1092 [label="var Z <= 2.8796\nentropy = 0.0594\nsamples = 290\nvalue = [288, 2]"] ;
1082 -> 1092 ;
1093 [label="var Z <= 2.8711\nentropy = 0.1959\nsamples = 66\nvalue = [64, 2]"] ;
1092 -> 1093 ;
1094 [label="max X <= 0.3254\nentropy = 0.1147\nsamples = 65\nvalue = [64, 1]"] ;
1093 -> 1094 ;
1095 [label="std Z <= 1.584\nentropy = 0.7219\nsamples = 5\nvalue = [4, 1]"] ;
1094 -> 1095 ;
1096 [label="entropy = 0.0\nsamples = 4\nvalue = [4, 0]"] ;
1095 -> 1096 ;
1097 [label="entropy = 0.0\nsamples = 1\nvalue = [0, 1]"] ;
1095 -> 1097 ;
1098 [label="entropy = 0.0\nsamples = 60\nvalue = [60, 0]"] ;
1094 -> 1098 ;
1099 [label="entropy = 0.0\nsamples = 1\nvalue = [0, 1]"] ;
1093 -> 1099 ;
1100 [label="entropy = 0.0\nsamples = 224\nvalue = [224, 0]"] ;
1092 -> 1100 ;
1101 [label="mean Y <= 0.8694\nentropy = 0.0162\nsamples = 2010\nvalue = [2007, 3]"] ;
1081 -> 1101 ;
1102 [label="mean X <= 5.3185\nentropy = 0.0068\nsamples = 1808\nvalue = [1807, 1]"] ;
1101 -> 1102 ;
1103 [label="entropy = 0.0\nsamples = 1783\nvalue = [1783, 0]"] ;
1102 -> 1103 ;
1104 [label="median Y <= -1.0623\nentropy = 0.2423\nsamples = 25\nvalue = [24, 1]"] ;
1102 -> 1104 ;
1105 [label="entropy = 0.0\nsamples = 24\nvalue = [24, 0]"] ;
1104 -> 1105 ;
1106 [label="entropy = 0.0\nsamples = 1\nvalue = [0, 1]"] ;
1104 -> 1106 ;
1107 [label="entropy <= -167.1443\nentropy = 0.0801\nsamples = 202\nvalue = [200, 2]"] ;
1101 -> 1107 ;
1108 [label="max Z <= 18.808\nentropy = 0.4855\nsamples = 19\nvalue = [17, 2]"] ;
1107 -> 1108 ;
1109 [label="entropy = 0.0\nsamples = 16\nvalue = [16, 0]"] ;
1108 -> 1109 ;
1110 [label="min mag <= 4.7701\nentropy = 0.9183\nsamples = 3\nvalue = [1, 2]"] ;
1108 -> 1110 ;
1111 [label="entropy = 0.0\nsamples = 2\nvalue = [0, 2]"] ;
1110 -> 1111 ;
1112 [label="entropy = 0.0\nsamples = 1\nvalue = [1, 0]"] ;
1110 -> 1112 ;
1113 [label="entropy = 0.0\nsamples = 183\nvalue = [183, 0]"] ;
1107 -> 1113 ;
1114 [label="max mag <= 21.2058\nentropy = 0.6752\nsamples = 45\nvalue = [37, 8]"] ;
1080 -> 1114 ;
1115 [label="mean Y <= -0.0974\nentropy = 0.9612\nsamples = 13\nvalue = [5, 8]"] ;
1114 -> 1115 ;
1116 [label="entropy = 0.0\nsamples = 6\nvalue = [0, 6]"] ;
1115 -> 1116 ;
1117 [label="var mag <= 8.2707\nentropy = 0.8631\nsamples = 7\nvalue = [5, 2]"] ;
1115 -> 1117 ;
1118 [label="entropy = 0.0\nsamples = 5\nvalue = [5, 0]"] ;
1117 -> 1118 ;
1119 [label="entropy = 0.0\nsamples = 2\nvalue = [0, 2]"] ;
1117 -> 1119 ;
1120 [label="entropy = 0.0\nsamples = 32\nvalue = [32, 0]"] ;
1114 -> 1120 ;
}