digraph Tree {
node [shape=box] ;
0 [label="min Z <= 8.38\nentropy = 0.9041\nsamples = 14346\nvalue = [4587, 9759]"] ;
1 [label="max Z <= 11.8876\nentropy = 0.7522\nsamples = 5202\nvalue = [4080, 1122]"] ;
0 -> 1 [labeldistance=2.5, labelangle=45, headlabel="True"] ;
2 [label="var Y <= 0.467\nentropy = 0.9955\nsamples = 1932\nvalue = [890, 1042]"] ;
1 -> 2 ;
3 [label="magnitude 3 <= 11.0601\nentropy = 0.728\nsamples = 655\nvalue = [133, 522]"] ;
2 -> 3 ;
4 [label="magnitude 15 <= 10.5841\nentropy = 0.6968\nsamples = 639\nvalue = [120, 519]"] ;
3 -> 4 ;
5 [label="magnitude 17 <= 9.6841\nentropy = 0.6454\nsamples = 589\nvalue = [97, 492]"] ;
4 -> 5 ;
6 [label="min Y <= 5.3018\nentropy = 0.8498\nsamples = 203\nvalue = [56, 147]"] ;
5 -> 6 ;
7 [label="var X <= 0.0083\nentropy = 0.6637\nsamples = 168\nvalue = [29, 139]"] ;
6 -> 7 ;
8 [label="entropy = 0.0\nsamples = 6\nvalue = [6, 0]"] ;
7 -> 8 ;
9 [label="std Z <= 0.793\nentropy = 0.5894\nsamples = 162\nvalue = [23, 139]"] ;
7 -> 9 ;
10 [label="max X <= 8.5828\nentropy = 0.4481\nsamples = 139\nvalue = [13, 126]"] ;
9 -> 10 ;
11 [label="magnitude 14 <= 9.974\nentropy = 0.4032\nsamples = 137\nvalue = [11, 126]"] ;
10 -> 11 ;
12 [label="median Z <= 8.5516\nentropy = 0.2515\nsamples = 119\nvalue = [5, 114]"] ;
11 -> 12 ;
13 [label="mean Z <= 8.5006\nentropy = 0.4567\nsamples = 52\nvalue = [5, 47]"] ;
12 -> 13 ;
14 [label="min Z <= 6.3716\nentropy = 0.246\nsamples = 49\nvalue = [2, 47]"] ;
13 -> 14 ;
15 [label="entropy = 0.0\nsamples = 27\nvalue = [0, 27]"] ;
14 -> 15 ;
16 [label="magnitude 7 <= 9.679\nentropy = 0.4395\nsamples = 22\nvalue = [2, 20]"] ;
14 -> 16 ;
17 [label="entropy = 0.0\nsamples = 16\nvalue = [0, 16]"] ;
16 -> 17 ;
18 [label="var Z <= 0.1156\nentropy = 0.9183\nsamples = 6\nvalue = [2, 4]"] ;
16 -> 18 ;
19 [label="entropy = 0.0\nsamples = 4\nvalue = [0, 4]"] ;
18 -> 19 ;
20 [label="entropy = 0.0\nsamples = 2\nvalue = [2, 0]"] ;
18 -> 20 ;
21 [label="entropy = 0.0\nsamples = 3\nvalue = [3, 0]"] ;
13 -> 21 ;
22 [label="entropy = 0.0\nsamples = 67\nvalue = [0, 67]"] ;
12 -> 22 ;
23 [label="magnitude 16 <= 9.6673\nentropy = 0.9183\nsamples = 18\nvalue = [6, 12]"] ;
11 -> 23 ;
24 [label="magnitude 3 <= 9.5879\nentropy = 0.9544\nsamples = 8\nvalue = [5, 3]"] ;
23 -> 24 ;
25 [label="entropy = 0.0\nsamples = 3\nvalue = [0, 3]"] ;
24 -> 25 ;
26 [label="entropy = 0.0\nsamples = 5\nvalue = [5, 0]"] ;
24 -> 26 ;
27 [label="magnitude 18 <= 8.8282\nentropy = 0.469\nsamples = 10\nvalue = [1, 9]"] ;
23 -> 27 ;
28 [label="entropy = 0.0\nsamples = 1\nvalue = [1, 0]"] ;
27 -> 28 ;
29 [label="entropy = 0.0\nsamples = 9\nvalue = [0, 9]"] ;
27 -> 29 ;
30 [label="entropy = 0.0\nsamples = 2\nvalue = [2, 0]"] ;
10 -> 30 ;
31 [label="magnitude 16 <= 9.5418\nentropy = 0.9877\nsamples = 23\nvalue = [10, 13]"] ;
9 -> 31 ;
32 [label="magnitude 1 <= 9.9857\nentropy = 0.684\nsamples = 11\nvalue = [2, 9]"] ;
31 -> 32 ;
33 [label="entropy = 0.0\nsamples = 8\nvalue = [0, 8]"] ;
32 -> 33 ;
34 [label="median Y <= 4.4439\nentropy = 0.9183\nsamples = 3\nvalue = [2, 1]"] ;
32 -> 34 ;
35 [label="entropy = 0.0\nsamples = 2\nvalue = [2, 0]"] ;
34 -> 35 ;
36 [label="entropy = 0.0\nsamples = 1\nvalue = [0, 1]"] ;
34 -> 36 ;
37 [label="magnitude 9 <= 11.5903\nentropy = 0.9183\nsamples = 12\nvalue = [8, 4]"] ;
31 -> 37 ;
38 [label="magnitude 1 <= 9.3612\nentropy = 0.7219\nsamples = 10\nvalue = [8, 2]"] ;
37 -> 38 ;
39 [label="entropy = 0.0\nsamples = 5\nvalue = [5, 0]"] ;
38 -> 39 ;
40 [label="magnitude 16 <= 10.0614\nentropy = 0.971\nsamples = 5\nvalue = [3, 2]"] ;
38 -> 40 ;
41 [label="max Z <= 7.512\nentropy = 0.8113\nsamples = 4\nvalue = [3, 1]"] ;
40 -> 41 ;
42 [label="entropy = 0.0\nsamples = 2\nvalue = [2, 0]"] ;
41 -> 42 ;
43 [label="magnitude 7 <= 10.1067\nentropy = 1.0\nsamples = 2\nvalue = [1, 1]"] ;
41 -> 43 ;
44 [label="entropy = 0.0\nsamples = 1\nvalue = [0, 1]"] ;
43 -> 44 ;
45 [label="entropy = 0.0\nsamples = 1\nvalue = [1, 0]"] ;
43 -> 45 ;
46 [label="entropy = 0.0\nsamples = 1\nvalue = [0, 1]"] ;
40 -> 46 ;
47 [label="entropy = 0.0\nsamples = 2\nvalue = [0, 2]"] ;
37 -> 47 ;
48 [label="magnitude 8 <= 9.5272\nentropy = 0.7755\nsamples = 35\nvalue = [27, 8]"] ;
6 -> 48 ;
49 [label="magnitude 12 <= 9.371\nentropy = 0.9957\nsamples = 13\nvalue = [7, 6]"] ;
48 -> 49 ;
50 [label="entropy = 0.0\nsamples = 3\nvalue = [3, 0]"] ;
49 -> 50 ;
51 [label="median X <= 1.7435\nentropy = 0.971\nsamples = 10\nvalue = [4, 6]"] ;
49 -> 51 ;
52 [label="var X <= 0.0025\nentropy = 0.8113\nsamples = 8\nvalue = [2, 6]"] ;
51 -> 52 ;
53 [label="entropy = 0.0\nsamples = 2\nvalue = [2, 0]"] ;
52 -> 53 ;
54 [label="entropy = 0.0\nsamples = 6\nvalue = [0, 6]"] ;
52 -> 54 ;
55 [label="entropy = 0.0\nsamples = 2\nvalue = [2, 0]"] ;
51 -> 55 ;
56 [label="magnitude 11 <= 9.4903\nentropy = 0.4395\nsamples = 22\nvalue = [20, 2]"] ;
48 -> 56 ;
57 [label="magnitude 4 <= 9.399\nentropy = 1.0\nsamples = 4\nvalue = [2, 2]"] ;
56 -> 57 ;
58 [label="entropy = 0.0\nsamples = 2\nvalue = [2, 0]"] ;
57 -> 58 ;
59 [label="entropy = 0.0\nsamples = 2\nvalue = [0, 2]"] ;
57 -> 59 ;
60 [label="entropy = 0.0\nsamples = 18\nvalue = [18, 0]"] ;
56 -> 60 ;
61 [label="magnitude 6 <= 9.3256\nentropy = 0.4884\nsamples = 386\nvalue = [41, 345]"] ;
5 -> 61 ;
62 [label="magnitude 11 <= 9.6511\nentropy = 0.9911\nsamples = 18\nvalue = [8, 10]"] ;
61 -> 62 ;
63 [label="entropy = 0.0\nsamples = 6\nvalue = [0, 6]"] ;
62 -> 63 ;
64 [label="median Z <= 7.986\nentropy = 0.9183\nsamples = 12\nvalue = [8, 4]"] ;
62 -> 64 ;
65 [label="entropy = 0.0\nsamples = 5\nvalue = [5, 0]"] ;
64 -> 65 ;
66 [label="min Y <= -3.1437\nentropy = 0.9852\nsamples = 7\nvalue = [3, 4]"] ;
64 -> 66 ;
67 [label="entropy = 0.0\nsamples = 3\nvalue = [0, 3]"] ;
66 -> 67 ;
68 [label="std Y <= 0.6009\nentropy = 0.8113\nsamples = 4\nvalue = [3, 1]"] ;
66 -> 68 ;
69 [label="entropy = 0.0\nsamples = 3\nvalue = [3, 0]"] ;
68 -> 69 ;
70 [label="entropy = 0.0\nsamples = 1\nvalue = [0, 1]"] ;
68 -> 70 ;
71 [label="mean X <= 4.1993\nentropy = 0.4354\nsamples = 368\nvalue = [33, 335]"] ;
61 -> 71 ;
72 [label="var Y <= 0.0031\nentropy = 0.5369\nsamples = 212\nvalue = [26, 186]"] ;
71 -> 72 ;
73 [label="magnitude 11 <= 10.2171\nentropy = 0.8113\nsamples = 4\nvalue = [3, 1]"] ;
72 -> 73 ;
74 [label="entropy = 0.0\nsamples = 3\nvalue = [3, 0]"] ;
73 -> 74 ;
75 [label="entropy = 0.0\nsamples = 1\nvalue = [0, 1]"] ;
73 -> 75 ;
76 [label="var Z <= 0.6385\nentropy = 0.5017\nsamples = 208\nvalue = [23, 185]"] ;
72 -> 76 ;
77 [label="magnitude 15 <= 9.5988\nentropy = 0.4457\nsamples = 194\nvalue = [18, 176]"] ;
76 -> 77 ;
78 [label="entropy = 0.0\nsamples = 28\nvalue = [0, 28]"] ;
77 -> 78 ;
79 [label="magnitude 8 <= 9.5369\nentropy = 0.4952\nsamples = 166\nvalue = [18, 148]"] ;
77 -> 79 ;
80 [label="mean X <= 0.8794\nentropy = 0.971\nsamples = 15\nvalue = [6, 9]"] ;
79 -> 80 ;
81 [label="max Z <= 5.1797\nentropy = 0.684\nsamples = 11\nvalue = [2, 9]"] ;
80 -> 81 ;
82 [label="magnitude 16 <= 9.7903\nentropy = 1.0\nsamples = 4\nvalue = [2, 2]"] ;
81 -> 82 ;
83 [label="entropy = 0.0\nsamples = 2\nvalue = [0, 2]"] ;
82 -> 83 ;
84 [label="entropy = 0.0\nsamples = 2\nvalue = [2, 0]"] ;
82 -> 84 ;
85 [label="entropy = 0.0\nsamples = 7\nvalue = [0, 7]"] ;
81 -> 85 ;
86 [label="entropy = 0.0\nsamples = 4\nvalue = [4, 0]"] ;
80 -> 86 ;
87 [label="magnitude 18 <= 10.2449\nentropy = 0.4003\nsamples = 151\nvalue = [12, 139]"] ;
79 -> 87 ;
88 [label="min Y <= -8.0595\nentropy = 0.2479\nsamples = 97\nvalue = [4, 93]"] ;
87 -> 88 ;
89 [label="entropy = 0.0\nsamples = 1\nvalue = [1, 0]"] ;
88 -> 89 ;
90 [label="mean Z <= 1.0423\nentropy = 0.2006\nsamples = 96\nvalue = [3, 93]"] ;
88 -> 90 ;
91 [label="min Z <= 0.6788\nentropy = 0.9183\nsamples = 3\nvalue = [1, 2]"] ;
90 -> 91 ;
92 [label="entropy = 0.0\nsamples = 2\nvalue = [0, 2]"] ;
91 -> 92 ;
93 [label="entropy = 0.0\nsamples = 1\nvalue = [1, 0]"] ;
91 -> 93 ;
94 [label="magnitude 16 <= 10.0469\nentropy = 0.1498\nsamples = 93\nvalue = [2, 91]"] ;
90 -> 94 ;
95 [label="entropy = 0.0\nsamples = 58\nvalue = [0, 58]"] ;
94 -> 95 ;
96 [label="median X <= 2.1471\nentropy = 0.316\nsamples = 35\nvalue = [2, 33]"] ;
94 -> 96 ;
97 [label="entropy = 0.0\nsamples = 28\nvalue = [0, 28]"] ;
96 -> 97 ;
98 [label="min Z <= 8.217\nentropy = 0.8631\nsamples = 7\nvalue = [2, 5]"] ;
96 -> 98 ;
99 [label="entropy = 0.0\nsamples = 4\nvalue = [0, 4]"] ;
98 -> 99 ;
100 [label="magnitude 11 <= 10.2018\nentropy = 0.9183\nsamples = 3\nvalue = [2, 1]"] ;
98 -> 100 ;
101 [label="entropy = 0.0\nsamples = 2\nvalue = [2, 0]"] ;
100 -> 101 ;
102 [label="entropy = 0.0\nsamples = 1\nvalue = [0, 1]"] ;
100 -> 102 ;
103 [label="var Y <= 0.1615\nentropy = 0.6052\nsamples = 54\nvalue = [8, 46]"] ;
87 -> 103 ;
104 [label="magnitude 1 <= 10.411\nentropy = 0.8113\nsamples = 32\nvalue = [8, 24]"] ;
103 -> 104 ;
105 [label="std Y <= 0.2112\nentropy = 0.8905\nsamples = 26\nvalue = [8, 18]"] ;
104 -> 105 ;
106 [label="entropy = 0.0\nsamples = 7\nvalue = [0, 7]"] ;
105 -> 106 ;
107 [label="mean X <= -3.6528\nentropy = 0.9819\nsamples = 19\nvalue = [8, 11]"] ;
105 -> 107 ;
108 [label="entropy = 0.0\nsamples = 4\nvalue = [4, 0]"] ;
107 -> 108 ;
109 [label="magnitude 6 <= 10.1445\nentropy = 0.8366\nsamples = 15\nvalue = [4, 11]"] ;
107 -> 109 ;
110 [label="magnitude 18 <= 10.4333\nentropy = 0.9852\nsamples = 7\nvalue = [4, 3]"] ;
109 -> 110 ;
111 [label="entropy = 0.0\nsamples = 4\nvalue = [4, 0]"] ;
110 -> 111 ;
112 [label="entropy = 0.0\nsamples = 3\nvalue = [0, 3]"] ;
110 -> 112 ;
113 [label="entropy = 0.0\nsamples = 8\nvalue = [0, 8]"] ;
109 -> 113 ;
114 [label="entropy = 0.0\nsamples = 6\nvalue = [0, 6]"] ;
104 -> 114 ;
115 [label="entropy = 0.0\nsamples = 22\nvalue = [0, 22]"] ;
103 -> 115 ;
116 [label="magnitude 17 <= 9.8081\nentropy = 0.9403\nsamples = 14\nvalue = [5, 9]"] ;
76 -> 116 ;
117 [label="entropy = 0.0\nsamples = 4\nvalue = [0, 4]"] ;
116 -> 117 ;
118 [label="magnitude 11 <= 9.7347\nentropy = 1.0\nsamples = 10\nvalue = [5, 5]"] ;
116 -> 118 ;
119 [label="entropy = 0.0\nsamples = 4\nvalue = [4, 0]"] ;
118 -> 119 ;
120 [label="mean Y <= 1.1905\nentropy = 0.65\nsamples = 6\nvalue = [1, 5]"] ;
118 -> 120 ;
121 [label="entropy = 0.0\nsamples = 4\nvalue = [0, 4]"] ;
120 -> 121 ;
122 [label="magnitude 7 <= 9.9074\nentropy = 1.0\nsamples = 2\nvalue = [1, 1]"] ;
120 -> 122 ;
123 [label="entropy = 0.0\nsamples = 1\nvalue = [1, 0]"] ;
122 -> 123 ;
124 [label="entropy = 0.0\nsamples = 1\nvalue = [0, 1]"] ;
122 -> 124 ;
125 [label="magnitude 7 <= 11.1749\nentropy = 0.2642\nsamples = 156\nvalue = [7, 149]"] ;
71 -> 125 ;
126 [label="median Y <= 0.0573\nentropy = 0.2066\nsamples = 154\nvalue = [5, 149]"] ;
125 -> 126 ;
127 [label="entropy = 0.0\nsamples = 84\nvalue = [0, 84]"] ;
126 -> 127 ;
128 [label="magnitude 5 <= 9.9724\nentropy = 0.3712\nsamples = 70\nvalue = [5, 65]"] ;
126 -> 128 ;
129 [label="magnitude 19 <= 9.9292\nentropy = 0.65\nsamples = 30\nvalue = [5, 25]"] ;
128 -> 129 ;
130 [label="magnitude 14 <= 9.6788\nentropy = 0.7919\nsamples = 21\nvalue = [5, 16]"] ;
129 -> 130 ;
131 [label="entropy = 0.0\nsamples = 10\nvalue = [0, 10]"] ;
130 -> 131 ;
132 [label="min Y <= 0.1824\nentropy = 0.994\nsamples = 11\nvalue = [5, 6]"] ;
130 -> 132 ;
133 [label="entropy = 0.0\nsamples = 4\nvalue = [4, 0]"] ;
132 -> 133 ;
134 [label="max Z <= 4.8746\nentropy = 0.5917\nsamples = 7\nvalue = [1, 6]"] ;
132 -> 134 ;
135 [label="entropy = 0.0\nsamples = 1\nvalue = [1, 0]"] ;
134 -> 135 ;
136 [label="entropy = 0.0\nsamples = 6\nvalue = [0, 6]"] ;
134 -> 136 ;
137 [label="entropy = 0.0\nsamples = 9\nvalue = [0, 9]"] ;
129 -> 137 ;
138 [label="entropy = 0.0\nsamples = 40\nvalue = [0, 40]"] ;
128 -> 138 ;
139 [label="entropy = 0.0\nsamples = 2\nvalue = [2, 0]"] ;
125 -> 139 ;
140 [label="median Y <= 3.5232\nentropy = 0.9954\nsamples = 50\nvalue = [23, 27]"] ;
4 -> 140 ;
141 [label="min X <= -6.3653\nentropy = 0.8631\nsamples = 35\nvalue = [10, 25]"] ;
140 -> 141 ;
142 [label="min Z <= 0.188\nentropy = 0.65\nsamples = 6\nvalue = [5, 1]"] ;
141 -> 142 ;
143 [label="entropy = 0.0\nsamples = 1\nvalue = [0, 1]"] ;
142 -> 143 ;
144 [label="entropy = 0.0\nsamples = 5\nvalue = [5, 0]"] ;
142 -> 144 ;
145 [label="magnitude 10 <= 9.0784\nentropy = 0.6632\nsamples = 29\nvalue = [5, 24]"] ;
141 -> 145 ;
146 [label="min Y <= -1.1465\nentropy = 0.8113\nsamples = 4\nvalue = [3, 1]"] ;
145 -> 146 ;
147 [label="entropy = 0.0\nsamples = 3\nvalue = [3, 0]"] ;
146 -> 147 ;
148 [label="entropy = 0.0\nsamples = 1\nvalue = [0, 1]"] ;
146 -> 148 ;
149 [label="min Y <= -0.7972\nentropy = 0.4022\nsamples = 25\nvalue = [2, 23]"] ;
145 -> 149 ;
150 [label="std Z <= 0.7844\nentropy = 0.65\nsamples = 12\nvalue = [2, 10]"] ;
149 -> 150 ;
151 [label="entropy = 0.0\nsamples = 8\nvalue = [0, 8]"] ;
150 -> 151 ;
152 [label="magnitude 19 <= 9.9089\nentropy = 1.0\nsamples = 4\nvalue = [2, 2]"] ;
150 -> 152 ;
153 [label="entropy = 0.0\nsamples = 2\nvalue = [2, 0]"] ;
152 -> 153 ;
154 [label="entropy = 0.0\nsamples = 2\nvalue = [0, 2]"] ;
152 -> 154 ;
155 [label="entropy = 0.0\nsamples = 13\nvalue = [0, 13]"] ;
149 -> 155 ;
156 [label="magnitude 0 <= 10.2036\nentropy = 0.5665\nsamples = 15\nvalue = [13, 2]"] ;
140 -> 156 ;
157 [label="magnitude 13 <= 11.0239\nentropy = 0.971\nsamples = 5\nvalue = [3, 2]"] ;
156 -> 157 ;
158 [label="max Z <= 6.6337\nentropy = 0.9183\nsamples = 3\nvalue = [1, 2]"] ;
157 -> 158 ;
159 [label="entropy = 0.0\nsamples = 1\nvalue = [1, 0]"] ;
158 -> 159 ;
160 [label="entropy = 0.0\nsamples = 2\nvalue = [0, 2]"] ;
158 -> 160 ;
161 [label="entropy = 0.0\nsamples = 2\nvalue = [2, 0]"] ;
157 -> 161 ;
162 [label="entropy = 0.0\nsamples = 10\nvalue = [10, 0]"] ;
156 -> 162 ;
163 [label="magnitude 5 <= 10.6966\nentropy = 0.6962\nsamples = 16\nvalue = [13, 3]"] ;
3 -> 163 ;
164 [label="var Z <= 1.3354\nentropy = 1.0\nsamples = 6\nvalue = [3, 3]"] ;
163 -> 164 ;
165 [label="entropy = 0.0\nsamples = 3\nvalue = [0, 3]"] ;
164 -> 165 ;
166 [label="entropy = 0.0\nsamples = 3\nvalue = [3, 0]"] ;
164 -> 166 ;
167 [label="entropy = 0.0\nsamples = 10\nvalue = [10, 0]"] ;
163 -> 167 ;
168 [label="magnitude 10 <= 11.5128\nentropy = 0.975\nsamples = 1277\nvalue = [757, 520]"] ;
2 -> 168 ;
169 [label="magnitude 12 <= 9.2168\nentropy = 0.9986\nsamples = 1058\nvalue = [552, 506]"] ;
168 -> 169 ;
170 [label="min Z <= 5.9832\nentropy = 0.8129\nsamples = 247\nvalue = [185, 62]"] ;
169 -> 170 ;
171 [label="magnitude 19 <= 10.222\nentropy = 0.6905\nsamples = 211\nvalue = [172, 39]"] ;
170 -> 171 ;
172 [label="magnitude 8 <= 9.0356\nentropy = 0.8412\nsamples = 126\nvalue = [92, 34]"] ;
171 -> 172 ;
173 [label="entropy = 0.0\nsamples = 24\nvalue = [24, 0]"] ;
172 -> 173 ;
174 [label="magnitude 4 <= 10.8237\nentropy = 0.9183\nsamples = 102\nvalue = [68, 34]"] ;
172 -> 174 ;
175 [label="magnitude 11 <= 9.6025\nentropy = 0.9906\nsamples = 70\nvalue = [39, 31]"] ;
174 -> 175 ;
176 [label="max Y <= -1.3306\nentropy = 0.4537\nsamples = 21\nvalue = [2, 19]"] ;
175 -> 176 ;
177 [label="var Y <= 0.7655\nentropy = 0.9183\nsamples = 3\nvalue = [2, 1]"] ;
176 -> 177 ;
178 [label="entropy = 0.0\nsamples = 1\nvalue = [0, 1]"] ;
177 -> 178 ;
179 [label="entropy = 0.0\nsamples = 2\nvalue = [2, 0]"] ;
177 -> 179 ;
180 [label="entropy = 0.0\nsamples = 18\nvalue = [0, 18]"] ;
176 -> 180 ;
181 [label="magnitude 8 <= 11.1935\nentropy = 0.8031\nsamples = 49\nvalue = [37, 12]"] ;
175 -> 181 ;
182 [label="magnitude 10 <= 9.4289\nentropy = 0.8997\nsamples = 38\nvalue = [26, 12]"] ;
181 -> 182 ;
183 [label="var X <= 18.2728\nentropy = 0.469\nsamples = 20\nvalue = [18, 2]"] ;
182 -> 183 ;
184 [label="entropy = 0.0\nsamples = 2\nvalue = [0, 2]"] ;
183 -> 184 ;
185 [label="entropy = 0.0\nsamples = 18\nvalue = [18, 0]"] ;
183 -> 185 ;
186 [label="min Y <= -1.8776\nentropy = 0.9911\nsamples = 18\nvalue = [8, 10]"] ;
182 -> 186 ;
187 [label="median X <= 1.711\nentropy = 0.9968\nsamples = 15\nvalue = [8, 7]"] ;
186 -> 187 ;
188 [label="magnitude 6 <= 9.4013\nentropy = 0.9799\nsamples = 12\nvalue = [5, 7]"] ;
187 -> 188 ;
189 [label="entropy = 0.0\nsamples = 3\nvalue = [3, 0]"] ;
188 -> 189 ;
190 [label="magnitude 14 <= 10.9231\nentropy = 0.7642\nsamples = 9\nvalue = [2, 7]"] ;
188 -> 190 ;
191 [label="magnitude 4 <= 8.4122\nentropy = 0.5436\nsamples = 8\nvalue = [1, 7]"] ;
190 -> 191 ;
192 [label="entropy = 0.0\nsamples = 1\nvalue = [1, 0]"] ;
191 -> 192 ;
193 [label="entropy = 0.0\nsamples = 7\nvalue = [0, 7]"] ;
191 -> 193 ;
194 [label="entropy = 0.0\nsamples = 1\nvalue = [1, 0]"] ;
190 -> 194 ;
195 [label="entropy = 0.0\nsamples = 3\nvalue = [3, 0]"] ;
187 -> 195 ;
196 [label="entropy = 0.0\nsamples = 3\nvalue = [0, 3]"] ;
186 -> 196 ;
197 [label="entropy = 0.0\nsamples = 11\nvalue = [11, 0]"] ;
181 -> 197 ;
198 [label="magnitude 14 <= 9.9368\nentropy = 0.4489\nsamples = 32\nvalue = [29, 3]"] ;
174 -> 198 ;
199 [label="entropy = 0.0\nsamples = 26\nvalue = [26, 0]"] ;
198 -> 199 ;
200 [label="var X <= 90.8275\nentropy = 1.0\nsamples = 6\nvalue = [3, 3]"] ;
198 -> 200 ;
201 [label="magnitude 13 <= 12.0496\nentropy = 0.8113\nsamples = 4\nvalue = [3, 1]"] ;
200 -> 201 ;
202 [label="entropy = 0.0\nsamples = 3\nvalue = [3, 0]"] ;
201 -> 202 ;
203 [label="entropy = 0.0\nsamples = 1\nvalue = [0, 1]"] ;
201 -> 203 ;
204 [label="entropy = 0.0\nsamples = 2\nvalue = [0, 2]"] ;
200 -> 204 ;
205 [label="var Z <= 2.2893\nentropy = 0.3228\nsamples = 85\nvalue = [80, 5]"] ;
171 -> 205 ;
206 [label="magnitude 13 <= 9.1113\nentropy = 0.4567\nsamples = 52\nvalue = [47, 5]"] ;
205 -> 206 ;
207 [label="entropy = 0.0\nsamples = 27\nvalue = [27, 0]"] ;
206 -> 207 ;
208 [label="magnitude 1 <= 10.0746\nentropy = 0.7219\nsamples = 25\nvalue = [20, 5]"] ;
206 -> 208 ;
209 [label="magnitude 10 <= 9.581\nentropy = 0.9799\nsamples = 12\nvalue = [7, 5]"] ;
208 -> 209 ;
210 [label="median X <= -3.4737\nentropy = 0.7642\nsamples = 9\nvalue = [7, 2]"] ;
209 -> 210 ;
211 [label="entropy = 0.0\nsamples = 6\nvalue = [6, 0]"] ;
210 -> 211 ;
212 [label="magnitude 4 <= 11.8812\nentropy = 0.9183\nsamples = 3\nvalue = [1, 2]"] ;
210 -> 212 ;
213 [label="entropy = 0.0\nsamples = 2\nvalue = [0, 2]"] ;
212 -> 213 ;
214 [label="entropy = 0.0\nsamples = 1\nvalue = [1, 0]"] ;
212 -> 214 ;
215 [label="entropy = 0.0\nsamples = 3\nvalue = [0, 3]"] ;
209 -> 215 ;
216 [label="entropy = 0.0\nsamples = 13\nvalue = [13, 0]"] ;
208 -> 216 ;
217 [label="entropy = 0.0\nsamples = 33\nvalue = [33, 0]"] ;
205 -> 217 ;
218 [label="var Z <= 0.9516\nentropy = 0.9436\nsamples = 36\nvalue = [13, 23]"] ;
170 -> 218 ;
219 [label="magnitude 12 <= 9.1564\nentropy = 0.469\nsamples = 20\nvalue = [2, 18]"] ;
218 -> 219 ;
220 [label="entropy = 0.0\nsamples = 16\nvalue = [0, 16]"] ;
219 -> 220 ;
221 [label="std Y <= 0.9064\nentropy = 1.0\nsamples = 4\nvalue = [2, 2]"] ;
219 -> 221 ;
222 [label="entropy = 0.0\nsamples = 2\nvalue = [2, 0]"] ;
221 -> 222 ;
223 [label="entropy = 0.0\nsamples = 2\nvalue = [0, 2]"] ;
221 -> 223 ;
224 [label="magnitude 8 <= 10.7744\nentropy = 0.896\nsamples = 16\nvalue = [11, 5]"] ;
218 -> 224 ;
225 [label="median Z <= 9.2584\nentropy = 1.0\nsamples = 10\nvalue = [5, 5]"] ;
224 -> 225 ;
226 [label="magnitude 17 <= 11.6658\nentropy = 0.65\nsamples = 6\nvalue = [5, 1]"] ;
225 -> 226 ;
227 [label="entropy = 0.0\nsamples = 5\nvalue = [5, 0]"] ;
226 -> 227 ;
228 [label="entropy = 0.0\nsamples = 1\nvalue = [0, 1]"] ;
226 -> 228 ;
229 [label="entropy = 0.0\nsamples = 4\nvalue = [0, 4]"] ;
225 -> 229 ;
230 [label="entropy = 0.0\nsamples = 6\nvalue = [6, 0]"] ;
224 -> 230 ;
231 [label="var X <= 67.7058\nentropy = 0.9935\nsamples = 811\nvalue = [367, 444]"] ;
169 -> 231 ;
232 [label="std Z <= 0.7739\nentropy = 0.9986\nsamples = 448\nvalue = [234, 214]"] ;
231 -> 232 ;
233 [label="magnitude 19 <= 10.6869\nentropy = 0.8261\nsamples = 131\nvalue = [34, 97]"] ;
232 -> 233 ;
234 [label="magnitude 19 <= 8.6174\nentropy = 0.7185\nsamples = 116\nvalue = [23, 93]"] ;
233 -> 234 ;
235 [label="entropy = 0.0\nsamples = 5\nvalue = [5, 0]"] ;
234 -> 235 ;
236 [label="magnitude 1 <= 10.9252\nentropy = 0.6395\nsamples = 111\nvalue = [18, 93]"] ;
234 -> 236 ;
237 [label="median Z <= 4.9595\nentropy = 0.5597\nsamples = 107\nvalue = [14, 93]"] ;
236 -> 237 ;
238 [label="magnitude 5 <= 9.6119\nentropy = 0.9403\nsamples = 14\nvalue = [9, 5]"] ;
237 -> 238 ;
239 [label="magnitude 14 <= 10.7259\nentropy = 0.7219\nsamples = 5\nvalue = [1, 4]"] ;
238 -> 239 ;
240 [label="entropy = 0.0\nsamples = 4\nvalue = [0, 4]"] ;
239 -> 240 ;
241 [label="entropy = 0.0\nsamples = 1\nvalue = [1, 0]"] ;
239 -> 241 ;
242 [label="magnitude 0 <= 9.7691\nentropy = 0.5033\nsamples = 9\nvalue = [8, 1]"] ;
238 -> 242 ;
243 [label="entropy = 0.0\nsamples = 7\nvalue = [7, 0]"] ;
242 -> 243 ;
244 [label="magnitude 17 <= 10.0321\nentropy = 1.0\nsamples = 2\nvalue = [1, 1]"] ;
242 -> 244 ;
245 [label="entropy = 0.0\nsamples = 1\nvalue = [0, 1]"] ;
244 -> 245 ;
246 [label="entropy = 0.0\nsamples = 1\nvalue = [1, 0]"] ;
244 -> 246 ;
247 [label="magnitude 5 <= 8.8194\nentropy = 0.3022\nsamples = 93\nvalue = [5, 88]"] ;
237 -> 247 ;
248 [label="magnitude 4 <= 8.7878\nentropy = 0.971\nsamples = 5\nvalue = [3, 2]"] ;
247 -> 248 ;
249 [label="entropy = 0.0\nsamples = 2\nvalue = [2, 0]"] ;
248 -> 249 ;
250 [label="magnitude 3 <= 9.5249\nentropy = 0.9183\nsamples = 3\nvalue = [1, 2]"] ;
248 -> 250 ;
251 [label="entropy = 0.0\nsamples = 2\nvalue = [0, 2]"] ;
250 -> 251 ;
252 [label="entropy = 0.0\nsamples = 1\nvalue = [1, 0]"] ;
250 -> 252 ;
253 [label="magnitude 5 <= 10.9114\nentropy = 0.1565\nsamples = 88\nvalue = [2, 86]"] ;
247 -> 253 ;
254 [label="entropy = 0.0\nsamples = 81\nvalue = [0, 81]"] ;
253 -> 254 ;
255 [label="var Y <= 0.5348\nentropy = 0.8631\nsamples = 7\nvalue = [2, 5]"] ;
253 -> 255 ;
256 [label="entropy = 0.0\nsamples = 1\nvalue = [1, 0]"] ;
255 -> 256 ;
257 [label="max Z <= 11.1395\nentropy = 0.65\nsamples = 6\nvalue = [1, 5]"] ;
255 -> 257 ;
258 [label="entropy = 0.0\nsamples = 5\nvalue = [0, 5]"] ;
257 -> 258 ;
259 [label="entropy = 0.0\nsamples = 1\nvalue = [1, 0]"] ;
257 -> 259 ;
260 [label="entropy = 0.0\nsamples = 4\nvalue = [4, 0]"] ;
236 -> 260 ;
261 [label="magnitude 5 <= 9.9351\nentropy = 0.8366\nsamples = 15\nvalue = [11, 4]"] ;
233 -> 261 ;
262 [label="min X <= -4.2363\nentropy = 0.9911\nsamples = 9\nvalue = [5, 4]"] ;
261 -> 262 ;
263 [label="entropy = 0.0\nsamples = 3\nvalue = [3, 0]"] ;
262 -> 263 ;
264 [label="magnitude 0 <= 10.9945\nentropy = 0.9183\nsamples = 6\nvalue = [2, 4]"] ;
262 -> 264 ;
265 [label="entropy = 0.0\nsamples = 4\nvalue = [0, 4]"] ;
264 -> 265 ;
266 [label="entropy = 0.0\nsamples = 2\nvalue = [2, 0]"] ;
264 -> 266 ;
267 [label="entropy = 0.0\nsamples = 6\nvalue = [6, 0]"] ;
261 -> 267 ;
268 [label="magnitude 4 <= 11.5208\nentropy = 0.95\nsamples = 317\nvalue = [200, 117]"] ;
232 -> 268 ;
269 [label="magnitude 14 <= 11.065\nentropy = 0.9822\nsamples = 268\nvalue = [155, 113]"] ;
268 -> 269 ;
270 [label="magnitude 6 <= 10.4715\nentropy = 0.9992\nsamples = 209\nvalue = [108, 101]"] ;
269 -> 270 ;
271 [label="min X <= -5.3762\nentropy = 0.9701\nsamples = 138\nvalue = [55, 83]"] ;
270 -> 271 ;
272 [label="magnitude 12 <= 9.3722\nentropy = 0.9183\nsamples = 42\nvalue = [28, 14]"] ;
271 -> 272 ;
273 [label="entropy = 0.0\nsamples = 3\nvalue = [0, 3]"] ;
272 -> 273 ;
274 [label="min Y <= -2.2032\nentropy = 0.8582\nsamples = 39\nvalue = [28, 11]"] ;
272 -> 274 ;
275 [label="max X <= 8.8313\nentropy = 0.5917\nsamples = 28\nvalue = [24, 4]"] ;
274 -> 275 ;
276 [label="magnitude 1 <= 9.5986\nentropy = 0.2762\nsamples = 21\nvalue = [20, 1]"] ;
275 -> 276 ;
277 [label="median X <= -6.1481\nentropy = 0.7219\nsamples = 5\nvalue = [4, 1]"] ;
276 -> 277 ;
278 [label="entropy = 0.0\nsamples = 1\nvalue = [0, 1]"] ;
277 -> 278 ;
279 [label="entropy = 0.0\nsamples = 4\nvalue = [4, 0]"] ;
277 -> 279 ;
280 [label="entropy = 0.0\nsamples = 16\nvalue = [16, 0]"] ;
276 -> 280 ;
281 [label="magnitude 8 <= 9.7233\nentropy = 0.9852\nsamples = 7\nvalue = [4, 3]"] ;
275 -> 281 ;
282 [label="entropy = 0.0\nsamples = 4\nvalue = [4, 0]"] ;
281 -> 282 ;
283 [label="entropy = 0.0\nsamples = 3\nvalue = [0, 3]"] ;
281 -> 283 ;
284 [label="magnitude 16 <= 9.3513\nentropy = 0.9457\nsamples = 11\nvalue = [4, 7]"] ;
274 -> 284 ;
285 [label="entropy = 0.0\nsamples = 2\nvalue = [2, 0]"] ;
284 -> 285 ;
286 [label="std X <= 0.8069\nentropy = 0.7642\nsamples = 9\nvalue = [2, 7]"] ;
284 -> 286 ;
287 [label="magnitude 14 <= 10.2261\nentropy = 0.9183\nsamples = 3\nvalue = [2, 1]"] ;
286 -> 287 ;
288 [label="entropy = 0.0\nsamples = 1\nvalue = [0, 1]"] ;
287 -> 288 ;
289 [label="entropy = 0.0\nsamples = 2\nvalue = [2, 0]"] ;
287 -> 289 ;
290 [label="entropy = 0.0\nsamples = 6\nvalue = [0, 6]"] ;
286 -> 290 ;
291 [label="magnitude 6 <= 9.359\nentropy = 0.8571\nsamples = 96\nvalue = [27, 69]"] ;
271 -> 291 ;
292 [label="magnitude 1 <= 9.3719\nentropy = 0.9887\nsamples = 32\nvalue = [18, 14]"] ;
291 -> 292 ;
293 [label="std X <= 0.9824\nentropy = 0.3912\nsamples = 13\nvalue = [12, 1]"] ;
292 -> 293 ;
294 [label="var X <= 0.8233\nentropy = 1.0\nsamples = 2\nvalue = [1, 1]"] ;
293 -> 294 ;
295 [label="entropy = 0.0\nsamples = 1\nvalue = [1, 0]"] ;
294 -> 295 ;
296 [label="entropy = 0.0\nsamples = 1\nvalue = [0, 1]"] ;
294 -> 296 ;
297 [label="entropy = 0.0\nsamples = 11\nvalue = [11, 0]"] ;
293 -> 297 ;
298 [label="median Y <= 7.8275\nentropy = 0.8997\nsamples = 19\nvalue = [6, 13]"] ;
292 -> 298 ;
299 [label="magnitude 8 <= 8.4317\nentropy = 0.6962\nsamples = 16\nvalue = [3, 13]"] ;
298 -> 299 ;
300 [label="magnitude 9 <= 8.4034\nentropy = 0.9183\nsamples = 3\nvalue = [2, 1]"] ;
299 -> 300 ;
301 [label="entropy = 0.0\nsamples = 2\nvalue = [2, 0]"] ;
300 -> 301 ;
302 [label="entropy = 0.0\nsamples = 1\nvalue = [0, 1]"] ;
300 -> 302 ;
303 [label="min Z <= 8.0635\nentropy = 0.3912\nsamples = 13\nvalue = [1, 12]"] ;
299 -> 303 ;
304 [label="entropy = 0.0\nsamples = 12\nvalue = [0, 12]"] ;
303 -> 304 ;
305 [label="entropy = 0.0\nsamples = 1\nvalue = [1, 0]"] ;
303 -> 305 ;
306 [label="entropy = 0.0\nsamples = 3\nvalue = [3, 0]"] ;
298 -> 306 ;
307 [label="magnitude 1 <= 10.9856\nentropy = 0.5859\nsamples = 64\nvalue = [9, 55]"] ;
291 -> 307 ;
308 [label="magnitude 3 <= 8.8338\nentropy = 0.3095\nsamples = 54\nvalue = [3, 51]"] ;
307 -> 308 ;
309 [label="magnitude 5 <= 8.8864\nentropy = 0.9852\nsamples = 7\nvalue = [3, 4]"] ;
308 -> 309 ;
310 [label="entropy = 0.0\nsamples = 3\nvalue = [3, 0]"] ;
309 -> 310 ;
311 [label="entropy = 0.0\nsamples = 4\nvalue = [0, 4]"] ;
309 -> 311 ;
312 [label="entropy = 0.0\nsamples = 47\nvalue = [0, 47]"] ;
308 -> 312 ;
313 [label="magnitude 15 <= 9.4996\nentropy = 0.971\nsamples = 10\nvalue = [6, 4]"] ;
307 -> 313 ;
314 [label="entropy = 0.0\nsamples = 5\nvalue = [5, 0]"] ;
313 -> 314 ;
315 [label="std Y <= 0.8862\nentropy = 0.7219\nsamples = 5\nvalue = [1, 4]"] ;
313 -> 315 ;
316 [label="entropy = 0.0\nsamples = 1\nvalue = [1, 0]"] ;
315 -> 316 ;
317 [label="entropy = 0.0\nsamples = 4\nvalue = [0, 4]"] ;
315 -> 317 ;
318 [label="magnitude 3 <= 11.0463\nentropy = 0.8168\nsamples = 71\nvalue = [53, 18]"] ;
270 -> 318 ;
319 [label="min Y <= -6.8474\nentropy = 0.8997\nsamples = 57\nvalue = [39, 18]"] ;
318 -> 319 ;
320 [label="entropy = 0.0\nsamples = 11\nvalue = [11, 0]"] ;
319 -> 320 ;
321 [label="magnitude 12 <= 11.0749\nentropy = 0.9656\nsamples = 46\nvalue = [28, 18]"] ;
319 -> 321 ;
322 [label="magnitude 8 <= 11.2446\nentropy = 0.9928\nsamples = 40\nvalue = [22, 18]"] ;
321 -> 322 ;
323 [label="mean Y <= 6.7458\nentropy = 0.9975\nsamples = 34\nvalue = [16, 18]"] ;
322 -> 323 ;
324 [label="median X <= 6.8123\nentropy = 0.9992\nsamples = 31\nvalue = [16, 15]"] ;
323 -> 324 ;
325 [label="var X <= 0.9944\nentropy = 0.9963\nsamples = 28\nvalue = [13, 15]"] ;
324 -> 325 ;
326 [label="median Z <= 7.7068\nentropy = 0.5436\nsamples = 8\nvalue = [1, 7]"] ;
325 -> 326 ;
327 [label="entropy = 0.0\nsamples = 1\nvalue = [1, 0]"] ;
326 -> 327 ;
328 [label="entropy = 0.0\nsamples = 7\nvalue = [0, 7]"] ;
326 -> 328 ;
329 [label="magnitude 0 <= 10.0021\nentropy = 0.971\nsamples = 20\nvalue = [12, 8]"] ;
325 -> 329 ;
330 [label="var X <= 1.1357\nentropy = 0.469\nsamples = 10\nvalue = [9, 1]"] ;
329 -> 330 ;
331 [label="entropy = 0.0\nsamples = 1\nvalue = [0, 1]"] ;
330 -> 331 ;
332 [label="entropy = 0.0\nsamples = 9\nvalue = [9, 0]"] ;
330 -> 332 ;
333 [label="magnitude 15 <= 9.7161\nentropy = 0.8813\nsamples = 10\nvalue = [3, 7]"] ;
329 -> 333 ;
334 [label="magnitude 4 <= 10.2272\nentropy = 0.8113\nsamples = 4\nvalue = [3, 1]"] ;
333 -> 334 ;
335 [label="entropy = 0.0\nsamples = 3\nvalue = [3, 0]"] ;
334 -> 335 ;
336 [label="entropy = 0.0\nsamples = 1\nvalue = [0, 1]"] ;
334 -> 336 ;
337 [label="entropy = 0.0\nsamples = 6\nvalue = [0, 6]"] ;
333 -> 337 ;
338 [label="entropy = 0.0\nsamples = 3\nvalue = [3, 0]"] ;
324 -> 338 ;
339 [label="entropy = 0.0\nsamples = 3\nvalue = [0, 3]"] ;
323 -> 339 ;
340 [label="entropy = 0.0\nsamples = 6\nvalue = [6, 0]"] ;
322 -> 340 ;
341 [label="entropy = 0.0\nsamples = 6\nvalue = [6, 0]"] ;
321 -> 341 ;
342 [label="entropy = 0.0\nsamples = 14\nvalue = [14, 0]"] ;
318 -> 342 ;
343 [label="std X <= 0.9798\nentropy = 0.7287\nsamples = 59\nvalue = [47, 12]"] ;
269 -> 343 ;
344 [label="entropy = 0.0\nsamples = 14\nvalue = [14, 0]"] ;
343 -> 344 ;
345 [label="median X <= 3.4068\nentropy = 0.8366\nsamples = 45\nvalue = [33, 12]"] ;
343 -> 345 ;
346 [label="var Y <= 17.939\nentropy = 0.65\nsamples = 36\nvalue = [30, 6]"] ;
345 -> 346 ;
347 [label="magnitude 7 <= 10.4752\nentropy = 0.5226\nsamples = 34\nvalue = [30, 4]"] ;
346 -> 347 ;
348 [label="entropy = 0.0\nsamples = 25\nvalue = [25, 0]"] ;
347 -> 348 ;
349 [label="min Z <= 2.4525\nentropy = 0.9911\nsamples = 9\nvalue = [5, 4]"] ;
347 -> 349 ;
350 [label="entropy = 0.0\nsamples = 4\nvalue = [4, 0]"] ;
349 -> 350 ;
351 [label="magnitude 17 <= 7.7831\nentropy = 0.7219\nsamples = 5\nvalue = [1, 4]"] ;
349 -> 351 ;
352 [label="entropy = 0.0\nsamples = 1\nvalue = [1, 0]"] ;
351 -> 352 ;
353 [label="entropy = 0.0\nsamples = 4\nvalue = [0, 4]"] ;
351 -> 353 ;
354 [label="entropy = 0.0\nsamples = 2\nvalue = [0, 2]"] ;
346 -> 354 ;
355 [label="magnitude 2 <= 10.0473\nentropy = 0.9183\nsamples = 9\nvalue = [3, 6]"] ;
345 -> 355 ;
356 [label="entropy = 0.0\nsamples = 4\nvalue = [0, 4]"] ;
355 -> 356 ;
357 [label="magnitude 5 <= 9.8486\nentropy = 0.971\nsamples = 5\nvalue = [3, 2]"] ;
355 -> 357 ;
358 [label="magnitude 15 <= 11.2964\nentropy = 0.9183\nsamples = 3\nvalue = [1, 2]"] ;
357 -> 358 ;
359 [label="entropy = 0.0\nsamples = 1\nvalue = [1, 0]"] ;
358 -> 359 ;
360 [label="entropy = 0.0\nsamples = 2\nvalue = [0, 2]"] ;
358 -> 360 ;
361 [label="entropy = 0.0\nsamples = 2\nvalue = [2, 0]"] ;
357 -> 361 ;
362 [label="min X <= -8.9165\nentropy = 0.4079\nsamples = 49\nvalue = [45, 4]"] ;
268 -> 362 ;
363 [label="entropy = 0.0\nsamples = 16\nvalue = [16, 0]"] ;
362 -> 363 ;
364 [label="magnitude 19 <= 9.4075\nentropy = 0.5328\nsamples = 33\nvalue = [29, 4]"] ;
362 -> 364 ;
365 [label="entropy = 0.0\nsamples = 15\nvalue = [15, 0]"] ;
364 -> 365 ;
366 [label="mean X <= -1.862\nentropy = 0.7642\nsamples = 18\nvalue = [14, 4]"] ;
364 -> 366 ;
367 [label="magnitude 18 <= 10.5549\nentropy = 1.0\nsamples = 6\nvalue = [3, 3]"] ;
366 -> 367 ;
368 [label="entropy = 0.0\nsamples = 3\nvalue = [0, 3]"] ;
367 -> 368 ;
369 [label="entropy = 0.0\nsamples = 3\nvalue = [3, 0]"] ;
367 -> 369 ;
370 [label="min Z <= 0.262\nentropy = 0.4138\nsamples = 12\nvalue = [11, 1]"] ;
366 -> 370 ;
371 [label="median Z <= 3.0806\nentropy = 1.0\nsamples = 2\nvalue = [1, 1]"] ;
370 -> 371 ;
372 [label="entropy = 0.0\nsamples = 1\nvalue = [1, 0]"] ;
371 -> 372 ;
373 [label="entropy = 0.0\nsamples = 1\nvalue = [0, 1]"] ;
371 -> 373 ;
374 [label="entropy = 0.0\nsamples = 10\nvalue = [10, 0]"] ;
370 -> 374 ;
375 [label="magnitude 5 <= 10.0329\nentropy = 0.9479\nsamples = 363\nvalue = [133, 230]"] ;
231 -> 375 ;
376 [label="magnitude 9 <= 10.1615\nentropy = 0.9788\nsamples = 263\nvalue = [109, 154]"] ;
375 -> 376 ;
377 [label="magnitude 14 <= 12.1889\nentropy = 0.9977\nsamples = 197\nvalue = [104, 93]"] ;
376 -> 377 ;
378 [label="std X <= 8.5091\nentropy = 0.9887\nsamples = 160\nvalue = [70, 90]"] ;
377 -> 378 ;
379 [label="magnitude 19 <= 10.0785\nentropy = 0.5226\nsamples = 17\nvalue = [2, 15]"] ;
378 -> 379 ;
380 [label="entropy = 0.0\nsamples = 13\nvalue = [0, 13]"] ;
379 -> 380 ;
381 [label="magnitude 5 <= 9.82\nentropy = 1.0\nsamples = 4\nvalue = [2, 2]"] ;
379 -> 381 ;
382 [label="entropy = 0.0\nsamples = 2\nvalue = [0, 2]"] ;
381 -> 382 ;
383 [label="entropy = 0.0\nsamples = 2\nvalue = [2, 0]"] ;
381 -> 383 ;
384 [label="magnitude 17 <= 10.7119\nentropy = 0.9983\nsamples = 143\nvalue = [68, 75]"] ;
378 -> 384 ;
385 [label="magnitude 6 <= 10.0143\nentropy = 0.994\nsamples = 99\nvalue = [54, 45]"] ;
384 -> 385 ;
386 [label="max X <= 9.288\nentropy = 0.9911\nsamples = 63\nvalue = [28, 35]"] ;
385 -> 386 ;
387 [label="var X <= 76.1824\nentropy = 0.4138\nsamples = 12\nvalue = [1, 11]"] ;
386 -> 387 ;
388 [label="max Y <= 3.9565\nentropy = 1.0\nsamples = 2\nvalue = [1, 1]"] ;
387 -> 388 ;
389 [label="entropy = 0.0\nsamples = 1\nvalue = [1, 0]"] ;
388 -> 389 ;
390 [label="entropy = 0.0\nsamples = 1\nvalue = [0, 1]"] ;
388 -> 390 ;
391 [label="entropy = 0.0\nsamples = 10\nvalue = [0, 10]"] ;
387 -> 391 ;
392 [label="magnitude 10 <= 9.178\nentropy = 0.9975\nsamples = 51\nvalue = [27, 24]"] ;
386 -> 392 ;
393 [label="entropy = 0.0\nsamples = 13\nvalue = [13, 0]"] ;
392 -> 393 ;
394 [label="magnitude 17 <= 9.2525\nentropy = 0.9495\nsamples = 38\nvalue = [14, 24]"] ;
392 -> 394 ;
395 [label="entropy = 0.0\nsamples = 7\nvalue = [0, 7]"] ;
394 -> 395 ;
396 [label="magnitude 11 <= 9.4216\nentropy = 0.9932\nsamples = 31\nvalue = [14, 17]"] ;
394 -> 396 ;
397 [label="magnitude 4 <= 12.3934\nentropy = 0.469\nsamples = 10\nvalue = [1, 9]"] ;
396 -> 397 ;
398 [label="entropy = 0.0\nsamples = 9\nvalue = [0, 9]"] ;
397 -> 398 ;
399 [label="entropy = 0.0\nsamples = 1\nvalue = [1, 0]"] ;
397 -> 399 ;
400 [label="magnitude 18 <= 9.2899\nentropy = 0.9587\nsamples = 21\nvalue = [13, 8]"] ;
396 -> 400 ;
401 [label="entropy = 0.0\nsamples = 4\nvalue = [0, 4]"] ;
400 -> 401 ;
402 [label="max Y <= 4.2556\nentropy = 0.7871\nsamples = 17\nvalue = [13, 4]"] ;
400 -> 402 ;
403 [label="magnitude 8 <= 9.5581\nentropy = 0.9911\nsamples = 9\nvalue = [5, 4]"] ;
402 -> 403 ;
404 [label="entropy = 0.0\nsamples = 4\nvalue = [4, 0]"] ;
403 -> 404 ;
405 [label="var Y <= 6.6958\nentropy = 0.7219\nsamples = 5\nvalue = [1, 4]"] ;
403 -> 405 ;
406 [label="entropy = 0.0\nsamples = 4\nvalue = [0, 4]"] ;
405 -> 406 ;
407 [label="entropy = 0.0\nsamples = 1\nvalue = [1, 0]"] ;
405 -> 407 ;
408 [label="entropy = 0.0\nsamples = 8\nvalue = [8, 0]"] ;
402 -> 408 ;
409 [label="min Z <= 1.589\nentropy = 0.8524\nsamples = 36\nvalue = [26, 10]"] ;
385 -> 409 ;
410 [label="median Z <= 2.3714\nentropy = 0.9294\nsamples = 29\nvalue = [19, 10]"] ;
409 -> 410 ;
411 [label="magnitude 1 <= 9.6545\nentropy = 0.9799\nsamples = 12\nvalue = [5, 7]"] ;
410 -> 411 ;
412 [label="entropy = 0.0\nsamples = 2\nvalue = [2, 0]"] ;
411 -> 412 ;
413 [label="magnitude 10 <= 9.4887\nentropy = 0.8813\nsamples = 10\nvalue = [3, 7]"] ;
411 -> 413 ;
414 [label="entropy = 0.0\nsamples = 2\nvalue = [2, 0]"] ;
413 -> 414 ;
415 [label="magnitude 10 <= 10.5877\nentropy = 0.5436\nsamples = 8\nvalue = [1, 7]"] ;
413 -> 415 ;
416 [label="entropy = 0.0\nsamples = 7\nvalue = [0, 7]"] ;
415 -> 416 ;
417 [label="entropy = 0.0\nsamples = 1\nvalue = [1, 0]"] ;
415 -> 417 ;
418 [label="magnitude 9 <= 9.6679\nentropy = 0.6723\nsamples = 17\nvalue = [14, 3]"] ;
410 -> 418 ;
419 [label="magnitude 16 <= 9.8094\nentropy = 0.8113\nsamples = 4\nvalue = [1, 3]"] ;
418 -> 419 ;
420 [label="entropy = 0.0\nsamples = 3\nvalue = [0, 3]"] ;
419 -> 420 ;
421 [label="entropy = 0.0\nsamples = 1\nvalue = [1, 0]"] ;
419 -> 421 ;
422 [label="entropy = 0.0\nsamples = 13\nvalue = [13, 0]"] ;
418 -> 422 ;
423 [label="entropy = 0.0\nsamples = 7\nvalue = [7, 0]"] ;
409 -> 423 ;
424 [label="magnitude 10 <= 9.368\nentropy = 0.9024\nsamples = 44\nvalue = [14, 30]"] ;
384 -> 424 ;
425 [label="magnitude 12 <= 9.6399\nentropy = 0.469\nsamples = 10\nvalue = [9, 1]"] ;
424 -> 425 ;
426 [label="mean Z <= 2.887\nentropy = 1.0\nsamples = 2\nvalue = [1, 1]"] ;
425 -> 426 ;
427 [label="entropy = 0.0\nsamples = 1\nvalue = [0, 1]"] ;
426 -> 427 ;
428 [label="entropy = 0.0\nsamples = 1\nvalue = [1, 0]"] ;
426 -> 428 ;
429 [label="entropy = 0.0\nsamples = 8\nvalue = [8, 0]"] ;
425 -> 429 ;
430 [label="var Y <= 0.8434\nentropy = 0.6024\nsamples = 34\nvalue = [5, 29]"] ;
424 -> 430 ;
431 [label="magnitude 6 <= 9.614\nentropy = 0.9183\nsamples = 3\nvalue = [2, 1]"] ;
430 -> 431 ;
432 [label="entropy = 0.0\nsamples = 2\nvalue = [2, 0]"] ;
431 -> 432 ;
433 [label="entropy = 0.0\nsamples = 1\nvalue = [0, 1]"] ;
431 -> 433 ;
434 [label="std X <= 9.7108\nentropy = 0.4587\nsamples = 31\nvalue = [3, 28]"] ;
430 -> 434 ;
435 [label="entropy = 0.0\nsamples = 21\nvalue = [0, 21]"] ;
434 -> 435 ;
436 [label="max X <= 9.4368\nentropy = 0.8813\nsamples = 10\nvalue = [3, 7]"] ;
434 -> 436 ;
437 [label="entropy = 0.0\nsamples = 3\nvalue = [3, 0]"] ;
436 -> 437 ;
438 [label="entropy = 0.0\nsamples = 7\nvalue = [0, 7]"] ;
436 -> 438 ;
439 [label="std Y <= 3.631\nentropy = 0.406\nsamples = 37\nvalue = [34, 3]"] ;
377 -> 439 ;
440 [label="entropy = 0.0\nsamples = 32\nvalue = [32, 0]"] ;
439 -> 440 ;
441 [label="var X <= 81.9639\nentropy = 0.971\nsamples = 5\nvalue = [2, 3]"] ;
439 -> 441 ;
442 [label="entropy = 0.0\nsamples = 2\nvalue = [2, 0]"] ;
441 -> 442 ;
443 [label="entropy = 0.0\nsamples = 3\nvalue = [0, 3]"] ;
441 -> 443 ;
444 [label="magnitude 10 <= 10.651\nentropy = 0.3871\nsamples = 66\nvalue = [5, 61]"] ;
376 -> 444 ;
445 [label="magnitude 10 <= 9.6421\nentropy = 0.2056\nsamples = 62\nvalue = [2, 60]"] ;
444 -> 445 ;
446 [label="var Z <= 2.7607\nentropy = 1.0\nsamples = 4\nvalue = [2, 2]"] ;
445 -> 446 ;
447 [label="entropy = 0.0\nsamples = 2\nvalue = [2, 0]"] ;
446 -> 447 ;
448 [label="entropy = 0.0\nsamples = 2\nvalue = [0, 2]"] ;
446 -> 448 ;
449 [label="entropy = 0.0\nsamples = 58\nvalue = [0, 58]"] ;
445 -> 449 ;
450 [label="std Z <= 1.4255\nentropy = 0.8113\nsamples = 4\nvalue = [3, 1]"] ;
444 -> 450 ;
451 [label="entropy = 0.0\nsamples = 1\nvalue = [0, 1]"] ;
450 -> 451 ;
452 [label="entropy = 0.0\nsamples = 3\nvalue = [3, 0]"] ;
450 -> 452 ;
453 [label="magnitude 0 <= 9.9786\nentropy = 0.795\nsamples = 100\nvalue = [24, 76]"] ;
375 -> 453 ;
454 [label="magnitude 12 <= 10.6991\nentropy = 0.893\nsamples = 71\nvalue = [22, 49]"] ;
453 -> 454 ;
455 [label="magnitude 10 <= 9.0319\nentropy = 0.7568\nsamples = 55\nvalue = [12, 43]"] ;
454 -> 455 ;
456 [label="entropy = 0.0\nsamples = 5\nvalue = [5, 0]"] ;
455 -> 456 ;
457 [label="magnitude 8 <= 9.7749\nentropy = 0.5842\nsamples = 50\nvalue = [7, 43]"] ;
455 -> 457 ;
458 [label="entropy = 0.0\nsamples = 15\nvalue = [0, 15]"] ;
457 -> 458 ;
459 [label="magnitude 5 <= 11.6974\nentropy = 0.7219\nsamples = 35\nvalue = [7, 28]"] ;
457 -> 459 ;
460 [label="min Y <= -0.4557\nentropy = 0.2762\nsamples = 21\nvalue = [1, 20]"] ;
459 -> 460 ;
461 [label="entropy = 0.0\nsamples = 20\nvalue = [0, 20]"] ;
460 -> 461 ;
462 [label="entropy = 0.0\nsamples = 1\nvalue = [1, 0]"] ;
460 -> 462 ;
463 [label="median X <= 1.8371\nentropy = 0.9852\nsamples = 14\nvalue = [6, 8]"] ;
459 -> 463 ;
464 [label="var X <= 100.4817\nentropy = 0.9183\nsamples = 9\nvalue = [6, 3]"] ;
463 -> 464 ;
465 [label="magnitude 3 <= 9.491\nentropy = 0.5917\nsamples = 7\nvalue = [6, 1]"] ;
464 -> 465 ;
466 [label="entropy = 0.0\nsamples = 1\nvalue = [0, 1]"] ;
465 -> 466 ;
467 [label="entropy = 0.0\nsamples = 6\nvalue = [6, 0]"] ;
465 -> 467 ;
468 [label="entropy = 0.0\nsamples = 2\nvalue = [0, 2]"] ;
464 -> 468 ;
469 [label="entropy = 0.0\nsamples = 5\nvalue = [0, 5]"] ;
463 -> 469 ;
470 [label="mean Z <= 2.8666\nentropy = 0.9544\nsamples = 16\nvalue = [10, 6]"] ;
454 -> 470 ;
471 [label="entropy = 0.0\nsamples = 4\nvalue = [4, 0]"] ;
470 -> 471 ;
472 [label="magnitude 15 <= 9.7285\nentropy = 1.0\nsamples = 12\nvalue = [6, 6]"] ;
470 -> 472 ;
473 [label="entropy = 0.0\nsamples = 3\nvalue = [0, 3]"] ;
472 -> 473 ;
474 [label="median Y <= -2.2966\nentropy = 0.9183\nsamples = 9\nvalue = [6, 3]"] ;
472 -> 474 ;
475 [label="entropy = 0.0\nsamples = 2\nvalue = [0, 2]"] ;
474 -> 475 ;
476 [label="magnitude 4 <= 9.703\nentropy = 0.5917\nsamples = 7\nvalue = [6, 1]"] ;
474 -> 476 ;
477 [label="entropy = 0.0\nsamples = 1\nvalue = [0, 1]"] ;
476 -> 477 ;
478 [label="entropy = 0.0\nsamples = 6\nvalue = [6, 0]"] ;
476 -> 478 ;
479 [label="magnitude 19 <= 10.2059\nentropy = 0.3621\nsamples = 29\nvalue = [2, 27]"] ;
453 -> 479 ;
480 [label="entropy = 0.0\nsamples = 24\nvalue = [0, 24]"] ;
479 -> 480 ;
481 [label="magnitude 8 <= 9.7941\nentropy = 0.971\nsamples = 5\nvalue = [2, 3]"] ;
479 -> 481 ;
482 [label="entropy = 0.0\nsamples = 2\nvalue = [2, 0]"] ;
481 -> 482 ;
483 [label="entropy = 0.0\nsamples = 3\nvalue = [0, 3]"] ;
481 -> 483 ;
484 [label="std Y <= 1.5934\nentropy = 0.3428\nsamples = 219\nvalue = [205, 14]"] ;
168 -> 484 ;
485 [label="median Z <= 3.4753\nentropy = 0.6801\nsamples = 50\nvalue = [41, 9]"] ;
484 -> 485 ;
486 [label="entropy = 0.0\nsamples = 14\nvalue = [14, 0]"] ;
485 -> 486 ;
487 [label="magnitude 18 <= 10.5298\nentropy = 0.8113\nsamples = 36\nvalue = [27, 9]"] ;
485 -> 487 ;
488 [label="magnitude 3 <= 8.6526\nentropy = 0.9183\nsamples = 27\nvalue = [18, 9]"] ;
487 -> 488 ;
489 [label="entropy = 0.0\nsamples = 7\nvalue = [7, 0]"] ;
488 -> 489 ;
490 [label="magnitude 15 <= 9.9784\nentropy = 0.9928\nsamples = 20\nvalue = [11, 9]"] ;
488 -> 490 ;
491 [label="max X <= 0.5056\nentropy = 0.8366\nsamples = 15\nvalue = [11, 4]"] ;
490 -> 491 ;
492 [label="entropy = 0.0\nsamples = 4\nvalue = [4, 0]"] ;
491 -> 492 ;
493 [label="median X <= 0.7111\nentropy = 0.9457\nsamples = 11\nvalue = [7, 4]"] ;
491 -> 493 ;
494 [label="entropy = 0.0\nsamples = 2\nvalue = [0, 2]"] ;
493 -> 494 ;
495 [label="var Y <= 1.1215\nentropy = 0.7642\nsamples = 9\nvalue = [7, 2]"] ;
493 -> 495 ;
496 [label="entropy = 0.0\nsamples = 7\nvalue = [7, 0]"] ;
495 -> 496 ;
497 [label="entropy = 0.0\nsamples = 2\nvalue = [0, 2]"] ;
495 -> 497 ;
498 [label="entropy = 0.0\nsamples = 5\nvalue = [0, 5]"] ;
490 -> 498 ;
499 [label="entropy = 0.0\nsamples = 9\nvalue = [9, 0]"] ;
487 -> 499 ;
500 [label="std X <= 4.1401\nentropy = 0.1923\nsamples = 169\nvalue = [164, 5]"] ;
484 -> 500 ;
501 [label="min X <= 2.7832\nentropy = 0.4237\nsamples = 58\nvalue = [53, 5]"] ;
500 -> 501 ;
502 [label="min Z <= 2.7156\nentropy = 0.2318\nsamples = 53\nvalue = [51, 2]"] ;
501 -> 502 ;
503 [label="entropy = 0.0\nsamples = 39\nvalue = [39, 0]"] ;
502 -> 503 ;
504 [label="mean Y <= -3.9515\nentropy = 0.5917\nsamples = 14\nvalue = [12, 2]"] ;
502 -> 504 ;
505 [label="min Z <= 3.1601\nentropy = 0.971\nsamples = 5\nvalue = [3, 2]"] ;
504 -> 505 ;
506 [label="entropy = 0.0\nsamples = 2\nvalue = [0, 2]"] ;
505 -> 506 ;
507 [label="entropy = 0.0\nsamples = 3\nvalue = [3, 0]"] ;
505 -> 507 ;
508 [label="entropy = 0.0\nsamples = 9\nvalue = [9, 0]"] ;
504 -> 508 ;
509 [label="magnitude 12 <= 9.2448\nentropy = 0.971\nsamples = 5\nvalue = [2, 3]"] ;
501 -> 509 ;
510 [label="entropy = 0.0\nsamples = 2\nvalue = [0, 2]"] ;
509 -> 510 ;
511 [label="magnitude 8 <= 7.735\nentropy = 0.9183\nsamples = 3\nvalue = [2, 1]"] ;
509 -> 511 ;
512 [label="entropy = 0.0\nsamples = 1\nvalue = [0, 1]"] ;
511 -> 512 ;
513 [label="entropy = 0.0\nsamples = 2\nvalue = [2, 0]"] ;
511 -> 513 ;
514 [label="entropy = 0.0\nsamples = 111\nvalue = [111, 0]"] ;
500 -> 514 ;
515 [label="min X <= -1.6189\nentropy = 0.1658\nsamples = 3270\nvalue = [3190, 80]"] ;
1 -> 515 ;
516 [label="min Z <= 7.0454\nentropy = 0.1223\nsamples = 2941\nvalue = [2892, 49]"] ;
515 -> 516 ;
517 [label="std X <= 5.6965\nentropy = 0.0783\nsamples = 2494\nvalue = [2470, 24]"] ;
516 -> 517 ;
518 [label="max Z <= 14.207\nentropy = 0.0598\nsamples = 2448\nvalue = [2431, 17]"] ;
517 -> 518 ;
519 [label="magnitude 15 <= 9.4175\nentropy = 0.1542\nsamples = 583\nvalue = [570, 13]"] ;
518 -> 519 ;
520 [label="var Y <= 9.408\nentropy = 0.0369\nsamples = 256\nvalue = [255, 1]"] ;
519 -> 520 ;
521 [label="entropy = 0.0\nsamples = 254\nvalue = [254, 0]"] ;
520 -> 521 ;
522 [label="std Z <= 3.0116\nentropy = 1.0\nsamples = 2\nvalue = [1, 1]"] ;
520 -> 522 ;
523 [label="entropy = 0.0\nsamples = 1\nvalue = [0, 1]"] ;
522 -> 523 ;
524 [label="entropy = 0.0\nsamples = 1\nvalue = [1, 0]"] ;
522 -> 524 ;
525 [label="min Y <= -3.3394\nentropy = 0.2269\nsamples = 327\nvalue = [315, 12]"] ;
519 -> 525 ;
526 [label="magnitude 18 <= 9.479\nentropy = 0.4067\nsamples = 123\nvalue = [113, 10]"] ;
525 -> 526 ;
527 [label="entropy = 0.0\nsamples = 45\nvalue = [45, 0]"] ;
526 -> 527 ;
528 [label="magnitude 4 <= 12.6387\nentropy = 0.5525\nsamples = 78\nvalue = [68, 10]"] ;
526 -> 528 ;
529 [label="magnitude 4 <= 12.4991\nentropy = 0.6987\nsamples = 53\nvalue = [43, 10]"] ;
528 -> 529 ;
530 [label="magnitude 4 <= 8.9321\nentropy = 0.5842\nsamples = 50\nvalue = [43, 7]"] ;
529 -> 530 ;
531 [label="std X <= 1.9612\nentropy = 0.896\nsamples = 16\nvalue = [11, 5]"] ;
530 -> 531 ;
532 [label="mean Y <= -0.5611\nentropy = 1.0\nsamples = 10\nvalue = [5, 5]"] ;
531 -> 532 ;
533 [label="entropy = 0.0\nsamples = 5\nvalue = [0, 5]"] ;
532 -> 533 ;
534 [label="entropy = 0.0\nsamples = 5\nvalue = [5, 0]"] ;
532 -> 534 ;
535 [label="entropy = 0.0\nsamples = 6\nvalue = [6, 0]"] ;
531 -> 535 ;
536 [label="mean X <= 1.5085\nentropy = 0.3228\nsamples = 34\nvalue = [32, 2]"] ;
530 -> 536 ;
537 [label="magnitude 11 <= 6.1236\nentropy = 0.1959\nsamples = 33\nvalue = [32, 1]"] ;
536 -> 537 ;
538 [label="max X <= 5.8598\nentropy = 0.9183\nsamples = 3\nvalue = [2, 1]"] ;
537 -> 538 ;
539 [label="entropy = 0.0\nsamples = 2\nvalue = [2, 0]"] ;
538 -> 539 ;
540 [label="entropy = 0.0\nsamples = 1\nvalue = [0, 1]"] ;
538 -> 540 ;
541 [label="entropy = 0.0\nsamples = 30\nvalue = [30, 0]"] ;
537 -> 541 ;
542 [label="entropy = 0.0\nsamples = 1\nvalue = [0, 1]"] ;
536 -> 542 ;
543 [label="entropy = 0.0\nsamples = 3\nvalue = [0, 3]"] ;
529 -> 543 ;
544 [label="entropy = 0.0\nsamples = 25\nvalue = [25, 0]"] ;
528 -> 544 ;
545 [label="std Z <= 1.4245\nentropy = 0.0795\nsamples = 204\nvalue = [202, 2]"] ;
525 -> 545 ;
546 [label="magnitude 15 <= 12.1041\nentropy = 0.5917\nsamples = 14\nvalue = [12, 2]"] ;
545 -> 546 ;
547 [label="min X <= -3.6771\nentropy = 0.3912\nsamples = 13\nvalue = [12, 1]"] ;
546 -> 547 ;
548 [label="magnitude 3 <= 9.9917\nentropy = 1.0\nsamples = 2\nvalue = [1, 1]"] ;
547 -> 548 ;
549 [label="entropy = 0.0\nsamples = 1\nvalue = [0, 1]"] ;
548 -> 549 ;
550 [label="entropy = 0.0\nsamples = 1\nvalue = [1, 0]"] ;
548 -> 550 ;
551 [label="entropy = 0.0\nsamples = 11\nvalue = [11, 0]"] ;
547 -> 551 ;
552 [label="entropy = 0.0\nsamples = 1\nvalue = [0, 1]"] ;
546 -> 552 ;
553 [label="entropy = 0.0\nsamples = 190\nvalue = [190, 0]"] ;
545 -> 553 ;
554 [label="std X <= 0.6056\nentropy = 0.0221\nsamples = 1865\nvalue = [1861, 4]"] ;
518 -> 554 ;
555 [label="entropy = 0.0\nsamples = 1\nvalue = [0, 1]"] ;
554 -> 555 ;
556 [label="median Z <= 5.2487\nentropy = 0.0173\nsamples = 1864\nvalue = [1861, 3]"] ;
554 -> 556 ;
557 [label="median X <= 4.8014\nentropy = 0.7219\nsamples = 5\nvalue = [4, 1]"] ;
556 -> 557 ;
558 [label="entropy = 0.0\nsamples = 4\nvalue = [4, 0]"] ;
557 -> 558 ;
559 [label="entropy = 0.0\nsamples = 1\nvalue = [0, 1]"] ;
557 -> 559 ;
560 [label="magnitude 2 <= 8.8601\nentropy = 0.0122\nsamples = 1859\nvalue = [1857, 2]"] ;
556 -> 560 ;
561 [label="magnitude 7 <= 3.3695\nentropy = 0.0301\nsamples = 651\nvalue = [649, 2]"] ;
560 -> 561 ;
562 [label="entropy = 0.0\nsamples = 1\nvalue = [0, 1]"] ;
561 -> 562 ;
563 [label="magnitude 6 <= 8.7363\nentropy = 0.0166\nsamples = 650\nvalue = [649, 1]"] ;
561 -> 563 ;
564 [label="min Y <= -1.1965\nentropy = 0.0575\nsamples = 151\nvalue = [150, 1]"] ;
563 -> 564 ;
565 [label="entropy = 0.0\nsamples = 147\nvalue = [147, 0]"] ;
564 -> 565 ;
566 [label="min X <= -2.1403\nentropy = 0.8113\nsamples = 4\nvalue = [3, 1]"] ;
564 -> 566 ;
567 [label="entropy = 0.0\nsamples = 1\nvalue = [0, 1]"] ;
566 -> 567 ;
568 [label="entropy = 0.0\nsamples = 3\nvalue = [3, 0]"] ;
566 -> 568 ;
569 [label="entropy = 0.0\nsamples = 499\nvalue = [499, 0]"] ;
563 -> 569 ;
570 [label="entropy = 0.0\nsamples = 1208\nvalue = [1208, 0]"] ;
560 -> 570 ;
571 [label="magnitude 13 <= 15.4463\nentropy = 0.6153\nsamples = 46\nvalue = [39, 7]"] ;
517 -> 571 ;
572 [label="magnitude 12 <= 10.6527\nentropy = 0.8256\nsamples = 27\nvalue = [20, 7]"] ;
571 -> 572 ;
573 [label="std Y <= 3.0773\nentropy = 0.9799\nsamples = 12\nvalue = [5, 7]"] ;
572 -> 573 ;
574 [label="magnitude 8 <= 9.2205\nentropy = 0.7642\nsamples = 9\nvalue = [2, 7]"] ;
573 -> 574 ;
575 [label="entropy = 0.0\nsamples = 1\nvalue = [1, 0]"] ;
574 -> 575 ;
576 [label="magnitude 6 <= 14.3082\nentropy = 0.5436\nsamples = 8\nvalue = [1, 7]"] ;
574 -> 576 ;
577 [label="entropy = 0.0\nsamples = 7\nvalue = [0, 7]"] ;
576 -> 577 ;
578 [label="entropy = 0.0\nsamples = 1\nvalue = [1, 0]"] ;
576 -> 578 ;
579 [label="entropy = 0.0\nsamples = 3\nvalue = [3, 0]"] ;
573 -> 579 ;
580 [label="entropy = 0.0\nsamples = 15\nvalue = [15, 0]"] ;
572 -> 580 ;
581 [label="entropy = 0.0\nsamples = 19\nvalue = [19, 0]"] ;
571 -> 581 ;
582 [label="std Z <= 1.2319\nentropy = 0.3111\nsamples = 447\nvalue = [422, 25]"] ;
516 -> 582 ;
583 [label="magnitude 17 <= 9.8469\nentropy = 0.7409\nsamples = 62\nvalue = [49, 13]"] ;
582 -> 583 ;
584 [label="magnitude 9 <= 9.772\nentropy = 0.3451\nsamples = 31\nvalue = [29, 2]"] ;
583 -> 584 ;
585 [label="mean Z <= 9.6254\nentropy = 0.8631\nsamples = 7\nvalue = [5, 2]"] ;
584 -> 585 ;
586 [label="entropy = 0.0\nsamples = 5\nvalue = [5, 0]"] ;
585 -> 586 ;
587 [label="entropy = 0.0\nsamples = 2\nvalue = [0, 2]"] ;
585 -> 587 ;
588 [label="entropy = 0.0\nsamples = 24\nvalue = [24, 0]"] ;
584 -> 588 ;
589 [label="magnitude 16 <= 11.4859\nentropy = 0.9383\nsamples = 31\nvalue = [20, 11]"] ;
583 -> 589 ;
590 [label="magnitude 17 <= 10.1864\nentropy = 0.9896\nsamples = 25\nvalue = [14, 11]"] ;
589 -> 590 ;
591 [label="magnitude 7 <= 11.157\nentropy = 0.8113\nsamples = 12\nvalue = [3, 9]"] ;
590 -> 591 ;
592 [label="var Y <= 2.0397\nentropy = 0.684\nsamples = 11\nvalue = [2, 9]"] ;
591 -> 592 ;
593 [label="std X <= 1.4196\nentropy = 0.8631\nsamples = 7\nvalue = [2, 5]"] ;
592 -> 593 ;
594 [label="magnitude 10 <= 8.8531\nentropy = 0.65\nsamples = 6\nvalue = [1, 5]"] ;
593 -> 594 ;
595 [label="entropy = 0.0\nsamples = 1\nvalue = [1, 0]"] ;
594 -> 595 ;
596 [label="entropy = 0.0\nsamples = 5\nvalue = [0, 5]"] ;
594 -> 596 ;
597 [label="entropy = 0.0\nsamples = 1\nvalue = [1, 0]"] ;
593 -> 597 ;
598 [label="entropy = 0.0\nsamples = 4\nvalue = [0, 4]"] ;
592 -> 598 ;
599 [label="entropy = 0.0\nsamples = 1\nvalue = [1, 0]"] ;
591 -> 599 ;
600 [label="median Y <= 1.3258\nentropy = 0.6194\nsamples = 13\nvalue = [11, 2]"] ;
590 -> 600 ;
601 [label="std Y <= 1.3765\nentropy = 0.4138\nsamples = 12\nvalue = [11, 1]"] ;
600 -> 601 ;
602 [label="entropy = 0.0\nsamples = 10\nvalue = [10, 0]"] ;
601 -> 602 ;
603 [label="magnitude 18 <= 10.8963\nentropy = 1.0\nsamples = 2\nvalue = [1, 1]"] ;
601 -> 603 ;
604 [label="entropy = 0.0\nsamples = 1\nvalue = [1, 0]"] ;
603 -> 604 ;
605 [label="entropy = 0.0\nsamples = 1\nvalue = [0, 1]"] ;
603 -> 605 ;
606 [label="entropy = 0.0\nsamples = 1\nvalue = [0, 1]"] ;
600 -> 606 ;
607 [label="entropy = 0.0\nsamples = 6\nvalue = [6, 0]"] ;
589 -> 607 ;
608 [label="magnitude 13 <= 9.9352\nentropy = 0.2002\nsamples = 385\nvalue = [373, 12]"] ;
582 -> 608 ;
609 [label="magnitude 13 <= 9.9332\nentropy = 0.3119\nsamples = 196\nvalue = [185, 11]"] ;
608 -> 609 ;
610 [label="magnitude 10 <= 11.6962\nentropy = 0.2918\nsamples = 195\nvalue = [185, 10]"] ;
609 -> 610 ;
611 [label="magnitude 13 <= 8.8511\nentropy = 0.1941\nsamples = 167\nvalue = [162, 5]"] ;
610 -> 611 ;
612 [label="entropy = 0.0\nsamples = 73\nvalue = [73, 0]"] ;
611 -> 612 ;
613 [label="magnitude 3 <= 9.833\nentropy = 0.2998\nsamples = 94\nvalue = [89, 5]"] ;
611 -> 613 ;
614 [label="magnitude 4 <= 9.265\nentropy = 0.5618\nsamples = 38\nvalue = [33, 5]"] ;
613 -> 614 ;
615 [label="entropy = 0.0\nsamples = 20\nvalue = [20, 0]"] ;
614 -> 615 ;
616 [label="median Y <= -0.3816\nentropy = 0.8524\nsamples = 18\nvalue = [13, 5]"] ;
614 -> 616 ;
617 [label="entropy = 0.0\nsamples = 4\nvalue = [0, 4]"] ;
616 -> 617 ;
618 [label="min Z <= 7.1752\nentropy = 0.3712\nsamples = 14\nvalue = [13, 1]"] ;
616 -> 618 ;
619 [label="entropy = 0.0\nsamples = 1\nvalue = [0, 1]"] ;
618 -> 619 ;
620 [label="entropy = 0.0\nsamples = 13\nvalue = [13, 0]"] ;
618 -> 620 ;
621 [label="entropy = 0.0\nsamples = 56\nvalue = [56, 0]"] ;
613 -> 621 ;
622 [label="min Y <= -2.6532\nentropy = 0.6769\nsamples = 28\nvalue = [23, 5]"] ;
610 -> 622 ;
623 [label="magnitude 2 <= 8.8631\nentropy = 0.874\nsamples = 17\nvalue = [12, 5]"] ;
622 -> 623 ;
624 [label="entropy = 0.0\nsamples = 7\nvalue = [7, 0]"] ;
623 -> 624 ;
625 [label="max Z <= 15.6587\nentropy = 1.0\nsamples = 10\nvalue = [5, 5]"] ;
623 -> 625 ;
626 [label="magnitude 12 <= 8.7996\nentropy = 0.8631\nsamples = 7\nvalue = [2, 5]"] ;
625 -> 626 ;
627 [label="min Z <= 7.5096\nentropy = 0.9183\nsamples = 3\nvalue = [2, 1]"] ;
626 -> 627 ;
628 [label="entropy = 0.0\nsamples = 2\nvalue = [2, 0]"] ;
627 -> 628 ;
629 [label="entropy = 0.0\nsamples = 1\nvalue = [0, 1]"] ;
627 -> 629 ;
630 [label="entropy = 0.0\nsamples = 4\nvalue = [0, 4]"] ;
626 -> 630 ;
631 [label="entropy = 0.0\nsamples = 3\nvalue = [3, 0]"] ;
625 -> 631 ;
632 [label="entropy = 0.0\nsamples = 11\nvalue = [11, 0]"] ;
622 -> 632 ;
633 [label="entropy = 0.0\nsamples = 1\nvalue = [0, 1]"] ;
609 -> 633 ;
634 [label="var Y <= 5.9191\nentropy = 0.0476\nsamples = 189\nvalue = [188, 1]"] ;
608 -> 634 ;
635 [label="entropy = 0.0\nsamples = 171\nvalue = [171, 0]"] ;
634 -> 635 ;
636 [label="min Z <= 7.0992\nentropy = 0.3095\nsamples = 18\nvalue = [17, 1]"] ;
634 -> 636 ;
637 [label="entropy = 0.0\nsamples = 1\nvalue = [0, 1]"] ;
636 -> 637 ;
638 [label="entropy = 0.0\nsamples = 17\nvalue = [17, 0]"] ;
636 -> 638 ;
639 [label="max Z <= 12.5614\nentropy = 0.4504\nsamples = 329\nvalue = [298, 31]"] ;
515 -> 639 ;
640 [label="std Z <= 1.1159\nentropy = 0.8874\nsamples = 59\nvalue = [41, 18]"] ;
639 -> 640 ;
641 [label="mean X <= 0.2832\nentropy = 0.9774\nsamples = 17\nvalue = [7, 10]"] ;
640 -> 641 ;
642 [label="entropy = 0.0\nsamples = 3\nvalue = [3, 0]"] ;
641 -> 642 ;
643 [label="min Z <= 7.8793\nentropy = 0.8631\nsamples = 14\nvalue = [4, 10]"] ;
641 -> 643 ;
644 [label="entropy = 0.0\nsamples = 7\nvalue = [0, 7]"] ;
643 -> 644 ;
645 [label="magnitude 19 <= 9.758\nentropy = 0.9852\nsamples = 7\nvalue = [4, 3]"] ;
643 -> 645 ;
646 [label="entropy = 0.0\nsamples = 3\nvalue = [3, 0]"] ;
645 -> 646 ;
647 [label="magnitude 10 <= 10.167\nentropy = 0.8113\nsamples = 4\nvalue = [1, 3]"] ;
645 -> 647 ;
648 [label="entropy = 0.0\nsamples = 3\nvalue = [0, 3]"] ;
647 -> 648 ;
649 [label="entropy = 0.0\nsamples = 1\nvalue = [1, 0]"] ;
647 -> 649 ;
650 [label="median Z <= 9.5628\nentropy = 0.7025\nsamples = 42\nvalue = [34, 8]"] ;
640 -> 650 ;
651 [label="magnitude 8 <= 11.8071\nentropy = 0.8238\nsamples = 31\nvalue = [23, 8]"] ;
650 -> 651 ;
652 [label="magnitude 4 <= 9.475\nentropy = 0.9044\nsamples = 25\nvalue = [17, 8]"] ;
651 -> 652 ;
653 [label="median Z <= 8.0956\nentropy = 0.5665\nsamples = 15\nvalue = [13, 2]"] ;
652 -> 653 ;
654 [label="max Y <= 4.2348\nentropy = 1.0\nsamples = 4\nvalue = [2, 2]"] ;
653 -> 654 ;
655 [label="entropy = 0.0\nsamples = 2\nvalue = [0, 2]"] ;
654 -> 655 ;
656 [label="entropy = 0.0\nsamples = 2\nvalue = [2, 0]"] ;
654 -> 656 ;
657 [label="entropy = 0.0\nsamples = 11\nvalue = [11, 0]"] ;
653 -> 657 ;
658 [label="var Z <= 2.3976\nentropy = 0.971\nsamples = 10\nvalue = [4, 6]"] ;
652 -> 658 ;
659 [label="median X <= 1.1787\nentropy = 0.7219\nsamples = 5\nvalue = [4, 1]"] ;
658 -> 659 ;
660 [label="entropy = 0.0\nsamples = 1\nvalue = [0, 1]"] ;
659 -> 660 ;
661 [label="entropy = 0.0\nsamples = 4\nvalue = [4, 0]"] ;
659 -> 661 ;
662 [label="entropy = 0.0\nsamples = 5\nvalue = [0, 5]"] ;
658 -> 662 ;
663 [label="entropy = 0.0\nsamples = 6\nvalue = [6, 0]"] ;
651 -> 663 ;
664 [label="entropy = 0.0\nsamples = 11\nvalue = [11, 0]"] ;
650 -> 664 ;
665 [label="median X <= 3.8771\nentropy = 0.2785\nsamples = 270\nvalue = [257, 13]"] ;
639 -> 665 ;
666 [label="max Z <= 15.0675\nentropy = 0.2034\nsamples = 220\nvalue = [213, 7]"] ;
665 -> 666 ;
667 [label="var Z <= 1.0869\nentropy = 0.2605\nsamples = 159\nvalue = [152, 7]"] ;
666 -> 667 ;
668 [label="entropy = 0.0\nsamples = 2\nvalue = [0, 2]"] ;
667 -> 668 ;
669 [label="magnitude 11 <= 13.654\nentropy = 0.2036\nsamples = 157\nvalue = [152, 5]"] ;
667 -> 669 ;
670 [label="magnitude 9 <= 15.123\nentropy = 0.108\nsamples = 140\nvalue = [138, 2]"] ;
669 -> 670 ;
671 [label="magnitude 15 <= 14.6502\nentropy = 0.0619\nsamples = 138\nvalue = [137, 1]"] ;
670 -> 671 ;
672 [label="entropy = 0.0\nsamples = 134\nvalue = [134, 0]"] ;
671 -> 672 ;
673 [label="median Z <= 8.7086\nentropy = 0.8113\nsamples = 4\nvalue = [3, 1]"] ;
671 -> 673 ;
674 [label="entropy = 0.0\nsamples = 1\nvalue = [0, 1]"] ;
673 -> 674 ;
675 [label="entropy = 0.0\nsamples = 3\nvalue = [3, 0]"] ;
673 -> 675 ;
676 [label="var X <= 0.6446\nentropy = 1.0\nsamples = 2\nvalue = [1, 1]"] ;
670 -> 676 ;
677 [label="entropy = 0.0\nsamples = 1\nvalue = [0, 1]"] ;
676 -> 677 ;
678 [label="entropy = 0.0\nsamples = 1\nvalue = [1, 0]"] ;
676 -> 678 ;
679 [label="magnitude 6 <= 9.3286\nentropy = 0.6723\nsamples = 17\nvalue = [14, 3]"] ;
669 -> 679 ;
680 [label="entropy = 0.0\nsamples = 7\nvalue = [7, 0]"] ;
679 -> 680 ;
681 [label="median X <= 1.0288\nentropy = 0.8813\nsamples = 10\nvalue = [7, 3]"] ;
679 -> 681 ;
682 [label="entropy = 0.0\nsamples = 4\nvalue = [4, 0]"] ;
681 -> 682 ;
683 [label="magnitude 6 <= 10.2792\nentropy = 1.0\nsamples = 6\nvalue = [3, 3]"] ;
681 -> 683 ;
684 [label="mean X <= 1.2209\nentropy = 0.8113\nsamples = 4\nvalue = [1, 3]"] ;
683 -> 684 ;
685 [label="entropy = 0.0\nsamples = 1\nvalue = [1, 0]"] ;
684 -> 685 ;
686 [label="entropy = 0.0\nsamples = 3\nvalue = [0, 3]"] ;
684 -> 686 ;
687 [label="entropy = 0.0\nsamples = 2\nvalue = [2, 0]"] ;
683 -> 687 ;
688 [label="entropy = 0.0\nsamples = 61\nvalue = [61, 0]"] ;
666 -> 688 ;
689 [label="magnitude 2 <= 10.1708\nentropy = 0.5294\nsamples = 50\nvalue = [44, 6]"] ;
665 -> 689 ;
690 [label="magnitude 14 <= 11.8399\nentropy = 0.9403\nsamples = 14\nvalue = [9, 5]"] ;
689 -> 690 ;
691 [label="magnitude 1 <= 9.3492\nentropy = 0.9911\nsamples = 9\nvalue = [4, 5]"] ;
690 -> 691 ;
692 [label="median X <= 4.8847\nentropy = 0.7219\nsamples = 5\nvalue = [4, 1]"] ;
691 -> 692 ;
693 [label="entropy = 0.0\nsamples = 1\nvalue = [0, 1]"] ;
692 -> 693 ;
694 [label="entropy = 0.0\nsamples = 4\nvalue = [4, 0]"] ;
692 -> 694 ;
695 [label="entropy = 0.0\nsamples = 4\nvalue = [0, 4]"] ;
691 -> 695 ;
696 [label="entropy = 0.0\nsamples = 5\nvalue = [5, 0]"] ;
690 -> 696 ;
697 [label="min X <= -1.2826\nentropy = 0.1831\nsamples = 36\nvalue = [35, 1]"] ;
689 -> 697 ;
698 [label="magnitude 2 <= 17.2348\nentropy = 1.0\nsamples = 2\nvalue = [1, 1]"] ;
697 -> 698 ;
699 [label="entropy = 0.0\nsamples = 1\nvalue = [1, 0]"] ;
698 -> 699 ;
700 [label="entropy = 0.0\nsamples = 1\nvalue = [0, 1]"] ;
698 -> 700 ;
701 [label="entropy = 0.0\nsamples = 34\nvalue = [34, 0]"] ;
697 -> 701 ;
702 [label="magnitude 14 <= 10.8672\nentropy = 0.3091\nsamples = 9144\nvalue = [507, 8637]"] ;
0 -> 702 [labeldistance=2.5, labelangle=-45, headlabel="False"] ;
703 [label="var X <= 0.3853\nentropy = 0.2338\nsamples = 8963\nvalue = [342, 8621]"] ;
702 -> 703 ;
704 [label="var X <= 0.0011\nentropy = 0.1333\nsamples = 8567\nvalue = [159, 8408]"] ;
703 -> 704 ;
705 [label="magnitude 12 <= 9.6863\nentropy = 0.5527\nsamples = 304\nvalue = [39, 265]"] ;
704 -> 705 ;
706 [label="entropy = 0.0\nsamples = 39\nvalue = [39, 0]"] ;
705 -> 706 ;
707 [label="entropy = 0.0\nsamples = 265\nvalue = [0, 265]"] ;
705 -> 707 ;
708 [label="max Y <= 1.2097\nentropy = 0.1095\nsamples = 8263\nvalue = [120, 8143]"] ;
704 -> 708 ;
709 [label="var X <= 0.0515\nentropy = 0.0697\nsamples = 7663\nvalue = [64, 7599]"] ;
708 -> 709 ;
710 [label="std Z <= 0.3365\nentropy = 0.039\nsamples = 6226\nvalue = [26, 6200]"] ;
709 -> 710 ;
711 [label="max Z <= 9.6701\nentropy = 0.0353\nsamples = 6199\nvalue = [23, 6176]"] ;
710 -> 711 ;
712 [label="magnitude 15 <= 9.4747\nentropy = 0.1033\nsamples = 1110\nvalue = [15, 1095]"] ;
711 -> 712 ;
713 [label="entropy = 0.0\nsamples = 450\nvalue = [0, 450]"] ;
712 -> 713 ;
714 [label="std X <= 0.0453\nentropy = 0.1565\nsamples = 660\nvalue = [15, 645]"] ;
712 -> 714 ;
715 [label="magnitude 9 <= 9.5318\nentropy = 0.8113\nsamples = 12\nvalue = [9, 3]"] ;
714 -> 715 ;
716 [label="entropy = 0.0\nsamples = 3\nvalue = [0, 3]"] ;
715 -> 716 ;
717 [label="entropy = 0.0\nsamples = 9\nvalue = [9, 0]"] ;
715 -> 717 ;
718 [label="mean Z <= 9.2999\nentropy = 0.0758\nsamples = 648\nvalue = [6, 642]"] ;
714 -> 718 ;
719 [label="std Y <= 0.0995\nentropy = 0.3912\nsamples = 52\nvalue = [4, 48]"] ;
718 -> 719 ;
720 [label="median Y <= -0.7258\nentropy = 0.7025\nsamples = 21\nvalue = [4, 17]"] ;
719 -> 720 ;
721 [label="entropy = 0.0\nsamples = 13\nvalue = [0, 13]"] ;
720 -> 721 ;
722 [label="magnitude 12 <= 9.6465\nentropy = 1.0\nsamples = 8\nvalue = [4, 4]"] ;
720 -> 722 ;
723 [label="entropy = 0.0\nsamples = 3\nvalue = [3, 0]"] ;
722 -> 723 ;
724 [label="magnitude 5 <= 10.1412\nentropy = 0.7219\nsamples = 5\nvalue = [1, 4]"] ;
722 -> 724 ;
725 [label="median X <= 3.7783\nentropy = 1.0\nsamples = 2\nvalue = [1, 1]"] ;
724 -> 725 ;
726 [label="entropy = 0.0\nsamples = 1\nvalue = [0, 1]"] ;
725 -> 726 ;
727 [label="entropy = 0.0\nsamples = 1\nvalue = [1, 0]"] ;
725 -> 727 ;
728 [label="entropy = 0.0\nsamples = 3\nvalue = [0, 3]"] ;
724 -> 728 ;
729 [label="entropy = 0.0\nsamples = 31\nvalue = [0, 31]"] ;
719 -> 729 ;
730 [label="min X <= -0.1293\nentropy = 0.0324\nsamples = 596\nvalue = [2, 594]"] ;
718 -> 730 ;
731 [label="entropy = 0.0\nsamples = 370\nvalue = [0, 370]"] ;
730 -> 731 ;
732 [label="var Z <= 0.0014\nentropy = 0.0731\nsamples = 226\nvalue = [2, 224]"] ;
730 -> 732 ;
733 [label="entropy = 0.0\nsamples = 1\nvalue = [1, 0]"] ;
732 -> 733 ;
734 [label="magnitude 17 <= 9.2618\nentropy = 0.0411\nsamples = 225\nvalue = [1, 224]"] ;
732 -> 734 ;
735 [label="magnitude 0 <= 9.4315\nentropy = 0.8113\nsamples = 4\nvalue = [1, 3]"] ;
734 -> 735 ;
736 [label="entropy = 0.0\nsamples = 3\nvalue = [0, 3]"] ;
735 -> 736 ;
737 [label="entropy = 0.0\nsamples = 1\nvalue = [1, 0]"] ;
735 -> 737 ;
738 [label="entropy = 0.0\nsamples = 221\nvalue = [0, 221]"] ;
734 -> 738 ;
739 [label="magnitude 3 <= 10.7147\nentropy = 0.0169\nsamples = 5089\nvalue = [8, 5081]"] ;
711 -> 739 ;
740 [label="min X <= -1.0876\nentropy = 0.0132\nsamples = 5080\nvalue = [6, 5074]"] ;
739 -> 740 ;
741 [label="std Z <= 0.1215\nentropy = 0.1248\nsamples = 234\nvalue = [4, 230]"] ;
740 -> 741 ;
742 [label="entropy = 0.0\nsamples = 146\nvalue = [0, 146]"] ;
741 -> 742 ;
743 [label="std Z <= 0.1223\nentropy = 0.2668\nsamples = 88\nvalue = [4, 84]"] ;
741 -> 743 ;
744 [label="entropy = 0.0\nsamples = 1\nvalue = [1, 0]"] ;
743 -> 744 ;
745 [label="std Y <= 0.1002\nentropy = 0.2164\nsamples = 87\nvalue = [3, 84]"] ;
743 -> 745 ;
746 [label="max Z <= 10.5308\nentropy = 0.971\nsamples = 5\nvalue = [2, 3]"] ;
745 -> 746 ;
747 [label="entropy = 0.0\nsamples = 3\nvalue = [0, 3]"] ;
746 -> 747 ;
748 [label="entropy = 0.0\nsamples = 2\nvalue = [2, 0]"] ;
746 -> 748 ;
749 [label="magnitude 3 <= 10.4873\nentropy = 0.095\nsamples = 82\nvalue = [1, 81]"] ;
745 -> 749 ;
750 [label="entropy = 0.0\nsamples = 77\nvalue = [0, 77]"] ;
749 -> 750 ;
751 [label="magnitude 15 <= 10.4014\nentropy = 0.7219\nsamples = 5\nvalue = [1, 4]"] ;
749 -> 751 ;
752 [label="entropy = 0.0\nsamples = 4\nvalue = [0, 4]"] ;
751 -> 752 ;
753 [label="entropy = 0.0\nsamples = 1\nvalue = [1, 0]"] ;
751 -> 753 ;
754 [label="mean Y <= -1.5336\nentropy = 0.0052\nsamples = 4846\nvalue = [2, 4844]"] ;
740 -> 754 ;
755 [label="magnitude 7 <= 9.7097\nentropy = 0.2499\nsamples = 24\nvalue = [1, 23]"] ;
754 -> 755 ;
756 [label="magnitude 3 <= 9.681\nentropy = 0.8113\nsamples = 4\nvalue = [1, 3]"] ;
755 -> 756 ;
757 [label="entropy = 0.0\nsamples = 3\nvalue = [0, 3]"] ;
756 -> 757 ;
758 [label="entropy = 0.0\nsamples = 1\nvalue = [1, 0]"] ;
756 -> 758 ;
759 [label="entropy = 0.0\nsamples = 20\nvalue = [0, 20]"] ;
755 -> 759 ;
760 [label="var X <= 0.0403\nentropy = 0.0028\nsamples = 4822\nvalue = [1, 4821]"] ;
754 -> 760 ;
761 [label="entropy = 0.0\nsamples = 4500\nvalue = [0, 4500]"] ;
760 -> 761 ;
762 [label="std X <= 0.2009\nentropy = 0.0303\nsamples = 322\nvalue = [1, 321]"] ;
760 -> 762 ;
763 [label="entropy = 0.0\nsamples = 1\nvalue = [1, 0]"] ;
762 -> 763 ;
764 [label="entropy = 0.0\nsamples = 321\nvalue = [0, 321]"] ;
762 -> 764 ;
765 [label="mean Y <= -0.2619\nentropy = 0.7642\nsamples = 9\nvalue = [2, 7]"] ;
739 -> 765 ;
766 [label="entropy = 0.0\nsamples = 2\nvalue = [2, 0]"] ;
765 -> 766 ;
767 [label="entropy = 0.0\nsamples = 7\nvalue = [0, 7]"] ;
765 -> 767 ;
768 [label="max Y <= -0.3982\nentropy = 0.5033\nsamples = 27\nvalue = [3, 24]"] ;
710 -> 768 ;
769 [label="entropy = 0.0\nsamples = 2\nvalue = [2, 0]"] ;
768 -> 769 ;
770 [label="var Z <= 0.1154\nentropy = 0.2423\nsamples = 25\nvalue = [1, 24]"] ;
768 -> 770 ;
771 [label="entropy = 0.0\nsamples = 1\nvalue = [1, 0]"] ;
770 -> 771 ;
772 [label="entropy = 0.0\nsamples = 24\nvalue = [0, 24]"] ;
770 -> 772 ;
773 [label="magnitude 0 <= 11.1112\nentropy = 0.1762\nsamples = 1437\nvalue = [38, 1399]"] ;
709 -> 773 ;
774 [label="magnitude 4 <= 9.8909\nentropy = 0.162\nsamples = 1432\nvalue = [34, 1398]"] ;
773 -> 774 ;
775 [label="median X <= -0.7341\nentropy = 0.0838\nsamples = 956\nvalue = [10, 946]"] ;
774 -> 775 ;
776 [label="magnitude 7 <= 9.4085\nentropy = 0.3173\nsamples = 87\nvalue = [5, 82]"] ;
775 -> 776 ;
777 [label="max Y <= 0.367\nentropy = 0.7793\nsamples = 13\nvalue = [3, 10]"] ;
776 -> 777 ;
778 [label="entropy = 0.0\nsamples = 8\nvalue = [0, 8]"] ;
777 -> 778 ;
779 [label="max Y <= 0.6909\nentropy = 0.971\nsamples = 5\nvalue = [3, 2]"] ;
777 -> 779 ;
780 [label="entropy = 0.0\nsamples = 3\nvalue = [3, 0]"] ;
779 -> 780 ;
781 [label="entropy = 0.0\nsamples = 2\nvalue = [0, 2]"] ;
779 -> 781 ;
782 [label="median Y <= 0.5603\nentropy = 0.1793\nsamples = 74\nvalue = [2, 72]"] ;
776 -> 782 ;
783 [label="magnitude 12 <= 9.2604\nentropy = 0.1056\nsamples = 72\nvalue = [1, 71]"] ;
782 -> 783 ;
784 [label="magnitude 10 <= 9.5903\nentropy = 0.5033\nsamples = 9\nvalue = [1, 8]"] ;
783 -> 784 ;
785 [label="magnitude 13 <= 9.3781\nentropy = 0.9183\nsamples = 3\nvalue = [1, 2]"] ;
784 -> 785 ;
786 [label="entropy = 0.0\nsamples = 1\nvalue = [1, 0]"] ;
785 -> 786 ;
787 [label="entropy = 0.0\nsamples = 2\nvalue = [0, 2]"] ;
785 -> 787 ;
788 [label="entropy = 0.0\nsamples = 6\nvalue = [0, 6]"] ;
784 -> 788 ;
789 [label="entropy = 0.0\nsamples = 63\nvalue = [0, 63]"] ;
783 -> 789 ;
790 [label="magnitude 11 <= 10.4358\nentropy = 1.0\nsamples = 2\nvalue = [1, 1]"] ;
782 -> 790 ;
791 [label="entropy = 0.0\nsamples = 1\nvalue = [1, 0]"] ;
790 -> 791 ;
792 [label="entropy = 0.0\nsamples = 1\nvalue = [0, 1]"] ;
790 -> 792 ;
793 [label="median Y <= -0.9408\nentropy = 0.0511\nsamples = 869\nvalue = [5, 864]"] ;
775 -> 793 ;
794 [label="mean Y <= -1.286\nentropy = 0.3263\nsamples = 67\nvalue = [4, 63]"] ;
793 -> 794 ;
795 [label="entropy = 0.0\nsamples = 39\nvalue = [0, 39]"] ;
794 -> 795 ;
796 [label="var Z <= 0.0162\nentropy = 0.5917\nsamples = 28\nvalue = [4, 24]"] ;
794 -> 796 ;
797 [label="entropy = 0.0\nsamples = 2\nvalue = [2, 0]"] ;
796 -> 797 ;
798 [label="magnitude 19 <= 8.959\nentropy = 0.3912\nsamples = 26\nvalue = [2, 24]"] ;
796 -> 798 ;
799 [label="entropy = 0.0\nsamples = 1\nvalue = [1, 0]"] ;
798 -> 799 ;
800 [label="median Y <= -1.2734\nentropy = 0.2423\nsamples = 25\nvalue = [1, 24]"] ;
798 -> 800 ;
801 [label="entropy = 0.0\nsamples = 1\nvalue = [1, 0]"] ;
800 -> 801 ;
802 [label="entropy = 0.0\nsamples = 24\nvalue = [0, 24]"] ;
800 -> 802 ;
803 [label="mean X <= -0.6564\nentropy = 0.0138\nsamples = 802\nvalue = [1, 801]"] ;
793 -> 803 ;
804 [label="magnitude 5 <= 9.9015\nentropy = 0.3228\nsamples = 17\nvalue = [1, 16]"] ;
803 -> 804 ;
805 [label="entropy = 0.0\nsamples = 15\nvalue = [0, 15]"] ;
804 -> 805 ;
806 [label="var Y <= 0.0738\nentropy = 1.0\nsamples = 2\nvalue = [1, 1]"] ;
804 -> 806 ;
807 [label="entropy = 0.0\nsamples = 1\nvalue = [1, 0]"] ;
806 -> 807 ;
808 [label="entropy = 0.0\nsamples = 1\nvalue = [0, 1]"] ;
806 -> 808 ;
809 [label="entropy = 0.0\nsamples = 785\nvalue = [0, 785]"] ;
803 -> 809 ;
810 [label="median Y <= -0.8933\nentropy = 0.2882\nsamples = 476\nvalue = [24, 452]"] ;
774 -> 810 ;
811 [label="magnitude 7 <= 10.5134\nentropy = 0.6116\nsamples = 73\nvalue = [11, 62]"] ;
810 -> 811 ;
812 [label="magnitude 13 <= 10.5184\nentropy = 0.4441\nsamples = 65\nvalue = [6, 59]"] ;
811 -> 812 ;
813 [label="magnitude 18 <= 9.9296\nentropy = 0.2937\nsamples = 58\nvalue = [3, 55]"] ;
812 -> 813 ;
814 [label="std Z <= 0.1158\nentropy = 0.6098\nsamples = 20\nvalue = [3, 17]"] ;
813 -> 814 ;
815 [label="entropy = 0.0\nsamples = 1\nvalue = [1, 0]"] ;
814 -> 815 ;
816 [label="magnitude 10 <= 10.1465\nentropy = 0.4855\nsamples = 19\nvalue = [2, 17]"] ;
814 -> 816 ;
817 [label="magnitude 9 <= 9.3742\nentropy = 0.3095\nsamples = 18\nvalue = [1, 17]"] ;
816 -> 817 ;
818 [label="entropy = 0.0\nsamples = 1\nvalue = [1, 0]"] ;
817 -> 818 ;
819 [label="entropy = 0.0\nsamples = 17\nvalue = [0, 17]"] ;
817 -> 819 ;
820 [label="entropy = 0.0\nsamples = 1\nvalue = [1, 0]"] ;
816 -> 820 ;
821 [label="entropy = 0.0\nsamples = 38\nvalue = [0, 38]"] ;
813 -> 821 ;
822 [label="min X <= -1.8222\nentropy = 0.9852\nsamples = 7\nvalue = [3, 4]"] ;
812 -> 822 ;
823 [label="entropy = 0.0\nsamples = 3\nvalue = [0, 3]"] ;
822 -> 823 ;
824 [label="magnitude 11 <= 10.3849\nentropy = 0.8113\nsamples = 4\nvalue = [3, 1]"] ;
822 -> 824 ;
825 [label="magnitude 15 <= 9.9657\nentropy = 1.0\nsamples = 2\nvalue = [1, 1]"] ;
824 -> 825 ;
826 [label="entropy = 0.0\nsamples = 1\nvalue = [1, 0]"] ;
825 -> 826 ;
827 [label="entropy = 0.0\nsamples = 1\nvalue = [0, 1]"] ;
825 -> 827 ;
828 [label="entropy = 0.0\nsamples = 2\nvalue = [2, 0]"] ;
824 -> 828 ;
829 [label="magnitude 15 <= 10.2276\nentropy = 0.9544\nsamples = 8\nvalue = [5, 3]"] ;
811 -> 829 ;
830 [label="magnitude 18 <= 9.6417\nentropy = 0.8113\nsamples = 4\nvalue = [1, 3]"] ;
829 -> 830 ;
831 [label="entropy = 0.0\nsamples = 1\nvalue = [1, 0]"] ;
830 -> 831 ;
832 [label="entropy = 0.0\nsamples = 3\nvalue = [0, 3]"] ;
830 -> 832 ;
833 [label="entropy = 0.0\nsamples = 4\nvalue = [4, 0]"] ;
829 -> 833 ;
834 [label="max X <= 3.3944\nentropy = 0.2056\nsamples = 403\nvalue = [13, 390]"] ;
810 -> 834 ;
835 [label="median X <= -0.7886\nentropy = 0.1562\nsamples = 397\nvalue = [9, 388]"] ;
834 -> 835 ;
836 [label="magnitude 7 <= 9.8638\nentropy = 0.4754\nsamples = 49\nvalue = [5, 44]"] ;
835 -> 836 ;
837 [label="magnitude 3 <= 9.7851\nentropy = 0.971\nsamples = 10\nvalue = [4, 6]"] ;
836 -> 837 ;
838 [label="entropy = 0.0\nsamples = 4\nvalue = [0, 4]"] ;
837 -> 838 ;
839 [label="magnitude 6 <= 9.752\nentropy = 0.9183\nsamples = 6\nvalue = [4, 2]"] ;
837 -> 839 ;
840 [label="entropy = 0.0\nsamples = 2\nvalue = [0, 2]"] ;
839 -> 840 ;
841 [label="entropy = 0.0\nsamples = 4\nvalue = [4, 0]"] ;
839 -> 841 ;
842 [label="magnitude 7 <= 10.323\nentropy = 0.172\nsamples = 39\nvalue = [1, 38]"] ;
836 -> 842 ;
843 [label="entropy = 0.0\nsamples = 31\nvalue = [0, 31]"] ;
842 -> 843 ;
844 [label="max Z <= 10.2878\nentropy = 0.5436\nsamples = 8\nvalue = [1, 7]"] ;
842 -> 844 ;
845 [label="entropy = 0.0\nsamples = 1\nvalue = [1, 0]"] ;
844 -> 845 ;
846 [label="entropy = 0.0\nsamples = 7\nvalue = [0, 7]"] ;
844 -> 846 ;
847 [label="magnitude 19 <= 10.6292\nentropy = 0.0905\nsamples = 348\nvalue = [4, 344]"] ;
835 -> 847 ;
848 [label="max X <= 2.5953\nentropy = 0.0523\nsamples = 338\nvalue = [2, 336]"] ;
847 -> 848 ;
849 [label="var Y <= 0.1644\nentropy = 0.0299\nsamples = 328\nvalue = [1, 327]"] ;
848 -> 849 ;
850 [label="entropy = 0.0\nsamples = 271\nvalue = [0, 271]"] ;
849 -> 850 ;
851 [label="magnitude 2 <= 10.6033\nentropy = 0.1274\nsamples = 57\nvalue = [1, 56]"] ;
849 -> 851 ;
852 [label="entropy = 0.0\nsamples = 54\nvalue = [0, 54]"] ;
851 -> 852 ;
853 [label="mean Z <= 10.2129\nentropy = 0.9183\nsamples = 3\nvalue = [1, 2]"] ;
851 -> 853 ;
854 [label="entropy = 0.0\nsamples = 1\nvalue = [1, 0]"] ;
853 -> 854 ;
855 [label="entropy = 0.0\nsamples = 2\nvalue = [0, 2]"] ;
853 -> 855 ;
856 [label="magnitude 8 <= 9.8375\nentropy = 0.469\nsamples = 10\nvalue = [1, 9]"] ;
848 -> 856 ;
857 [label="entropy = 0.0\nsamples = 1\nvalue = [1, 0]"] ;
856 -> 857 ;
858 [label="entropy = 0.0\nsamples = 9\nvalue = [0, 9]"] ;
856 -> 858 ;
859 [label="magnitude 6 <= 10.3241\nentropy = 0.7219\nsamples = 10\nvalue = [2, 8]"] ;
847 -> 859 ;
860 [label="entropy = 0.0\nsamples = 6\nvalue = [0, 6]"] ;
859 -> 860 ;
861 [label="magnitude 6 <= 10.4488\nentropy = 1.0\nsamples = 4\nvalue = [2, 2]"] ;
859 -> 861 ;
862 [label="entropy = 0.0\nsamples = 2\nvalue = [2, 0]"] ;
861 -> 862 ;
863 [label="entropy = 0.0\nsamples = 2\nvalue = [0, 2]"] ;
861 -> 863 ;
864 [label="max X <= 4.2851\nentropy = 0.9183\nsamples = 6\nvalue = [4, 2]"] ;
834 -> 864 ;
865 [label="entropy = 0.0\nsamples = 3\nvalue = [3, 0]"] ;
864 -> 865 ;
866 [label="mean Z <= 8.81\nentropy = 0.9183\nsamples = 3\nvalue = [1, 2]"] ;
864 -> 866 ;
867 [label="entropy = 0.0\nsamples = 1\nvalue = [1, 0]"] ;
866 -> 867 ;
868 [label="entropy = 0.0\nsamples = 2\nvalue = [0, 2]"] ;
866 -> 868 ;
869 [label="magnitude 16 <= 10.4798\nentropy = 0.7219\nsamples = 5\nvalue = [4, 1]"] ;
773 -> 869 ;
870 [label="entropy = 0.0\nsamples = 1\nvalue = [0, 1]"] ;
869 -> 870 ;
871 [label="entropy = 0.0\nsamples = 4\nvalue = [4, 0]"] ;
869 -> 871 ;
872 [label="magnitude 8 <= 10.2547\nentropy = 0.4475\nsamples = 600\nvalue = [56, 544]"] ;
708 -> 872 ;
873 [label="magnitude 16 <= 10.7247\nentropy = 0.3505\nsamples = 531\nvalue = [35, 496]"] ;
872 -> 873 ;
874 [label="median X <= -0.2981\nentropy = 0.3087\nsamples = 524\nvalue = [29, 495]"] ;
873 -> 874 ;
875 [label="magnitude 6 <= 9.522\nentropy = 0.624\nsamples = 122\nvalue = [19, 103]"] ;
874 -> 875 ;
876 [label="entropy = 0.0\nsamples = 19\nvalue = [0, 19]"] ;
875 -> 876 ;
877 [label="var X <= 0.0134\nentropy = 0.6898\nsamples = 103\nvalue = [19, 84]"] ;
875 -> 877 ;
878 [label="magnitude 12 <= 9.628\nentropy = 0.951\nsamples = 27\nvalue = [10, 17]"] ;
877 -> 878 ;
879 [label="entropy = 0.0\nsamples = 4\nvalue = [4, 0]"] ;
878 -> 879 ;
880 [label="std Y <= 0.0823\nentropy = 0.8281\nsamples = 23\nvalue = [6, 17]"] ;
878 -> 880 ;
881 [label="entropy = 0.0\nsamples = 3\nvalue = [3, 0]"] ;
880 -> 881 ;
882 [label="var X <= 0.0125\nentropy = 0.6098\nsamples = 20\nvalue = [3, 17]"] ;
880 -> 882 ;
883 [label="magnitude 2 <= 10.2599\nentropy = 0.3095\nsamples = 18\nvalue = [1, 17]"] ;
882 -> 883 ;
884 [label="entropy = 0.0\nsamples = 15\nvalue = [0, 15]"] ;
883 -> 884 ;
885 [label="magnitude 5 <= 10.2358\nentropy = 0.9183\nsamples = 3\nvalue = [1, 2]"] ;
883 -> 885 ;
886 [label="entropy = 0.0\nsamples = 2\nvalue = [0, 2]"] ;
885 -> 886 ;
887 [label="entropy = 0.0\nsamples = 1\nvalue = [1, 0]"] ;
885 -> 887 ;
888 [label="entropy = 0.0\nsamples = 2\nvalue = [2, 0]"] ;
882 -> 888 ;
889 [label="mean Y <= 1.5437\nentropy = 0.5248\nsamples = 76\nvalue = [9, 67]"] ;
877 -> 889 ;
890 [label="min X <= -1.7789\nentropy = 0.7309\nsamples = 44\nvalue = [9, 35]"] ;
889 -> 890 ;
891 [label="entropy = 0.0\nsamples = 8\nvalue = [0, 8]"] ;
890 -> 891 ;
892 [label="min X <= -1.3124\nentropy = 0.8113\nsamples = 36\nvalue = [9, 27]"] ;
890 -> 892 ;
893 [label="var Z <= 0.0246\nentropy = 0.994\nsamples = 11\nvalue = [5, 6]"] ;
892 -> 893 ;
894 [label="entropy = 0.0\nsamples = 2\nvalue = [2, 0]"] ;
893 -> 894 ;
895 [label="magnitude 16 <= 10.3311\nentropy = 0.9183\nsamples = 9\nvalue = [3, 6]"] ;
893 -> 895 ;
896 [label="magnitude 8 <= 9.8407\nentropy = 0.8113\nsamples = 8\nvalue = [2, 6]"] ;
895 -> 896 ;
897 [label="entropy = 0.0\nsamples = 4\nvalue = [0, 4]"] ;
896 -> 897 ;
898 [label="magnitude 7 <= 9.7231\nentropy = 1.0\nsamples = 4\nvalue = [2, 2]"] ;
896 -> 898 ;
899 [label="entropy = 0.0\nsamples = 2\nvalue = [2, 0]"] ;
898 -> 899 ;
900 [label="entropy = 0.0\nsamples = 2\nvalue = [0, 2]"] ;
898 -> 900 ;
901 [label="entropy = 0.0\nsamples = 1\nvalue = [1, 0]"] ;
895 -> 901 ;
902 [label="median Z <= 9.8063\nentropy = 0.6343\nsamples = 25\nvalue = [4, 21]"] ;
892 -> 902 ;
903 [label="median Z <= 9.6491\nentropy = 0.8113\nsamples = 16\nvalue = [4, 12]"] ;
902 -> 903 ;
904 [label="entropy = 0.0\nsamples = 8\nvalue = [0, 8]"] ;
903 -> 904 ;
905 [label="magnitude 3 <= 9.7568\nentropy = 1.0\nsamples = 8\nvalue = [4, 4]"] ;
903 -> 905 ;
906 [label="entropy = 0.0\nsamples = 3\nvalue = [0, 3]"] ;
905 -> 906 ;
907 [label="magnitude 15 <= 10.1325\nentropy = 0.7219\nsamples = 5\nvalue = [4, 1]"] ;
905 -> 907 ;
908 [label="entropy = 0.0\nsamples = 4\nvalue = [4, 0]"] ;
907 -> 908 ;
909 [label="entropy = 0.0\nsamples = 1\nvalue = [0, 1]"] ;
907 -> 909 ;
910 [label="entropy = 0.0\nsamples = 9\nvalue = [0, 9]"] ;
902 -> 910 ;
911 [label="entropy = 0.0\nsamples = 32\nvalue = [0, 32]"] ;
889 -> 911 ;
912 [label="magnitude 4 <= 9.7532\nentropy = 0.168\nsamples = 402\nvalue = [10, 392]"] ;
874 -> 912 ;
913 [label="magnitude 2 <= 10.5901\nentropy = 0.3064\nsamples = 146\nvalue = [8, 138]"] ;
912 -> 913 ;
914 [label="std Y <= 0.181\nentropy = 0.2499\nsamples = 144\nvalue = [6, 138]"] ;
913 -> 914 ;
915 [label="mean Y <= 1.6126\nentropy = 0.6913\nsamples = 27\nvalue = [5, 22]"] ;
914 -> 915 ;
916 [label="var Y <= 0.026\nentropy = 0.874\nsamples = 17\nvalue = [5, 12]"] ;
915 -> 916 ;
917 [label="max X <= 2.5456\nentropy = 0.7219\nsamples = 15\nvalue = [3, 12]"] ;
916 -> 917 ;
918 [label="max X <= 0.3529\nentropy = 0.3912\nsamples = 13\nvalue = [1, 12]"] ;
917 -> 918 ;
919 [label="entropy = 0.0\nsamples = 1\nvalue = [1, 0]"] ;
918 -> 919 ;
920 [label="entropy = 0.0\nsamples = 12\nvalue = [0, 12]"] ;
918 -> 920 ;
921 [label="entropy = 0.0\nsamples = 2\nvalue = [2, 0]"] ;
917 -> 921 ;
922 [label="entropy = 0.0\nsamples = 2\nvalue = [2, 0]"] ;
916 -> 922 ;
923 [label="entropy = 0.0\nsamples = 10\nvalue = [0, 10]"] ;
915 -> 923 ;
924 [label="min Y <= -1.1673\nentropy = 0.071\nsamples = 117\nvalue = [1, 116]"] ;
914 -> 924 ;
925 [label="magnitude 2 <= 9.0653\nentropy = 0.5436\nsamples = 8\nvalue = [1, 7]"] ;
924 -> 925 ;
926 [label="entropy = 0.0\nsamples = 1\nvalue = [1, 0]"] ;
925 -> 926 ;
927 [label="entropy = 0.0\nsamples = 7\nvalue = [0, 7]"] ;
925 -> 927 ;
928 [label="entropy = 0.0\nsamples = 109\nvalue = [0, 109]"] ;
924 -> 928 ;
929 [label="entropy = 0.0\nsamples = 2\nvalue = [2, 0]"] ;
913 -> 929 ;
930 [label="magnitude 6 <= 10.2509\nentropy = 0.0659\nsamples = 256\nvalue = [2, 254]"] ;
912 -> 930 ;
931 [label="entropy = 0.0\nsamples = 231\nvalue = [0, 231]"] ;
930 -> 931 ;
932 [label="magnitude 6 <= 10.2581\nentropy = 0.4022\nsamples = 25\nvalue = [2, 23]"] ;
930 -> 932 ;
933 [label="entropy = 0.0\nsamples = 1\nvalue = [1, 0]"] ;
932 -> 933 ;
934 [label="magnitude 5 <= 9.9405\nentropy = 0.2499\nsamples = 24\nvalue = [1, 23]"] ;
932 -> 934 ;
935 [label="min Z <= 8.6793\nentropy = 1.0\nsamples = 2\nvalue = [1, 1]"] ;
934 -> 935 ;
936 [label="entropy = 0.0\nsamples = 1\nvalue = [1, 0]"] ;
935 -> 936 ;
937 [label="entropy = 0.0\nsamples = 1\nvalue = [0, 1]"] ;
935 -> 937 ;
938 [label="entropy = 0.0\nsamples = 22\nvalue = [0, 22]"] ;
934 -> 938 ;
939 [label="var X <= 0.3325\nentropy = 0.5917\nsamples = 7\nvalue = [6, 1]"] ;
873 -> 939 ;
940 [label="entropy = 0.0\nsamples = 6\nvalue = [6, 0]"] ;
939 -> 940 ;
941 [label="entropy = 0.0\nsamples = 1\nvalue = [0, 1]"] ;
939 -> 941 ;
942 [label="magnitude 19 <= 10.4369\nentropy = 0.8865\nsamples = 69\nvalue = [21, 48]"] ;
872 -> 942 ;
943 [label="median Z <= 9.0114\nentropy = 0.7355\nsamples = 58\nvalue = [12, 46]"] ;
942 -> 943 ;
944 [label="entropy = 0.0\nsamples = 3\nvalue = [3, 0]"] ;
943 -> 944 ;
945 [label="magnitude 4 <= 10.3528\nentropy = 0.6429\nsamples = 55\nvalue = [9, 46]"] ;
943 -> 945 ;
946 [label="max Y <= 2.1922\nentropy = 0.3712\nsamples = 42\nvalue = [3, 39]"] ;
945 -> 946 ;
947 [label="entropy = 0.0\nsamples = 27\nvalue = [0, 27]"] ;
946 -> 947 ;
948 [label="magnitude 1 <= 10.2889\nentropy = 0.7219\nsamples = 15\nvalue = [3, 12]"] ;
946 -> 948 ;
949 [label="entropy = 0.0\nsamples = 10\nvalue = [0, 10]"] ;
948 -> 949 ;
950 [label="magnitude 7 <= 10.3917\nentropy = 0.971\nsamples = 5\nvalue = [3, 2]"] ;
948 -> 950 ;
951 [label="min Y <= 2.4298\nentropy = 0.9183\nsamples = 3\nvalue = [1, 2]"] ;
950 -> 951 ;
952 [label="entropy = 0.0\nsamples = 2\nvalue = [0, 2]"] ;
951 -> 952 ;
953 [label="entropy = 0.0\nsamples = 1\nvalue = [1, 0]"] ;
951 -> 953 ;
954 [label="entropy = 0.0\nsamples = 2\nvalue = [2, 0]"] ;
950 -> 954 ;
955 [label="magnitude 3 <= 10.6396\nentropy = 0.9957\nsamples = 13\nvalue = [6, 7]"] ;
945 -> 955 ;
956 [label="magnitude 11 <= 10.1107\nentropy = 0.8813\nsamples = 10\nvalue = [3, 7]"] ;
955 -> 956 ;
957 [label="entropy = 0.0\nsamples = 5\nvalue = [0, 5]"] ;
956 -> 957 ;
958 [label="mean Y <= 1.8623\nentropy = 0.971\nsamples = 5\nvalue = [3, 2]"] ;
956 -> 958 ;
959 [label="entropy = 0.0\nsamples = 2\nvalue = [0, 2]"] ;
958 -> 959 ;
960 [label="entropy = 0.0\nsamples = 3\nvalue = [3, 0]"] ;
958 -> 960 ;
961 [label="entropy = 0.0\nsamples = 3\nvalue = [3, 0]"] ;
955 -> 961 ;
962 [label="min Z <= 9.7594\nentropy = 0.684\nsamples = 11\nvalue = [9, 2]"] ;
942 -> 962 ;
963 [label="entropy = 0.0\nsamples = 9\nvalue = [9, 0]"] ;
962 -> 963 ;
964 [label="entropy = 0.0\nsamples = 2\nvalue = [0, 2]"] ;
962 -> 964 ;
965 [label="magnitude 4 <= 10.7994\nentropy = 0.9959\nsamples = 396\nvalue = [183, 213]"] ;
703 -> 965 ;
966 [label="max Z <= 11.4628\nentropy = 0.9296\nsamples = 313\nvalue = [108, 205]"] ;
965 -> 966 ;
967 [label="max Z <= 11.2375\nentropy = 0.3976\nsamples = 216\nvalue = [17, 199]"] ;
966 -> 967 ;
968 [label="magnitude 7 <= 9.1228\nentropy = 0.3228\nsamples = 204\nvalue = [12, 192]"] ;
967 -> 968 ;
969 [label="entropy = 0.0\nsamples = 3\nvalue = [3, 0]"] ;
968 -> 969 ;
970 [label="magnitude 15 <= 9.23\nentropy = 0.2638\nsamples = 201\nvalue = [9, 192]"] ;
968 -> 970 ;
971 [label="magnitude 14 <= 9.4769\nentropy = 0.8113\nsamples = 8\nvalue = [2, 6]"] ;
970 -> 971 ;
972 [label="max Z <= 10.3442\nentropy = 1.0\nsamples = 4\nvalue = [2, 2]"] ;
971 -> 972 ;
973 [label="entropy = 0.0\nsamples = 2\nvalue = [2, 0]"] ;
972 -> 973 ;
974 [label="entropy = 0.0\nsamples = 2\nvalue = [0, 2]"] ;
972 -> 974 ;
975 [label="entropy = 0.0\nsamples = 4\nvalue = [0, 4]"] ;
971 -> 975 ;
976 [label="std X <= 0.6233\nentropy = 0.2249\nsamples = 193\nvalue = [7, 186]"] ;
970 -> 976 ;
977 [label="entropy = 0.0\nsamples = 1\nvalue = [1, 0]"] ;
976 -> 977 ;
978 [label="magnitude 19 <= 8.7113\nentropy = 0.2006\nsamples = 192\nvalue = [6, 186]"] ;
976 -> 978 ;
979 [label="entropy = 0.0\nsamples = 1\nvalue = [1, 0]"] ;
978 -> 979 ;
980 [label="mean Y <= 0.5046\nentropy = 0.1748\nsamples = 191\nvalue = [5, 186]"] ;
978 -> 980 ;
981 [label="median Y <= -0.0204\nentropy = 0.2483\nsamples = 121\nvalue = [5, 116]"] ;
980 -> 981 ;
982 [label="entropy = 0.0\nsamples = 72\nvalue = [0, 72]"] ;
981 -> 982 ;
983 [label="magnitude 18 <= 9.932\nentropy = 0.4754\nsamples = 49\nvalue = [5, 44]"] ;
981 -> 983 ;
984 [label="magnitude 6 <= 9.7209\nentropy = 0.6632\nsamples = 29\nvalue = [5, 24]"] ;
983 -> 984 ;
985 [label="magnitude 8 <= 9.916\nentropy = 0.9911\nsamples = 9\nvalue = [4, 5]"] ;
984 -> 985 ;
986 [label="magnitude 8 <= 9.5675\nentropy = 0.9183\nsamples = 6\nvalue = [4, 2]"] ;
985 -> 986 ;
987 [label="entropy = 0.0\nsamples = 2\nvalue = [0, 2]"] ;
986 -> 987 ;
988 [label="entropy = 0.0\nsamples = 4\nvalue = [4, 0]"] ;
986 -> 988 ;
989 [label="entropy = 0.0\nsamples = 3\nvalue = [0, 3]"] ;
985 -> 989 ;
990 [label="std Y <= 1.1728\nentropy = 0.2864\nsamples = 20\nvalue = [1, 19]"] ;
984 -> 990 ;
991 [label="entropy = 0.0\nsamples = 18\nvalue = [0, 18]"] ;
990 -> 991 ;
992 [label="magnitude 8 <= 9.685\nentropy = 1.0\nsamples = 2\nvalue = [1, 1]"] ;
990 -> 992 ;
993 [label="entropy = 0.0\nsamples = 1\nvalue = [0, 1]"] ;
992 -> 993 ;
994 [label="entropy = 0.0\nsamples = 1\nvalue = [1, 0]"] ;
992 -> 994 ;
995 [label="entropy = 0.0\nsamples = 20\nvalue = [0, 20]"] ;
983 -> 995 ;
996 [label="entropy = 0.0\nsamples = 70\nvalue = [0, 70]"] ;
980 -> 996 ;
997 [label="min Y <= 1.9913\nentropy = 0.9799\nsamples = 12\nvalue = [5, 7]"] ;
967 -> 997 ;
998 [label="magnitude 12 <= 9.8491\nentropy = 0.8813\nsamples = 10\nvalue = [3, 7]"] ;
997 -> 998 ;
999 [label="entropy = 0.0\nsamples = 4\nvalue = [0, 4]"] ;
998 -> 999 ;
1000 [label="max Y <= 1.2986\nentropy = 1.0\nsamples = 6\nvalue = [3, 3]"] ;
998 -> 1000 ;
1001 [label="entropy = 0.0\nsamples = 2\nvalue = [0, 2]"] ;
1000 -> 1001 ;
1002 [label="mean Y <= 1.9349\nentropy = 0.8113\nsamples = 4\nvalue = [3, 1]"] ;
1000 -> 1002 ;
1003 [label="entropy = 0.0\nsamples = 3\nvalue = [3, 0]"] ;
1002 -> 1003 ;
1004 [label="entropy = 0.0\nsamples = 1\nvalue = [0, 1]"] ;
1002 -> 1004 ;
1005 [label="entropy = 0.0\nsamples = 2\nvalue = [2, 0]"] ;
997 -> 1005 ;
1006 [label="magnitude 10 <= 10.53\nentropy = 0.3348\nsamples = 97\nvalue = [91, 6]"] ;
966 -> 1006 ;
1007 [label="min X <= -2.3402\nentropy = 0.4855\nsamples = 57\nvalue = [51, 6]"] ;
1006 -> 1007 ;
1008 [label="entropy = 0.0\nsamples = 20\nvalue = [20, 0]"] ;
1007 -> 1008 ;
1009 [label="magnitude 6 <= 10.4701\nentropy = 0.6395\nsamples = 37\nvalue = [31, 6]"] ;
1007 -> 1009 ;
1010 [label="magnitude 14 <= 9.7636\nentropy = 0.8113\nsamples = 24\nvalue = [18, 6]"] ;
1009 -> 1010 ;
1011 [label="median X <= -0.5762\nentropy = 0.7219\nsamples = 5\nvalue = [1, 4]"] ;
1010 -> 1011 ;
1012 [label="entropy = 0.0\nsamples = 1\nvalue = [1, 0]"] ;
1011 -> 1012 ;
1013 [label="entropy = 0.0\nsamples = 4\nvalue = [0, 4]"] ;
1011 -> 1013 ;
1014 [label="min X <= -2.265\nentropy = 0.4855\nsamples = 19\nvalue = [17, 2]"] ;
1010 -> 1014 ;
1015 [label="entropy = 0.0\nsamples = 1\nvalue = [0, 1]"] ;
1014 -> 1015 ;
1016 [label="magnitude 16 <= 9.717\nentropy = 0.3095\nsamples = 18\nvalue = [17, 1]"] ;
1014 -> 1016 ;
1017 [label="magnitude 3 <= 10.163\nentropy = 1.0\nsamples = 2\nvalue = [1, 1]"] ;
1016 -> 1017 ;
1018 [label="entropy = 0.0\nsamples = 1\nvalue = [0, 1]"] ;
1017 -> 1018 ;
1019 [label="entropy = 0.0\nsamples = 1\nvalue = [1, 0]"] ;
1017 -> 1019 ;
1020 [label="entropy = 0.0\nsamples = 16\nvalue = [16, 0]"] ;
1016 -> 1020 ;
1021 [label="entropy = 0.0\nsamples = 13\nvalue = [13, 0]"] ;
1009 -> 1021 ;
1022 [label="entropy = 0.0\nsamples = 40\nvalue = [40, 0]"] ;
1006 -> 1022 ;
1023 [label="mean Z <= 10.2088\nentropy = 0.4574\nsamples = 83\nvalue = [75, 8]"] ;
965 -> 1023 ;
1024 [label="magnitude 15 <= 9.543\nentropy = 0.9612\nsamples = 13\nvalue = [5, 8]"] ;
1023 -> 1024 ;
1025 [label="mean X <= -0.2612\nentropy = 0.65\nsamples = 6\nvalue = [5, 1]"] ;
1024 -> 1025 ;
1026 [label="entropy = 0.0\nsamples = 1\nvalue = [0, 1]"] ;
1025 -> 1026 ;
1027 [label="entropy = 0.0\nsamples = 5\nvalue = [5, 0]"] ;
1025 -> 1027 ;
1028 [label="entropy = 0.0\nsamples = 7\nvalue = [0, 7]"] ;
1024 -> 1028 ;
1029 [label="entropy = 0.0\nsamples = 70\nvalue = [70, 0]"] ;
1023 -> 1029 ;
1030 [label="magnitude 13 <= 11.3826\nentropy = 0.4311\nsamples = 181\nvalue = [165, 16]"] ;
702 -> 1030 ;
1031 [label="magnitude 16 <= 10.9514\nentropy = 0.7321\nsamples = 78\nvalue = [62, 16]"] ;
1030 -> 1031 ;
1032 [label="median X <= -0.9132\nentropy = 0.9268\nsamples = 38\nvalue = [25, 13]"] ;
1031 -> 1032 ;
1033 [label="entropy = 0.0\nsamples = 5\nvalue = [0, 5]"] ;
1032 -> 1033 ;
1034 [label="var X <= 0.5088\nentropy = 0.799\nsamples = 33\nvalue = [25, 8]"] ;
1032 -> 1034 ;
1035 [label="min Y <= 1.7104\nentropy = 0.994\nsamples = 11\nvalue = [5, 6]"] ;
1034 -> 1035 ;
1036 [label="magnitude 15 <= 10.7704\nentropy = 0.8113\nsamples = 8\nvalue = [2, 6]"] ;
1035 -> 1036 ;
1037 [label="entropy = 0.0\nsamples = 5\nvalue = [0, 5]"] ;
1036 -> 1037 ;
1038 [label="magnitude 11 <= 10.4104\nentropy = 0.9183\nsamples = 3\nvalue = [2, 1]"] ;
1036 -> 1038 ;
1039 [label="entropy = 0.0\nsamples = 2\nvalue = [2, 0]"] ;
1038 -> 1039 ;
1040 [label="entropy = 0.0\nsamples = 1\nvalue = [0, 1]"] ;
1038 -> 1040 ;
1041 [label="entropy = 0.0\nsamples = 3\nvalue = [3, 0]"] ;
1035 -> 1041 ;
1042 [label="max Z <= 11.1573\nentropy = 0.4395\nsamples = 22\nvalue = [20, 2]"] ;
1034 -> 1042 ;
1043 [label="entropy = 0.0\nsamples = 2\nvalue = [0, 2]"] ;
1042 -> 1043 ;
1044 [label="entropy = 0.0\nsamples = 20\nvalue = [20, 0]"] ;
1042 -> 1044 ;
1045 [label="magnitude 19 <= 10.3116\nentropy = 0.3843\nsamples = 40\nvalue = [37, 3]"] ;
1031 -> 1045 ;
1046 [label="magnitude 15 <= 11.859\nentropy = 0.6962\nsamples = 16\nvalue = [13, 3]"] ;
1045 -> 1046 ;
1047 [label="var Y <= 0.9028\nentropy = 0.9544\nsamples = 8\nvalue = [5, 3]"] ;
1046 -> 1047 ;
1048 [label="magnitude 19 <= 9.0339\nentropy = 0.8113\nsamples = 4\nvalue = [1, 3]"] ;
1047 -> 1048 ;
1049 [label="entropy = 0.0\nsamples = 1\nvalue = [1, 0]"] ;
1048 -> 1049 ;
1050 [label="entropy = 0.0\nsamples = 3\nvalue = [0, 3]"] ;
1048 -> 1050 ;
1051 [label="entropy = 0.0\nsamples = 4\nvalue = [4, 0]"] ;
1047 -> 1051 ;
1052 [label="entropy = 0.0\nsamples = 8\nvalue = [8, 0]"] ;
1046 -> 1052 ;
1053 [label="entropy = 0.0\nsamples = 24\nvalue = [24, 0]"] ;
1045 -> 1053 ;
1054 [label="entropy = 0.0\nsamples = 103\nvalue = [103, 0]"] ;
1030 -> 1054 ;
}