digraph Tree {
node [shape=box] ;
0 [label="max mag <= 11.5619\nentropy = 0.9033\nsamples = 14346\nvalue = [4577, 9769]"] ;
1 [label="entropy <= -200.2487\nentropy = 0.203\nsamples = 9580\nvalue = [304, 9276]"] ;
0 -> 1 [labeldistance=2.5, labelangle=45, headlabel="True"] ;
2 [label="var X <= 0.0012\nentropy = 0.087\nsamples = 7944\nvalue = [87, 7857]"] ;
1 -> 2 ;
3 [label="min mag <= 9.6169\nentropy = 0.5355\nsamples = 352\nvalue = [43, 309]"] ;
2 -> 3 ;
4 [label="median X <= -0.1958\nentropy = 0.1565\nsamples = 44\nvalue = [43, 1]"] ;
3 -> 4 ;
5 [label="entropy = 0.0\nsamples = 1\nvalue = [0, 1]"] ;
4 -> 5 ;
6 [label="entropy = 0.0\nsamples = 43\nvalue = [43, 0]"] ;
4 -> 6 ;
7 [label="entropy = 0.0\nsamples = 308\nvalue = [0, 308]"] ;
3 -> 7 ;
8 [label="mean Z <= 9.293\nentropy = 0.0514\nsamples = 7592\nvalue = [44, 7548]"] ;
2 -> 8 ;
9 [label="max mag <= 9.6389\nentropy = 0.3606\nsamples = 175\nvalue = [12, 163]"] ;
8 -> 9 ;
10 [label="std X <= 0.1145\nentropy = 0.9799\nsamples = 12\nvalue = [7, 5]"] ;
9 -> 10 ;
11 [label="entropy = 0.0\nsamples = 5\nvalue = [5, 0]"] ;
10 -> 11 ;
12 [label="min X <= -0.7764\nentropy = 0.8631\nsamples = 7\nvalue = [2, 5]"] ;
10 -> 12 ;
13 [label="max mag <= 9.5892\nentropy = 0.9183\nsamples = 3\nvalue = [2, 1]"] ;
12 -> 13 ;
14 [label="entropy = 0.0\nsamples = 2\nvalue = [2, 0]"] ;
13 -> 14 ;
15 [label="entropy = 0.0\nsamples = 1\nvalue = [0, 1]"] ;
13 -> 15 ;
16 [label="entropy = 0.0\nsamples = 4\nvalue = [0, 4]"] ;
12 -> 16 ;
17 [label="mean Z <= 9.2504\nentropy = 0.1978\nsamples = 163\nvalue = [5, 158]"] ;
9 -> 17 ;
18 [label="max Y <= -7.6461\nentropy = 0.1022\nsamples = 150\nvalue = [2, 148]"] ;
17 -> 18 ;
19 [label="entropy = 0.0\nsamples = 1\nvalue = [1, 0]"] ;
18 -> 19 ;
20 [label="min mag <= 7.9796\nentropy = 0.0581\nsamples = 149\nvalue = [1, 148]"] ;
18 -> 20 ;
21 [label="entropy = 0.0\nsamples = 1\nvalue = [1, 0]"] ;
20 -> 21 ;
22 [label="entropy = 0.0\nsamples = 148\nvalue = [0, 148]"] ;
20 -> 22 ;
23 [label="median Z <= 9.2621\nentropy = 0.7793\nsamples = 13\nvalue = [3, 10]"] ;
17 -> 23 ;
24 [label="min X <= -1.6286\nentropy = 0.971\nsamples = 5\nvalue = [3, 2]"] ;
23 -> 24 ;
25 [label="entropy = 0.0\nsamples = 2\nvalue = [2, 0]"] ;
24 -> 25 ;
26 [label="max mag <= 9.8698\nentropy = 0.9183\nsamples = 3\nvalue = [1, 2]"] ;
24 -> 26 ;
27 [label="entropy = 0.0\nsamples = 1\nvalue = [1, 0]"] ;
26 -> 27 ;
28 [label="entropy = 0.0\nsamples = 2\nvalue = [0, 2]"] ;
26 -> 28 ;
29 [label="entropy = 0.0\nsamples = 8\nvalue = [0, 8]"] ;
23 -> 29 ;
30 [label="mean mag <= 10.4026\nentropy = 0.0401\nsamples = 7417\nvalue = [32, 7385]"] ;
8 -> 30 ;
31 [label="mean mag <= 9.5348\nentropy = 0.0327\nsamples = 7385\nvalue = [25, 7360]"] ;
30 -> 31 ;
32 [label="entropy = 0.0\nsamples = 2475\nvalue = [0, 2475]"] ;
31 -> 32 ;
33 [label="max mag <= 9.6727\nentropy = 0.0461\nsamples = 4910\nvalue = [25, 4885]"] ;
31 -> 33 ;
34 [label="var Z <= 0.0026\nentropy = 0.885\nsamples = 33\nvalue = [10, 23]"] ;
33 -> 34 ;
35 [label="entropy = 0.0\nsamples = 9\nvalue = [9, 0]"] ;
34 -> 35 ;
36 [label="mean mag <= 9.5349\nentropy = 0.2499\nsamples = 24\nvalue = [1, 23]"] ;
34 -> 36 ;
37 [label="entropy = 0.0\nsamples = 1\nvalue = [1, 0]"] ;
36 -> 37 ;
38 [label="entropy = 0.0\nsamples = 23\nvalue = [0, 23]"] ;
36 -> 38 ;
39 [label="var Z <= 0.0149\nentropy = 0.0301\nsamples = 4877\nvalue = [15, 4862]"] ;
33 -> 39 ;
40 [label="entropy = 0.0\nsamples = 3527\nvalue = [0, 3527]"] ;
39 -> 40 ;
41 [label="min Y <= -0.0575\nentropy = 0.0881\nsamples = 1350\nvalue = [15, 1335]"] ;
39 -> 41 ;
42 [label="min Y <= -0.7435\nentropy = 0.048\nsamples = 1123\nvalue = [6, 1117]"] ;
41 -> 42 ;
43 [label="entropy = 0.1072\nsamples = 424\nvalue = [6, 418]"] ;
42 -> 43 ;
44 [label="entropy = 0.0\nsamples = 699\nvalue = [0, 699]"] ;
42 -> 44 ;
45 [label="median X <= -0.5196\nentropy = 0.2407\nsamples = 227\nvalue = [9, 218]"] ;
41 -> 45 ;
46 [label="entropy = 0.7793\nsamples = 26\nvalue = [6, 20]"] ;
45 -> 46 ;
47 [label="entropy = 0.1119\nsamples = 201\nvalue = [3, 198]"] ;
45 -> 47 ;
48 [label="median Y <= -0.423\nentropy = 0.7579\nsamples = 32\nvalue = [7, 25]"] ;
30 -> 48 ;
49 [label="std X <= 0.3026\nentropy = 0.9183\nsamples = 9\nvalue = [6, 3]"] ;
48 -> 49 ;
50 [label="entropy = 0.0\nsamples = 6\nvalue = [6, 0]"] ;
49 -> 50 ;
51 [label="entropy = 0.0\nsamples = 3\nvalue = [0, 3]"] ;
49 -> 51 ;
52 [label="median Z <= 9.8866\nentropy = 0.258\nsamples = 23\nvalue = [1, 22]"] ;
48 -> 52 ;
53 [label="entropy = 0.0\nsamples = 1\nvalue = [1, 0]"] ;
52 -> 53 ;
54 [label="entropy = 0.0\nsamples = 22\nvalue = [0, 22]"] ;
52 -> 54 ;
55 [label="max mag <= 9.6897\nentropy = 0.5646\nsamples = 1636\nvalue = [217, 1419]"] ;
1 -> 55 ;
56 [label="median mag <= 9.5449\nentropy = 0.9427\nsamples = 50\nvalue = [32, 18]"] ;
55 -> 56 ;
57 [label="median X <= 2.1776\nentropy = 0.469\nsamples = 20\nvalue = [2, 18]"] ;
56 -> 57 ;
58 [label="entropy = 0.0\nsamples = 18\nvalue = [0, 18]"] ;
57 -> 58 ;
59 [label="entropy = 0.0\nsamples = 2\nvalue = [2, 0]"] ;
57 -> 59 ;
60 [label="entropy = 0.0\nsamples = 30\nvalue = [30, 0]"] ;
56 -> 60 ;
61 [label="var mag <= 0.2165\nentropy = 0.5196\nsamples = 1586\nvalue = [185, 1401]"] ;
55 -> 61 ;
62 [label="mean Y <= 3.6483\nentropy = 0.4014\nsamples = 1291\nvalue = [103, 1188]"] ;
61 -> 62 ;
63 [label="max Z <= 8.8334\nentropy = 0.3466\nsamples = 1171\nvalue = [76, 1095]"] ;
62 -> 63 ;
64 [label="var Y <= 0.0202\nentropy = 0.5574\nsamples = 200\nvalue = [26, 174]"] ;
63 -> 64 ;
65 [label="std mag <= 0.2354\nentropy = 0.1257\nsamples = 58\nvalue = [1, 57]"] ;
64 -> 65 ;
66 [label="entropy = 0.0\nsamples = 57\nvalue = [0, 57]"] ;
65 -> 66 ;
67 [label="entropy = 0.0\nsamples = 1\nvalue = [1, 0]"] ;
65 -> 67 ;
68 [label="std Z <= 0.5509\nentropy = 0.6714\nsamples = 142\nvalue = [25, 117]"] ;
64 -> 68 ;
69 [label="median Y <= 2.0904\nentropy = 0.766\nsamples = 112\nvalue = [25, 87]"] ;
68 -> 69 ;
70 [label="min mag <= 9.4422\nentropy = 0.8274\nsamples = 96\nvalue = [25, 71]"] ;
69 -> 70 ;
71 [label="entropy = 0.994\nsamples = 33\nvalue = [15, 18]"] ;
70 -> 71 ;
72 [label="entropy = 0.6313\nsamples = 63\nvalue = [10, 53]"] ;
70 -> 72 ;
73 [label="entropy = 0.0\nsamples = 16\nvalue = [0, 16]"] ;
69 -> 73 ;
74 [label="entropy = 0.0\nsamples = 30\nvalue = [0, 30]"] ;
68 -> 74 ;
75 [label="max mag <= 10.1525\nentropy = 0.2927\nsamples = 971\nvalue = [50, 921]"] ;
63 -> 75 ;
76 [label="median Z <= 9.7295\nentropy = 0.4277\nsamples = 309\nvalue = [27, 282]"] ;
75 -> 76 ;
77 [label="max X <= 2.5954\nentropy = 0.3552\nsamples = 283\nvalue = [19, 264]"] ;
76 -> 77 ;
78 [label="var X <= 0.3595\nentropy = 0.2124\nsamples = 208\nvalue = [7, 201]"] ;
77 -> 78 ;
79 [label="entropy = 0.0881\nsamples = 180\nvalue = [2, 178]"] ;
78 -> 79 ;
80 [label="entropy = 0.6769\nsamples = 28\nvalue = [5, 23]"] ;
78 -> 80 ;
81 [label="entropy <= -198.1718\nentropy = 0.6343\nsamples = 75\nvalue = [12, 63]"] ;
77 -> 81 ;
82 [label="entropy = 0.0\nsamples = 2\nvalue = [2, 0]"] ;
81 -> 82 ;
83 [label="entropy = 0.5763\nsamples = 73\nvalue = [10, 63]"] ;
81 -> 83 ;
84 [label="max X <= 1.0988\nentropy = 0.8905\nsamples = 26\nvalue = [8, 18]"] ;
76 -> 84 ;
85 [label="mean mag <= 9.9109\nentropy = 0.9968\nsamples = 15\nvalue = [8, 7]"] ;
84 -> 85 ;
86 [label="entropy = 0.5033\nsamples = 9\nvalue = [8, 1]"] ;
85 -> 86 ;
87 [label="entropy = 0.0\nsamples = 6\nvalue = [0, 6]"] ;
85 -> 87 ;
88 [label="entropy = 0.0\nsamples = 11\nvalue = [0, 11]"] ;
84 -> 88 ;
89 [label="max Z <= 11.1509\nentropy = 0.2176\nsamples = 662\nvalue = [23, 639]"] ;
75 -> 89 ;
90 [label="entropy <= -192.6216\nentropy = 0.2039\nsamples = 658\nvalue = [21, 637]"] ;
89 -> 90 ;
91 [label="entropy = 0.0\nsamples = 96\nvalue = [0, 96]"] ;
90 -> 91 ;
92 [label="max X <= -1.9915\nentropy = 0.2301\nsamples = 562\nvalue = [21, 541]"] ;
90 -> 92 ;
93 [label="entropy = 0.0\nsamples = 55\nvalue = [0, 55]"] ;
92 -> 93 ;
94 [label="entropy = 0.2488\nsamples = 507\nvalue = [21, 486]"] ;
92 -> 94 ;
95 [label="max Y <= 0.9644\nentropy = 1.0\nsamples = 4\nvalue = [2, 2]"] ;
89 -> 95 ;
96 [label="entropy = 0.0\nsamples = 2\nvalue = [0, 2]"] ;
95 -> 96 ;
97 [label="entropy = 0.0\nsamples = 2\nvalue = [2, 0]"] ;
95 -> 97 ;
98 [label="var Y <= 0.012\nentropy = 0.7692\nsamples = 120\nvalue = [27, 93]"] ;
62 -> 98 ;
99 [label="max Y <= 6.0129\nentropy = 0.469\nsamples = 10\nvalue = [9, 1]"] ;
98 -> 99 ;
100 [label="entropy = 0.0\nsamples = 9\nvalue = [9, 0]"] ;
99 -> 100 ;
101 [label="entropy = 0.0\nsamples = 1\nvalue = [0, 1]"] ;
99 -> 101 ;
102 [label="mean mag <= 9.4937\nentropy = 0.6429\nsamples = 110\nvalue = [18, 92]"] ;
98 -> 102 ;
103 [label="entropy = 0.0\nsamples = 6\nvalue = [6, 0]"] ;
102 -> 103 ;
104 [label="mean mag <= 10.4312\nentropy = 0.5159\nsamples = 104\nvalue = [12, 92]"] ;
102 -> 104 ;
105 [label="entropy <= -169.9007\nentropy = 0.4022\nsamples = 100\nvalue = [8, 92]"] ;
104 -> 105 ;
106 [label="max mag <= 10.2947\nentropy = 0.6343\nsamples = 50\nvalue = [8, 42]"] ;
105 -> 106 ;
107 [label="entropy = 0.0\nsamples = 19\nvalue = [0, 19]"] ;
106 -> 107 ;
108 [label="entropy = 0.8238\nsamples = 31\nvalue = [8, 23]"] ;
106 -> 108 ;
109 [label="entropy = 0.0\nsamples = 50\nvalue = [0, 50]"] ;
105 -> 109 ;
110 [label="entropy = 0.0\nsamples = 4\nvalue = [4, 0]"] ;
104 -> 110 ;
111 [label="median mag <= 9.1238\nentropy = 0.8527\nsamples = 295\nvalue = [82, 213]"] ;
61 -> 111 ;
112 [label="entropy = 0.0\nsamples = 6\nvalue = [6, 0]"] ;
111 -> 112 ;
113 [label="min mag <= 9.1386\nentropy = 0.8312\nsamples = 289\nvalue = [76, 213]"] ;
111 -> 113 ;
114 [label="std mag <= 0.5819\nentropy = 0.7697\nsamples = 253\nvalue = [57, 196]"] ;
113 -> 114 ;
115 [label="min Y <= -1.7727\nentropy = 0.4328\nsamples = 90\nvalue = [8, 82]"] ;
114 -> 115 ;
116 [label="var mag <= 0.2837\nentropy = 0.6892\nsamples = 38\nvalue = [7, 31]"] ;
115 -> 116 ;
117 [label="median Y <= -1.9151\nentropy = 0.8709\nsamples = 24\nvalue = [7, 17]"] ;
116 -> 117 ;
118 [label="entropy = 0.3712\nsamples = 14\nvalue = [1, 13]"] ;
117 -> 118 ;
119 [label="entropy = 0.971\nsamples = 10\nvalue = [6, 4]"] ;
117 -> 119 ;
120 [label="entropy = 0.0\nsamples = 14\nvalue = [0, 14]"] ;
116 -> 120 ;
121 [label="median Z <= 9.8858\nentropy = 0.1371\nsamples = 52\nvalue = [1, 51]"] ;
115 -> 121 ;
122 [label="entropy = 0.0\nsamples = 50\nvalue = [0, 50]"] ;
121 -> 122 ;
123 [label="std X <= 0.5742\nentropy = 1.0\nsamples = 2\nvalue = [1, 1]"] ;
121 -> 123 ;
124 [label="entropy = 0.0\nsamples = 1\nvalue = [1, 0]"] ;
123 -> 124 ;
125 [label="entropy = 0.0\nsamples = 1\nvalue = [0, 1]"] ;
123 -> 125 ;
126 [label="median Z <= 9.701\nentropy = 0.882\nsamples = 163\nvalue = [49, 114]"] ;
114 -> 126 ;
127 [label="max Z <= 11.2184\nentropy = 0.9301\nsamples = 136\nvalue = [47, 89]"] ;
126 -> 127 ;
128 [label="min Z <= 1.1746\nentropy = 0.9105\nsamples = 132\nvalue = [43, 89]"] ;
127 -> 128 ;
129 [label="entropy = 0.8454\nsamples = 11\nvalue = [8, 3]"] ;
128 -> 129 ;
130 [label="entropy = 0.8678\nsamples = 121\nvalue = [35, 86]"] ;
128 -> 130 ;
131 [label="entropy = 0.0\nsamples = 4\nvalue = [4, 0]"] ;
127 -> 131 ;
132 [label="median Z <= 10.2311\nentropy = 0.3809\nsamples = 27\nvalue = [2, 25]"] ;
126 -> 132 ;
133 [label="entropy = 0.0\nsamples = 22\nvalue = [0, 22]"] ;
132 -> 133 ;
134 [label="entropy <= -178.4335\nentropy = 0.971\nsamples = 5\nvalue = [2, 3]"] ;
132 -> 134 ;
135 [label="entropy = 0.0\nsamples = 3\nvalue = [0, 3]"] ;
134 -> 135 ;
136 [label="entropy = 0.0\nsamples = 2\nvalue = [2, 0]"] ;
134 -> 136 ;
137 [label="median Y <= 3.1958\nentropy = 0.9978\nsamples = 36\nvalue = [19, 17]"] ;
113 -> 137 ;
138 [label="mean Z <= 9.7653\nentropy = 0.9932\nsamples = 31\nvalue = [14, 17]"] ;
137 -> 138 ;
139 [label="var X <= 0.2067\nentropy = 0.7871\nsamples = 17\nvalue = [4, 13]"] ;
138 -> 139 ;
140 [label="entropy = 0.0\nsamples = 2\nvalue = [2, 0]"] ;
139 -> 140 ;
141 [label="min mag <= 9.3651\nentropy = 0.5665\nsamples = 15\nvalue = [2, 13]"] ;
139 -> 141 ;
142 [label="entropy = 0.0\nsamples = 11\nvalue = [0, 11]"] ;
141 -> 142 ;
143 [label="entropy = 1.0\nsamples = 4\nvalue = [2, 2]"] ;
141 -> 143 ;
144 [label="median Z <= 9.9987\nentropy = 0.8631\nsamples = 14\nvalue = [10, 4]"] ;
138 -> 144 ;
145 [label="entropy = 0.0\nsamples = 7\nvalue = [7, 0]"] ;
144 -> 145 ;
146 [label="max mag <= 11.2551\nentropy = 0.9852\nsamples = 7\nvalue = [3, 4]"] ;
144 -> 146 ;
147 [label="entropy = 0.8113\nsamples = 4\nvalue = [3, 1]"] ;
146 -> 147 ;
148 [label="entropy = 0.0\nsamples = 3\nvalue = [0, 3]"] ;
146 -> 148 ;
149 [label="entropy = 0.0\nsamples = 5\nvalue = [5, 0]"] ;
137 -> 149 ;
150 [label="max Z <= 12.4571\nentropy = 0.4798\nsamples = 4766\nvalue = [4273, 493]"] ;
0 -> 150 [labeldistance=2.5, labelangle=-45, headlabel="False"] ;
151 [label="max X <= 8.654\nentropy = 0.8912\nsamples = 1424\nvalue = [985, 439]"] ;
150 -> 151 ;
152 [label="std mag <= 1.2763\nentropy = 0.7386\nsamples = 777\nvalue = [615, 162]"] ;
151 -> 152 ;
153 [label="mean mag <= 10.4386\nentropy = 0.9314\nsamples = 389\nvalue = [254, 135]"] ;
152 -> 153 ;
154 [label="std mag <= 0.7976\nentropy = 0.9989\nsamples = 252\nvalue = [131, 121]"] ;
153 -> 154 ;
155 [label="median mag <= 10.3666\nentropy = 0.838\nsamples = 71\nvalue = [19, 52]"] ;
154 -> 155 ;
156 [label="min Y <= -1.0023\nentropy = 0.7455\nsamples = 66\nvalue = [14, 52]"] ;
155 -> 156 ;
157 [label="max mag <= 12.1183\nentropy = 0.9097\nsamples = 40\nvalue = [13, 27]"] ;
156 -> 157 ;
158 [label="max Z <= 11.6064\nentropy = 0.9923\nsamples = 29\nvalue = [13, 16]"] ;
157 -> 158 ;
159 [label="entropy = 0.8113\nsamples = 20\nvalue = [5, 15]"] ;
158 -> 159 ;
160 [label="entropy = 0.5033\nsamples = 9\nvalue = [8, 1]"] ;
158 -> 160 ;
161 [label="entropy = 0.0\nsamples = 11\nvalue = [0, 11]"] ;
157 -> 161 ;
162 [label="std X <= 1.977\nentropy = 0.2352\nsamples = 26\nvalue = [1, 25]"] ;
156 -> 162 ;
163 [label="entropy = 0.0\nsamples = 25\nvalue = [0, 25]"] ;
162 -> 163 ;
164 [label="entropy = 0.0\nsamples = 1\nvalue = [1, 0]"] ;
162 -> 164 ;
165 [label="entropy = 0.0\nsamples = 5\nvalue = [5, 0]"] ;
155 -> 165 ;
166 [label="min Z <= 8.0231\nentropy = 0.9589\nsamples = 181\nvalue = [112, 69]"] ;
154 -> 166 ;
167 [label="max X <= -4.3366\nentropy = 0.9948\nsamples = 142\nvalue = [77, 65]"] ;
166 -> 167 ;
168 [label="std X <= 1.2748\nentropy = 0.3095\nsamples = 18\nvalue = [17, 1]"] ;
167 -> 168 ;
169 [label="entropy = 0.0\nsamples = 17\nvalue = [17, 0]"] ;
168 -> 169 ;
170 [label="entropy = 0.0\nsamples = 1\nvalue = [0, 1]"] ;
168 -> 170 ;
171 [label="min Y <= 4.6275\nentropy = 0.9992\nsamples = 124\nvalue = [60, 64]"] ;
167 -> 171 ;
172 [label="median Y <= 4.0637\nentropy = 0.9923\nsamples = 116\nvalue = [52, 64]"] ;
171 -> 172 ;
173 [label="entropy = 0.9997\nsamples = 106\nvalue = [52, 54]"] ;
172 -> 173 ;
174 [label="entropy = 0.0\nsamples = 10\nvalue = [0, 10]"] ;
172 -> 174 ;
175 [label="entropy = 0.0\nsamples = 8\nvalue = [8, 0]"] ;
171 -> 175 ;
176 [label="max Z <= 11.3253\nentropy = 0.4771\nsamples = 39\nvalue = [35, 4]"] ;
166 -> 176 ;
177 [label="entropy = 0.0\nsamples = 3\nvalue = [0, 3]"] ;
176 -> 177 ;
178 [label="median Y <= 1.7372\nentropy = 0.1831\nsamples = 36\nvalue = [35, 1]"] ;
176 -> 178 ;
179 [label="entropy = 0.0\nsamples = 35\nvalue = [35, 0]"] ;
178 -> 179 ;
180 [label="entropy = 0.0\nsamples = 1\nvalue = [0, 1]"] ;
178 -> 180 ;
181 [label="median X <= -1.2956\nentropy = 0.4759\nsamples = 137\nvalue = [123, 14]"] ;
153 -> 181 ;
182 [label="std mag <= 1.04\nentropy = 0.9059\nsamples = 28\nvalue = [19, 9]"] ;
181 -> 182 ;
183 [label="min Z <= 6.4511\nentropy = 1.0\nsamples = 18\nvalue = [9, 9]"] ;
182 -> 183 ;
184 [label="entropy = 0.0\nsamples = 3\nvalue = [0, 3]"] ;
183 -> 184 ;
185 [label="std Z <= 0.9065\nentropy = 0.971\nsamples = 15\nvalue = [9, 6]"] ;
183 -> 185 ;
186 [label="max Z <= 10.8671\nentropy = 0.9183\nsamples = 9\nvalue = [3, 6]"] ;
185 -> 186 ;
187 [label="entropy = 0.8113\nsamples = 4\nvalue = [3, 1]"] ;
186 -> 187 ;
188 [label="entropy = 0.0\nsamples = 5\nvalue = [0, 5]"] ;
186 -> 188 ;
189 [label="entropy = 0.0\nsamples = 6\nvalue = [6, 0]"] ;
185 -> 189 ;
190 [label="entropy = 0.0\nsamples = 10\nvalue = [10, 0]"] ;
182 -> 190 ;
191 [label="min Y <= -6.0473\nentropy = 0.2686\nsamples = 109\nvalue = [104, 5]"] ;
181 -> 191 ;
192 [label="max Y <= -0.7489\nentropy = 0.9183\nsamples = 3\nvalue = [1, 2]"] ;
191 -> 192 ;
193 [label="entropy = 0.0\nsamples = 1\nvalue = [1, 0]"] ;
192 -> 193 ;
194 [label="entropy = 0.0\nsamples = 2\nvalue = [0, 2]"] ;
192 -> 194 ;
195 [label="std mag <= 0.6401\nentropy = 0.1858\nsamples = 106\nvalue = [103, 3]"] ;
191 -> 195 ;
196 [label="max mag <= 12.219\nentropy = 0.5586\nsamples = 23\nvalue = [20, 3]"] ;
195 -> 196 ;
197 [label="min Z <= 6.9744\nentropy = 0.2762\nsamples = 21\nvalue = [20, 1]"] ;
196 -> 197 ;
198 [label="entropy = 0.0\nsamples = 1\nvalue = [0, 1]"] ;
197 -> 198 ;
199 [label="entropy = 0.0\nsamples = 20\nvalue = [20, 0]"] ;
197 -> 199 ;
200 [label="entropy = 0.0\nsamples = 2\nvalue = [0, 2]"] ;
196 -> 200 ;
201 [label="entropy = 0.0\nsamples = 83\nvalue = [83, 0]"] ;
195 -> 201 ;
202 [label="var mag <= 5.5181\nentropy = 0.3644\nsamples = 388\nvalue = [361, 27]"] ;
152 -> 202 ;
203 [label="entropy <= -157.6526\nentropy = 0.4457\nsamples = 291\nvalue = [264, 27]"] ;
202 -> 203 ;
204 [label="mean X <= -0.6246\nentropy = 0.2543\nsamples = 211\nvalue = [202, 9]"] ;
203 -> 204 ;
205 [label="max Y <= 7.772\nentropy = 0.3798\nsamples = 122\nvalue = [113, 9]"] ;
204 -> 205 ;
206 [label="min X <= -4.9244\nentropy = 0.1886\nsamples = 104\nvalue = [101, 3]"] ;
205 -> 206 ;
207 [label="entropy = 0.0\nsamples = 85\nvalue = [85, 0]"] ;
206 -> 207 ;
208 [label="max X <= 0.2992\nentropy = 0.6292\nsamples = 19\nvalue = [16, 3]"] ;
206 -> 208 ;
209 [label="entropy = 0.8113\nsamples = 4\nvalue = [1, 3]"] ;
208 -> 209 ;
210 [label="entropy = 0.0\nsamples = 15\nvalue = [15, 0]"] ;
208 -> 210 ;
211 [label="entropy <= -168.4515\nentropy = 0.9183\nsamples = 18\nvalue = [12, 6]"] ;
205 -> 211 ;
212 [label="entropy = 0.0\nsamples = 3\nvalue = [0, 3]"] ;
211 -> 212 ;
213 [label="var X <= 6.4987\nentropy = 0.7219\nsamples = 15\nvalue = [12, 3]"] ;
211 -> 213 ;
214 [label="entropy = 0.0\nsamples = 10\nvalue = [10, 0]"] ;
213 -> 214 ;
215 [label="entropy = 0.971\nsamples = 5\nvalue = [2, 3]"] ;
213 -> 215 ;
216 [label="entropy = 0.0\nsamples = 89\nvalue = [89, 0]"] ;
204 -> 216 ;
217 [label="entropy <= -157.2986\nentropy = 0.7692\nsamples = 80\nvalue = [62, 18]"] ;
203 -> 217 ;
218 [label="max Z <= 12.0742\nentropy = 0.7219\nsamples = 5\nvalue = [1, 4]"] ;
217 -> 218 ;
219 [label="entropy = 0.0\nsamples = 4\nvalue = [0, 4]"] ;
218 -> 219 ;
220 [label="entropy = 0.0\nsamples = 1\nvalue = [1, 0]"] ;
218 -> 220 ;
221 [label="min X <= -9.6712\nentropy = 0.6944\nsamples = 75\nvalue = [61, 14]"] ;
217 -> 221 ;
222 [label="entropy = 0.0\nsamples = 15\nvalue = [15, 0]"] ;
221 -> 222 ;
223 [label="min Y <= 2.4626\nentropy = 0.7838\nsamples = 60\nvalue = [46, 14]"] ;
221 -> 223 ;
224 [label="median Y <= 3.858\nentropy = 0.9436\nsamples = 36\nvalue = [23, 13]"] ;
223 -> 224 ;
225 [label="entropy = 0.8238\nsamples = 31\nvalue = [23, 8]"] ;
224 -> 225 ;
226 [label="entropy = 0.0\nsamples = 5\nvalue = [0, 5]"] ;
224 -> 226 ;
227 [label="max mag <= 12.0798\nentropy = 0.2499\nsamples = 24\nvalue = [23, 1]"] ;
223 -> 227 ;
228 [label="entropy = 0.0\nsamples = 1\nvalue = [0, 1]"] ;
227 -> 228 ;
229 [label="entropy = 0.0\nsamples = 23\nvalue = [23, 0]"] ;
227 -> 229 ;
230 [label="entropy = 0.0\nsamples = 97\nvalue = [97, 0]"] ;
202 -> 230 ;
231 [label="min Y <= -0.2529\nentropy = 0.985\nsamples = 647\nvalue = [370, 277]"] ;
151 -> 231 ;
232 [label="median Y <= -3.0571\nentropy = 0.99\nsamples = 628\nvalue = [351, 277]"] ;
231 -> 232 ;
233 [label="entropy = 0.0\nsamples = 13\nvalue = [13, 0]"] ;
232 -> 233 ;
234 [label="mean X <= 9.0013\nentropy = 0.9929\nsamples = 615\nvalue = [338, 277]"] ;
232 -> 234 ;
235 [label="max X <= 13.7566\nentropy = 0.9904\nsamples = 606\nvalue = [338, 268]"] ;
234 -> 235 ;
236 [label="max Z <= 5.7345\nentropy = 0.9925\nsamples = 597\nvalue = [329, 268]"] ;
235 -> 236 ;
237 [label="std Z <= 0.8507\nentropy = 0.9949\nsamples = 166\nvalue = [76, 90]"] ;
236 -> 237 ;
238 [label="min mag <= 4.4648\nentropy = 0.868\nsamples = 38\nvalue = [27, 11]"] ;
237 -> 238 ;
239 [label="entropy = 0.9457\nsamples = 11\nvalue = [4, 7]"] ;
238 -> 239 ;
240 [label="entropy = 0.6052\nsamples = 27\nvalue = [23, 4]"] ;
238 -> 240 ;
241 [label="median mag <= 9.7641\nentropy = 0.96\nsamples = 128\nvalue = [49, 79]"] ;
237 -> 241 ;
242 [label="entropy = 0.995\nsamples = 48\nvalue = [26, 22]"] ;
241 -> 242 ;
243 [label="entropy = 0.8655\nsamples = 80\nvalue = [23, 57]"] ;
241 -> 243 ;
244 [label="max Z <= 5.8719\nentropy = 0.978\nsamples = 431\nvalue = [253, 178]"] ;
236 -> 244 ;
245 [label="var Z <= 1.2374\nentropy = 0.4855\nsamples = 19\nvalue = [17, 2]"] ;
244 -> 245 ;
246 [label="entropy = 0.0\nsamples = 2\nvalue = [0, 2]"] ;
245 -> 246 ;
247 [label="entropy = 0.0\nsamples = 17\nvalue = [17, 0]"] ;
245 -> 247 ;
248 [label="max Z <= 12.2424\nentropy = 0.9846\nsamples = 412\nvalue = [236, 176]"] ;
244 -> 248 ;
249 [label="entropy = 0.9822\nsamples = 408\nvalue = [236, 172]"] ;
248 -> 249 ;
250 [label="entropy = 0.0\nsamples = 4\nvalue = [0, 4]"] ;
248 -> 250 ;
251 [label="entropy = 0.0\nsamples = 9\nvalue = [9, 0]"] ;
235 -> 251 ;
252 [label="entropy = 0.0\nsamples = 9\nvalue = [0, 9]"] ;
234 -> 252 ;
253 [label="entropy = 0.0\nsamples = 19\nvalue = [19, 0]"] ;
231 -> 253 ;
254 [label="max Z <= 14.6298\nentropy = 0.1193\nsamples = 3342\nvalue = [3288, 54]"] ;
150 -> 254 ;
255 [label="median mag <= 10.4375\nentropy = 0.2273\nsamples = 1278\nvalue = [1231, 47]"] ;
254 -> 255 ;
256 [label="std X <= 3.3389\nentropy = 0.2715\nsamples = 1010\nvalue = [963, 47]"] ;
255 -> 256 ;
257 [label="var mag <= 1.6531\nentropy = 0.2354\nsamples = 987\nvalue = [949, 38]"] ;
256 -> 257 ;
258 [label="min Z <= 8.27\nentropy = 0.6246\nsamples = 109\nvalue = [92, 17]"] ;
257 -> 258 ;
259 [label="var Y <= 2.5193\nentropy = 0.971\nsamples = 40\nvalue = [24, 16]"] ;
258 -> 259 ;
260 [label="median mag <= 9.6035\nentropy = 0.874\nsamples = 34\nvalue = [24, 10]"] ;
259 -> 260 ;
261 [label="entropy = 0.0\nsamples = 11\nvalue = [11, 0]"] ;
260 -> 261 ;
262 [label="var Y <= 0.99\nentropy = 0.9877\nsamples = 23\nvalue = [13, 10]"] ;
260 -> 262 ;
263 [label="entropy = 0.5436\nsamples = 8\nvalue = [1, 7]"] ;
262 -> 263 ;
264 [label="entropy = 0.7219\nsamples = 15\nvalue = [12, 3]"] ;
262 -> 264 ;
265 [label="entropy = 0.0\nsamples = 6\nvalue = [0, 6]"] ;
259 -> 265 ;
266 [label="std mag <= 0.8249\nentropy = 0.1093\nsamples = 69\nvalue = [68, 1]"] ;
258 -> 266 ;
267 [label="entropy = 0.0\nsamples = 1\nvalue = [0, 1]"] ;
266 -> 267 ;
268 [label="entropy = 0.0\nsamples = 68\nvalue = [68, 0]"] ;
266 -> 268 ;
269 [label="median Y <= -1.4166\nentropy = 0.1629\nsamples = 878\nvalue = [857, 21]"] ;
257 -> 269 ;
270 [label="std mag <= 2.3073\nentropy = 0.5548\nsamples = 62\nvalue = [54, 8]"] ;
269 -> 270 ;
271 [label="max Y <= 0.5399\nentropy = 0.7425\nsamples = 38\nvalue = [30, 8]"] ;
270 -> 271 ;
272 [label="std X <= 1.5151\nentropy = 0.2668\nsamples = 22\nvalue = [21, 1]"] ;
271 -> 272 ;
273 [label="entropy = 0.0\nsamples = 19\nvalue = [19, 0]"] ;
272 -> 273 ;
274 [label="entropy = 0.9183\nsamples = 3\nvalue = [2, 1]"] ;
272 -> 274 ;
275 [label="mean mag <= 10.2744\nentropy = 0.9887\nsamples = 16\nvalue = [9, 7]"] ;
271 -> 275 ;
276 [label="entropy = 0.8813\nsamples = 10\nvalue = [3, 7]"] ;
275 -> 276 ;
277 [label="entropy = 0.0\nsamples = 6\nvalue = [6, 0]"] ;
275 -> 277 ;
278 [label="entropy = 0.0\nsamples = 24\nvalue = [24, 0]"] ;
270 -> 278 ;
279 [label="mean X <= 1.3805\nentropy = 0.1179\nsamples = 816\nvalue = [803, 13]"] ;
269 -> 279 ;
280 [label="median mag <= 10.4367\nentropy = 0.0743\nsamples = 775\nvalue = [768, 7]"] ;
279 -> 280 ;
281 [label="max mag <= 14.2346\nentropy = 0.0655\nsamples = 774\nvalue = [768, 6]"] ;
280 -> 281 ;
282 [label="entropy = 0.0\nsamples = 464\nvalue = [464, 0]"] ;
281 -> 282 ;
283 [label="entropy = 0.1378\nsamples = 310\nvalue = [304, 6]"] ;
281 -> 283 ;
284 [label="entropy = 0.0\nsamples = 1\nvalue = [0, 1]"] ;
280 -> 284 ;
285 [label="mean X <= 4.9728\nentropy = 0.6006\nsamples = 41\nvalue = [35, 6]"] ;
279 -> 285 ;
286 [label="min Y <= -3.6827\nentropy = 0.4771\nsamples = 39\nvalue = [35, 4]"] ;
285 -> 286 ;
287 [label="entropy = 0.9852\nsamples = 7\nvalue = [4, 3]"] ;
286 -> 287 ;
288 [label="entropy = 0.2006\nsamples = 32\nvalue = [31, 1]"] ;
286 -> 288 ;
289 [label="entropy = 0.0\nsamples = 2\nvalue = [0, 2]"] ;
285 -> 289 ;
290 [label="min X <= -7.6155\nentropy = 0.9656\nsamples = 23\nvalue = [14, 9]"] ;
256 -> 290 ;
291 [label="std mag <= 2.8666\nentropy = 0.7642\nsamples = 9\nvalue = [2, 7]"] ;
290 -> 291 ;
292 [label="entropy <= -154.9366\nentropy = 1.0\nsamples = 4\nvalue = [2, 2]"] ;
291 -> 292 ;
293 [label="entropy = 0.0\nsamples = 2\nvalue = [2, 0]"] ;
292 -> 293 ;
294 [label="entropy = 0.0\nsamples = 2\nvalue = [0, 2]"] ;
292 -> 294 ;
295 [label="entropy = 0.0\nsamples = 5\nvalue = [0, 5]"] ;
291 -> 295 ;
296 [label="max X <= 6.3875\nentropy = 0.5917\nsamples = 14\nvalue = [12, 2]"] ;
290 -> 296 ;
297 [label="max X <= 6.0484\nentropy = 0.971\nsamples = 5\nvalue = [3, 2]"] ;
296 -> 297 ;
298 [label="entropy = 0.0\nsamples = 3\nvalue = [3, 0]"] ;
297 -> 298 ;
299 [label="entropy = 0.0\nsamples = 2\nvalue = [0, 2]"] ;
297 -> 299 ;
300 [label="entropy = 0.0\nsamples = 9\nvalue = [9, 0]"] ;
296 -> 300 ;
301 [label="entropy = 0.0\nsamples = 268\nvalue = [268, 0]"] ;
255 -> 301 ;
302 [label="var X <= 0.6064\nentropy = 0.0327\nsamples = 2064\nvalue = [2057, 7]"] ;
254 -> 302 ;
303 [label="std mag <= 1.7718\nentropy = 0.8813\nsamples = 10\nvalue = [7, 3]"] ;
302 -> 303 ;
304 [label="entropy = 0.0\nsamples = 2\nvalue = [0, 2]"] ;
303 -> 304 ;
305 [label="var Y <= 9.1388\nentropy = 0.5436\nsamples = 8\nvalue = [7, 1]"] ;
303 -> 305 ;
306 [label="entropy = 0.0\nsamples = 7\nvalue = [7, 0]"] ;
305 -> 306 ;
307 [label="entropy = 0.0\nsamples = 1\nvalue = [0, 1]"] ;
305 -> 307 ;
308 [label="median Z <= 6.8344\nentropy = 0.0203\nsamples = 2054\nvalue = [2050, 4]"] ;
302 -> 308 ;
309 [label="min mag <= 7.0575\nentropy = 0.3712\nsamples = 42\nvalue = [39, 3]"] ;
308 -> 309 ;
310 [label="entropy = 0.0\nsamples = 36\nvalue = [36, 0]"] ;
309 -> 310 ;
311 [label="min mag <= 7.8863\nentropy = 1.0\nsamples = 6\nvalue = [3, 3]"] ;
309 -> 311 ;
312 [label="entropy = 0.0\nsamples = 3\nvalue = [0, 3]"] ;
311 -> 312 ;
313 [label="entropy = 0.0\nsamples = 3\nvalue = [3, 0]"] ;
311 -> 313 ;
314 [label="min Z <= 0.0361\nentropy = 0.0062\nsamples = 2012\nvalue = [2011, 1]"] ;
308 -> 314 ;
315 [label="min X <= -2.0788\nentropy = 0.4138\nsamples = 12\nvalue = [11, 1]"] ;
314 -> 315 ;
316 [label="entropy = 0.0\nsamples = 11\nvalue = [11, 0]"] ;
315 -> 316 ;
317 [label="entropy = 0.0\nsamples = 1\nvalue = [0, 1]"] ;
315 -> 317 ;
318 [label="entropy = 0.0\nsamples = 2000\nvalue = [2000, 0]"] ;
314 -> 318 ;
}