digraph Tree {
node [shape=box] ;
0 [label="max mag <= 11.5619\nentropy = 0.9036\nsamples = 14346\nvalue = [4581, 9765]"] ;
1 [label="entropy <= -201.1614\nentropy = 0.1971\nsamples = 9558\nvalue = [292, 9266]"] ;
0 -> 1 [labeldistance=2.5, labelangle=45, headlabel="True"] ;
2 [label="std X <= 0.033\nentropy = 0.0814\nsamples = 7923\nvalue = [80, 7843]"] ;
1 -> 2 ;
3 [label="min mag <= 9.6169\nentropy = 0.5566\nsamples = 293\nvalue = [38, 255]"] ;
2 -> 3 ;
4 [label="entropy = 0.0\nsamples = 38\nvalue = [38, 0]"] ;
3 -> 4 ;
5 [label="entropy = 0.0\nsamples = 255\nvalue = [0, 255]"] ;
3 -> 5 ;
6 [label="mean mag <= 10.403\nentropy = 0.0492\nsamples = 7630\nvalue = [42, 7588]"] ;
2 -> 6 ;
7 [label="mean Z <= 9.293\nentropy = 0.0424\nsamples = 7590\nvalue = [35, 7555]"] ;
6 -> 7 ;
8 [label="entropy = 0.3081\nsamples = 163\nvalue = [9, 154]"] ;
7 -> 8 ;
9 [label="entropy = 0.0336\nsamples = 7427\nvalue = [26, 7401]"] ;
7 -> 9 ;
10 [label="std mag <= 0.1645\nentropy = 0.669\nsamples = 40\nvalue = [7, 33]"] ;
6 -> 10 ;
11 [label="entropy = 0.0\nsamples = 14\nvalue = [0, 14]"] ;
10 -> 11 ;
12 [label="entropy = 0.8404\nsamples = 26\nvalue = [7, 19]"] ;
10 -> 12 ;
13 [label="std mag <= 0.5819\nentropy = 0.5565\nsamples = 1635\nvalue = [212, 1423]"] ;
1 -> 13 ;
14 [label="max mag <= 9.6897\nentropy = 0.4763\nsamples = 1466\nvalue = [150, 1316]"] ;
13 -> 14 ;
15 [label="min mag <= 9.4526\nentropy = 0.971\nsamples = 45\nvalue = [27, 18]"] ;
14 -> 15 ;
16 [label="entropy = 0.2975\nsamples = 19\nvalue = [1, 18]"] ;
15 -> 16 ;
17 [label="entropy = 0.0\nsamples = 26\nvalue = [26, 0]"] ;
15 -> 17 ;
18 [label="median mag <= 10.3872\nentropy = 0.4249\nsamples = 1421\nvalue = [123, 1298]"] ;
14 -> 18 ;
19 [label="entropy = 0.3926\nsamples = 1371\nvalue = [106, 1265]"] ;
18 -> 19 ;
20 [label="entropy = 0.9248\nsamples = 50\nvalue = [17, 33]"] ;
18 -> 20 ;
21 [label="max X <= -2.6692\nentropy = 0.9482\nsamples = 169\nvalue = [62, 107]"] ;
13 -> 21 ;
22 [label="min X <= -10.7762\nentropy = 0.469\nsamples = 10\nvalue = [9, 1]"] ;
21 -> 22 ;
23 [label="entropy = 0.0\nsamples = 1\nvalue = [0, 1]"] ;
22 -> 23 ;
24 [label="entropy = 0.0\nsamples = 9\nvalue = [9, 0]"] ;
22 -> 24 ;
25 [label="var mag <= 0.9654\nentropy = 0.9183\nsamples = 159\nvalue = [53, 106]"] ;
21 -> 25 ;
26 [label="entropy = 0.877\nsamples = 145\nvalue = [43, 102]"] ;
25 -> 26 ;
27 [label="entropy = 0.8631\nsamples = 14\nvalue = [10, 4]"] ;
25 -> 27 ;
28 [label="max Z <= 12.5609\nentropy = 0.4822\nsamples = 4788\nvalue = [4289, 499]"] ;
0 -> 28 [labeldistance=2.5, labelangle=-45, headlabel="False"] ;
29 [label="std X <= 8.4835\nentropy = 0.8907\nsamples = 1465\nvalue = [1014, 451]"] ;
28 -> 29 ;
30 [label="var mag <= 1.3251\nentropy = 0.7489\nsamples = 907\nvalue = [713, 194]"] ;
29 -> 30 ;
31 [label="mean mag <= 10.3588\nentropy = 0.9459\nsamples = 371\nvalue = [236, 135]"] ;
30 -> 31 ;
32 [label="entropy = 0.9931\nsamples = 215\nvalue = [97, 118]"] ;
31 -> 32 ;
33 [label="entropy = 0.4968\nsamples = 156\nvalue = [139, 17]"] ;
31 -> 33 ;
34 [label="max mag <= 15.8382\nentropy = 0.5001\nsamples = 536\nvalue = [477, 59]"] ;
30 -> 34 ;
35 [label="entropy = 0.5584\nsamples = 445\nvalue = [387, 58]"] ;
34 -> 35 ;
36 [label="entropy = 0.0873\nsamples = 91\nvalue = [90, 1]"] ;
34 -> 36 ;
37 [label="mean Y <= -0.1734\nentropy = 0.9955\nsamples = 558\nvalue = [301, 257]"] ;
29 -> 37 ;
38 [label="std X <= 9.5498\nentropy = 0.9523\nsamples = 223\nvalue = [140, 83]"] ;
37 -> 38 ;
39 [label="entropy = 0.8286\nsamples = 111\nvalue = [82, 29]"] ;
38 -> 39 ;
40 [label="entropy = 0.9991\nsamples = 112\nvalue = [58, 54]"] ;
38 -> 40 ;
41 [label="mean Y <= -0.0038\nentropy = 0.9989\nsamples = 335\nvalue = [161, 174]"] ;
37 -> 41 ;
42 [label="entropy = 0.9077\nsamples = 65\nvalue = [21, 44]"] ;
41 -> 42 ;
43 [label="entropy = 0.999\nsamples = 270\nvalue = [140, 130]"] ;
41 -> 43 ;
44 [label="max Z <= 15.3011\nentropy = 0.109\nsamples = 3323\nvalue = [3275, 48]"] ;
28 -> 44 ;
45 [label="median X <= 1.564\nentropy = 0.1818\nsamples = 1599\nvalue = [1555, 44]"] ;
44 -> 45 ;
46 [label="var X <= 32.7473\nentropy = 0.1401\nsamples = 1467\nvalue = [1438, 29]"] ;
45 -> 46 ;
47 [label="entropy = 0.1288\nsamples = 1462\nvalue = [1436, 26]"] ;
46 -> 47 ;
48 [label="entropy = 0.971\nsamples = 5\nvalue = [2, 3]"] ;
46 -> 48 ;
49 [label="median mag <= 10.3938\nentropy = 0.5108\nsamples = 132\nvalue = [117, 15]"] ;
45 -> 49 ;
50 [label="entropy = 0.6677\nsamples = 86\nvalue = [71, 15]"] ;
49 -> 50 ;
51 [label="entropy = 0.0\nsamples = 46\nvalue = [46, 0]"] ;
49 -> 51 ;
52 [label="entropy <= -167.2231\nentropy = 0.0236\nsamples = 1724\nvalue = [1720, 4]"] ;
44 -> 52 ;
53 [label="median X <= 5.0192\nentropy = 0.0995\nsamples = 310\nvalue = [306, 4]"] ;
52 -> 53 ;
54 [label="entropy = 0.0565\nsamples = 308\nvalue = [306, 2]"] ;
53 -> 54 ;
55 [label="entropy = 0.0\nsamples = 2\nvalue = [0, 2]"] ;
53 -> 55 ;
56 [label="entropy = 0.0\nsamples = 1414\nvalue = [1414, 0]"] ;
52 -> 56 ;
}